#ifndef WEIGHT_H
#define WEIGHT_H
#include "ap_fixed.h"
typedef ap_fixed<16, 6> data_t;
const data_t conv_block_0_weight[] = {-0.17613772,0.14573623,0.12196332,0.16477804,-0.04527082,-0.062160946,-0.1686301,-0.12000176,-0.06835912,-0.035590358,-0.0058727604,0.060627576,-0.034331713,0.08886051,-0.14706343,-0.14063334,-0.14976053,0.053068053,-0.06813573,0.17262334,-0.13473354,-0.18491197,0.021235477,-0.19016874,-0.117338106,0.0802913,-0.023091659,0.15071577,0.16853938,0.03190045,0.18632257,-0.05129163,0.19052717,0.024033532,0.104815036,0.06867105,0.0462268,-0.13533044,0.014086828,0.14860249,-0.09572773,-0.18567264,-0.10665512,-0.15820971,-0.065384075,0.030854195,-0.19305487,-0.06714176,-0.035333022,-0.07249089,-0.10996269,0.15534166,0.13772012,-0.09931383,0.034126155,0.16055524,-0.09811216,-0.08175641,0.08822218,0.104330614,0.065664165,-0.1652484,-0.05898172,-0.15480888,-0.18086809,0.057853464,-0.010293806,0.0594973,-0.07932105,-0.16798922,0.04111092,-0.11557196,0.025867471,-0.07347379,0.036971424,-0.07349619,0.11216823,-0.19649377,-0.061857313,0.1555983,-0.058572087,-0.12014083,0.09453593,0.081849426,0.039496668,0.017118363,0.05980667,-0.00073869596,0.14445885,0.051009342,0.19244748,0.1166037,-0.11552418,0.1933785,0.07647607,0.12321321,0.16502361,0.17262961,-0.13068518,0.13024502,-0.11434839,-0.09912175,-0.05522942,0.04485417,0.07050535,0.16493167,0.14040591,0.16789974,0.19952042,0.04752666,-0.049200647,0.056645546,0.070532076,-0.14367424,0.09455753,0.011059576,0.06731256,0.16765016,0.15609097,0.12028205,0.19813307,-0.117714755,0.1235373,-0.024214422,-0.15743263,-0.03253693,0.028216967,0.16127135,-0.07944631,-0.019800248,-0.123039484,-0.015858423,-0.08512378,-0.027952487,-0.1106041,0.08295361,-0.19354005,-0.116858646,0.1925347,0.122733146,0.18887103,0.17052566,-0.083650194,-0.03738078,-0.15580653,0.1399283,-0.02385949,-0.120642625,-0.06859945,-0.18187591,0.0696812,0.087431796,0.14471483,0.1629972,-0.07998277,0.12800615,-0.1662799,0.18615437,-0.020106606,-0.12874568,0.04776216,0.14298669,-0.16486406,0.0033694892,0.14899625,0.08990719,0.023520809,0.0050569167,-0.14238895,-0.064244896,0.13616875,0.18589646,-0.030405227,-0.04145603,-0.13417159,0.09620619,0.029685289,-0.16465576,0.12790523,0.1680321,0.14321649,0.06647284,-0.14185071,0.032664835,0.04166872,-0.01725925,-0.009399893,0.020327905,0.20708393,0.019597914,-0.034296453,0.03545379,0.020477304,0.06911893,0.08739214,-0.17482205,-0.029639816,-0.16172858,0.116221376,-0.103353545,-0.18185708,0.13866429,-0.15984406,0.18260513,-0.12756634,-0.076005176,-0.06054968,-0.13889425,-0.15378511,-0.149141,0.1044453,0.043936573,0.17575297,0.16575527,-0.1905976,0.02503706,-0.16668984,0.074168056,-0.16093782,0.16773787,-0.14725387,-0.12270586,-0.018567532,0.15774012,0.18508554,0.049407154,0.050831735,0.17427567,0.05832535,0.009247407,0.030893847,0.021347433,-0.12419091,-0.1879982,0.002656877,-0.10902245,-0.18646938,-0.06350502,0.11732441,-0.15615544,-0.0498522,0.051402245,-0.04438397,0.1721203,-0.19542229,0.103586905,-0.04881052,-0.10277312,0.17142983,-0.13948502,0.18048297,-0.11933608,-0.060328826,0.08809727,-0.1243068,-0.15963075,0.05146263,0.029944148,-0.17714497,-0.07259584,0.04932674,0.1171125,0.06369279,-0.16571772,-0.049532965,0.18965636,0.18648106,0.0875068,0.01682727,0.118138276,-0.17726573,0.08690461,0.059610773,-0.16392697,0.011845705,-0.0682743,0.12199002,-0.046403408,-0.13094443,0.21001914,0.21775505,0.15827045,0.14781922,0.14700426,0.10070179,0.18779987,0.12977782,0.16608594,-0.0029623979,0.18378934,-0.030799516,0.1644479,0.13270465,0.16058928,0.17547628,-0.18919194,0.059730697,0.110635854,-0.19151993,-0.15903725,0.16478078,0.014023354,0.029330762,-0.05106609,-0.15223533,-0.123899534,-0.057932213,-0.08815166,0.15432592,0.18876597,0.19481602,0.16501017,-0.008505975,-0.07733664,-0.054550227,-0.04907573,0.07438524,-0.077278264,0.038008567,-0.055909745,0.0034664336,-0.20300476,-0.17435281,-0.02803561,0.0841406,-0.040661447,-0.0015135084,0.059245307,-0.07919678,0.048144564,-0.07724954,0.10520644,0.10291477,0.08672762,0.19238901,-0.16251136,0.038071495,-0.20205182,-0.17966951,0.08221462,0.031781536,0.21444543,-0.15708055,0.1342884,0.0016646858,-0.16021702,0.025614614,-0.17453185,0.15142784,-0.03690977,0.090533115,-0.014906135,-0.19440134,-0.011197194,0.042870097,0.051421966,0.072854936,-0.1440896,-0.20036316,0.14302652,-0.0947654,0.045160197,-0.1458795,-0.10964783,0.06312908,-0.18669897,0.06367338,0.14856449,-0.19662629,0.005688825,0.02898056,0.0464158,0.020515742,0.002718452,0.0577438,-0.20671475,-0.021384915,-0.16665372,0.020107195,-0.07685753,-0.0024168084,0.03131927,0.045988422,-0.069232374,0.10651301,0.07421957,0.10471293,0.08881119,-0.19534364,-0.04725028,-0.049828164,0.18800354,-0.12985028,0.17931013,0.007845954,-0.17549983,0.10952871,-0.017330503,0.114924304,-0.113508895,0.16909419,-0.0856891,-0.092280194,0.017413296,0.10306921,0.08534057,0.12149477,0.16661234,-0.037258882,-0.14382474,0.19331528,0.13627617,-0.14746946,0.09094319,-0.0589529,0.13666749,0.17410246,0.073805764,-0.085491806,0.10555656,-0.057365645,0.0027016117,0.04117938,0.034025628,0.15826318,0.0979477,0.06907968,-0.19673347,0.035644453,-0.025560772,0.18489234,0.0907439,0.088107444,0.015875362,0.18091275,-0.13984706,0.12798749,-0.09544478,-0.19406453,-0.010241162,-0.14110483,-0.044447098,0.10877426,0.075126715,0.045224134,0.016758842,0.06637972,0.020132635,0.038913153,0.15606385,0.1326638,-0.07485543,-0.041065257,0.0340267,0.055004384,0.17951524,-0.120849386,-0.1604659,0.14431329,0.18149705,-0.13523276,-0.16965218,0.040505014,-0.012699123,0.005809185,-0.038577173,-0.051473297,0.15643093,0.05607018,-0.018581133,0.005359562,0.14802533,-0.1728751,-0.22008069,-0.024104781,-0.032408632,0.16002832,0.17206644,0.036909427,-0.18415576,-0.1953505,-0.06907884,-0.14754339,0.17684194,0.15433563,0.09409641,0.19685805,0.016427957,-0.057023395,0.18602477,-0.048189744,0.15338506,0.12253461,-0.19187413,-0.14407583,-0.13288188,0.1490187,-0.057081096,0.050803084,0.0024845162,-0.121363245,-0.049929842,0.083882384,0.15337166,0.17155837,-0.091999285,0.08393974,-0.025727939,0.0829424,0.18307379,0.12380209,0.08077007,-0.17159645,-0.1420959,0.025499575,0.017757991,-0.058291823,-0.10424651,-0.008415117,0.10342392,0.024663055,0.180745,-0.15543994,0.18713449,0.04272826,-0.009771814,0.03859486,-0.050267663,-0.20361578,0.053670216,0.04300595,0.16786234,-0.21153577,0.18746644,0.020401847,0.07383546,-0.20112601,0.1686324,0.16872351,0.041733894,0.12674294,0.0006018446,0.18496451,-0.16624407,-0.05790911,-0.08605707,-0.09080538,0.18760088,0.01090438,0.08745785,-0.007182982,0.20618322,-0.103655174,0.13323545,-0.19719428,-0.061180685,0.16907816,0.00091124,0.06286604,0.20743653,-0.1915795,-0.036533754,-0.06448788,-0.14733458,0.14749873,0.010344545,-0.17193988,-0.006582842,-0.026019124,-0.050279595,-0.058200117,0.11553406,-0.12670624,0.13021517,-0.18498673,-0.1381117,0.043959595,-0.03926621,-0.1415263,-0.09205543,-0.13765906,0.035949096,0.037415564,-0.19652596,-0.048400804,-0.044518683,0.19996765,-0.04567857,-0.06640542,-0.13502532,-0.0038538226,-0.04344598,0.047838226,0.08544862,0.14551318,0.049024317,-0.0073529948,0.1388168,-0.13852134,0.07732701,0.052370768,-0.15560053,-0.14338492,-0.17885153,0.10893074,0.014899646,-0.18028642,-0.0654553,0.17804343,0.019968837,0.13541952,-0.12279935,0.029040644,-0.008063744,-0.0226388,-0.100263424,-0.026695732,0.07183648,0.012503707,0.03909456,-0.10114202,-0.0515389,-0.10449182,-0.18448369,-0.117263846,-0.13388564,-0.10041718,0.14512216,0.19170932,0.17871217,0.018211236,-0.06787739,-0.07063965,0.17445564,-0.13930185,-0.033870324,-0.098227195,0.020488081,0.111735836,-0.041391872,0.009841015,-0.013026952,-0.060365077,0.0196497,-0.03796014,0.055971067,0.17983212,-0.19949907,0.17303891,-0.021894552,-0.009154919,-0.07456913,0.13874966,-0.028111862,-0.10903225,-0.01314801,-0.06310654,0.11207977,0.18672776,-0.0012700837,0.1454678,0.007546792,0.09174205,0.09970894,0.050946705,0.04735162,-0.017423578,0.06254874,0.035247523,0.029760538,0.086138144,0.18194292,0.14222275,-0.14813012,-0.1268024,-0.1464688,0.051226277,0.007373187,-0.043028753,-0.0135203,0.09307543,0.17133617,0.1470823,0.11065017,0.1313963,-0.026295228,-0.14175944,-0.08889328,-0.1288001,0.17544702,0.089451976,-0.14608066,-0.032159477,0.16086695,-0.08621025,0.08674977,-0.07400735,-0.1199247,0.1270669,0.14568311,0.15402788,0.11565877,-0.11253034,0.16837488,-0.1480226,-0.036665726,-0.050031357,-0.12368689,0.08059933,0.041311428,-0.006116038,-0.1869669,0.16082472,0.095712855,-0.0125775635,0.022609947,-0.060150806,0.13765712,-0.12300964,-0.14608108,-0.17058614,0.09434635,0.027327025,0.2139385,-0.15004693,0.15076503,-0.13336843,-0.0702234,-0.1892387,0.010841606,0.18282042,0.0142853055,0.16859584,0.10314899,0.040807493,0.08982809,-0.18042059,0.11509289,0.151769,-0.11998224,-0.027508197,0.20591463,0.041406266,-0.041122455,-0.1169844,-0.14207639,0.10731867,-0.12962563,0.06134734,-0.13707645,0.023676634,0.0918988,-0.10576322,-0.03108708,-0.11034694,-0.09956242,0.10164244,-0.11200512,-0.06420329,-0.08409569,0.0027538375,-0.20950861,-0.070498735,-0.14875223,0.037719805,0.09809408,0.06118183,0.10125062};
const data_t conv_block_0_bias[] = {-0.099548936,0.10239917,-0.017103335,-0.15482044,-0.07134897,0.06407944,-0.13072608,-0.04791194,0.1434134,0.15122709,0.045008127,-0.010933448,-0.14261505,-0.14386718,-0.16127203,0.17199643,0.034235887,0.060104202,0.076583266,0.16089304,-0.028093,0.16561492,-0.0815808,0.17070767,-0.18345682,0.056654982,-0.0698693,0.060785253,0.15871581,0.11651036,-0.13216496,-0.07715802};
const data_t conv_block_2_weight[] = {0.002885107,0.037813485,0.08721699,-0.06921464,-0.02304864,0.08024584,0.08922075,0.04611282,0.06592091,-0.03628501,0.027897961,-0.022899928,0.05230473,0.10126441,0.0839962,0.048392784,-0.038166005,-0.050611414,0.043068673,-0.063697174,0.07550224,-0.016954647,0.09943781,0.08502667,-0.05199989,0.03863789,-0.08201991,0.068163484,-0.012006186,-0.008343905,0.05875215,-0.05847287,0.014496025,0.07071323,0.071904615,0.08732159,-0.05622461,-0.07174739,-0.0522716,0.0809643,0.0011389153,-0.07712144,-0.014331098,-0.06461655,0.108911,0.024774827,0.07538812,0.022678837,0.010110388,0.10659405,-0.011013147,0.10253613,-0.014744574,0.028933415,0.046018276,-0.05325262,-0.0152026545,-0.076563306,-0.0062363334,-0.0001662127,-0.04559795,-0.034387365,0.04082916,-0.063774645,-0.0011031573,-0.07843224,0.086866684,0.023308046,0.020543987,0.012136305,-0.06779155,0.049225207,-0.035184518,-0.028305493,-0.056586605,-0.044696618,0.06144083,-0.018253624,0.07107571,0.08822362,-0.043240122,0.08020162,0.04119063,-0.09076012,-0.05637096,0.026379831,-0.06445832,-0.044991788,-0.06306518,-0.08649943,-0.0921306,0.0099756,-0.06337866,0.0010355652,0.07745786,-0.008419019,-0.020784594,-0.08986051,-0.064731315,0.07103802,-0.014595464,0.09145458,0.08988316,0.0804697,-0.034813777,0.018599221,-0.08078304,0.017886816,-0.014391305,-0.014525495,-0.04601127,0.026248554,-0.0641989,0.061362844,0.048899375,-0.043788563,0.10455194,0.013341136,0.09605666,-0.019854758,-0.040973224,-0.07182573,0.04914327,-0.095122896,0.074638635,-0.048836716,0.07127132,-0.08654913,0.08634912,0.052376308,0.0029611585,0.0063806493,-0.09175647,0.08181662,-1.8972692e-05,0.09821982,0.0107969735,-0.07691649,0.078745596,0.051501866,0.08426144,-0.098114505,-0.08373104,0.008990847,0.031232577,-0.08530409,0.04810455,0.10286513,-0.0054473164,0.09899744,-0.06091455,0.022049012,0.09063497,-0.013218029,-0.008671796,-0.023524718,-0.042525496,0.08685547,0.0994428,0.08422076,0.0071674814,0.059564423,-0.0072007217,0.01576557,0.013593977,0.06963065,0.022932105,-0.0449029,-0.067649536,0.05873067,-0.010331983,-0.005222626,0.013136709,-0.07667083,-0.016037798,-0.059449077,0.10219574,0.077854246,-0.05157673,0.05648146,0.083442084,-0.09746816,-0.06443502,-0.09324617,0.037474383,0.0757215,-0.010647538,0.068044096,0.03735672,0.09992625,0.08845425,-0.05871012,0.032925546,-0.08664715,0.070728,-0.050584152,0.08211823,-0.019125141,0.042845853,0.07466805,-0.08098843,0.031115048,0.01160009,0.0506021,-0.036929566,0.024244517,0.025675222,-0.057215072,0.027926167,-0.10477732,0.059269432,-0.07862883,0.07984627,-0.0062387837,0.05952156,0.047736216,-0.025707621,0.04990004,0.040226825,0.03889565,0.090094045,0.025456324,-0.0048748837,-0.045172762,-0.076454274,0.03526675,-0.05944424,-0.03832986,-0.06323179,-0.07570946,-0.001103992,0.051374596,0.034338385,-0.050702605,-0.06610647,-0.090563044,0.058371656,-0.0006038345,0.048692506,0.011043912,0.065348305,0.049804162,-0.08153991,-0.023874404,0.045479335,0.036464848,-0.051472772,-0.040147416,0.08922503,-0.061793283,0.06369815,0.004258607,0.0019892612,-0.021354064,0.029695822,0.065061636,0.031669423,-0.025754027,-0.07389459,-0.006845949,-0.08301441,0.06659322,-0.060344018,0.07248292,-0.08339066,-0.0897689,0.02623227,-0.08236057,-0.09005245,-0.0055522625,-0.0246902,0.014088377,-0.05451628,-0.058454417,0.049840704,-0.07534479,-0.08911938,0.056609023,-0.029717477,0.06552059,-0.07190732,0.08343034,0.014107433,0.021894787,0.05570598,-0.034437932,-0.072937086,-0.08723749,0.07764411,-0.07866901,-0.10140026,0.015150949,0.090354815,0.09305143,-0.08962771,0.009621941,0.034498073,-0.08816224,-0.034094796,0.066105835,-0.07884659,0.0062008323,-0.04500569,0.078328535,0.086791344,-0.10153162,0.08590103,0.038223412,-0.07316784,0.09017147,-0.01598619,0.041755423,0.017986804,0.0063186293,-0.09369728,0.09754929,0.057810396,-0.020668909,0.054214194,0.0017729565,0.012748353,-0.038788833,-0.056264915,0.03419826,-0.06538608,0.091980994,-0.058618072,-0.00076760724,-0.01136838,-0.036066603,-0.038276568,0.046605613,0.07510698,0.07088141,-0.015135585,-0.030857474,-0.08447183,0.08875031,-0.09768112,0.08113478,-0.044911798,-0.080922894,0.042983264,-0.084614456,0.05816562,-0.08907771,0.02097744,-0.04029165,-0.045489993,0.021969514,0.063284345,-0.02044538,0.024844898,-0.031391636,-0.019825654,-0.0029598698,0.09613555,0.002083284,0.07779345,-0.0013554344,0.0474681,-0.06384465,-0.0896379,-0.027967812,0.06692751,-0.010188606,0.023799956,0.016450994,0.060281422,0.05455954,-0.09050442,0.07833126,-0.03038605,0.045676656,-0.09607449,-0.07097782,-0.015369367,0.03913907,0.040102866,0.07261882,0.093239024,-0.021141168,-0.10937691,-0.06923976,-0.016126513,-0.045490786,-0.08261421,0.024780631,0.036657423,0.020153329,-0.09144945,-0.06232706,0.07651886,0.09385936,-0.015497647,0.0154058635,-0.06285984,0.077189356,-0.07763895,-0.08265256,-0.08335776,-0.05966825,0.046315968,-0.043637708,0.022567734,-0.03875979,0.0610511,0.08699125,-0.09646729,-0.0009781793,-0.022830546,-0.08046723,0.038655266,0.1009552,0.012719981,0.08380464,-0.02400706,0.05812514,-0.042244468,0.04443571,0.07926893,-0.095302776,0.015169293,-0.012662508,0.008159399,-0.06908082,0.09689441,-0.032805286,0.07177459,-0.088098735,0.07412879,0.06816913,-0.09912513,0.036423475,-0.032314748,0.08618285,-0.050662387,-0.041714557,-0.017299704,-0.0064113066,-0.012525253,0.013607949,-0.06742545,-0.051001325,0.08934833,-0.074033976,-0.07476462,0.009368978,0.018673502,-0.0032282248,-0.038247533,0.08415547,-0.01067812,0.081402674,-0.038344756,0.076300114,-0.015350319,0.019859925,0.08841327,0.029096708,0.070836484,-0.028435066,0.0034468994,0.04999125,-0.012340322,0.012525789,0.025659397,-0.052986294,0.057894573,-0.005808711,-0.033249848,-0.05412649,-0.068091914,0.059949487,0.082764596,-0.061213266,-0.007527642,0.04711452,-0.063515455,0.046995595,-0.045555465,0.036379293,0.040998966,0.09934403,0.047413766,0.06564066,0.014694259,0.09325944,-0.09341387,-0.052987963,-0.07684569,-0.05076869,0.032402202,-0.08431369,-0.019544043,0.013842598,0.000834845,0.029760122,0.09707788,0.04478106,-0.045734283,0.0377848,0.014962882,0.096234515,-0.009150803,-0.07356283,-0.004666157,0.0054342747,-0.08075781,-0.07991434,-0.02792535,-0.0072044283,0.062155098,0.05790691,-0.037361197,-0.09180025,-0.09757004,0.05049415,0.026117563,0.04974176,0.069251925,0.07221098,-0.004475951,-0.033462428,-0.014356032,0.05000782,-0.0024010837,-0.008389451,-0.08476029,0.09866899,-0.083602786,-0.091187306,-0.029226035,-0.06266248,0.035319,0.0011790395,-0.06046758,-0.078805365,-0.074853726,-0.067956395,-0.03611619,-0.06079962,-0.08667445,0.072632745,-0.059064645,0.062230796,0.02671443,-0.022663184,-0.07259995,0.03252244,0.08171132,-0.036704414,0.054339603,-0.035578042,0.058358833,-0.012247354,0.04757087,-0.039030902,-0.032655343,0.03737147,-0.06926401,0.100537494,-0.046251062,-0.06938027,0.017869987,-0.06140651,0.053735852,-0.08789923,-0.06376608,0.029979184,-0.086814806,-0.080479994,0.072588205,-0.08853976,-0.046401493,0.050795168,-0.0024558303,0.03311786,0.07297404,-0.031286545,0.047165513,-0.04332771,0.07626667,-0.027917767,-0.09004349,-0.045074265,0.05529278,-0.05072816,0.07786922,-0.0068276958,0.022661421,-0.10482783,-0.10466109,0.022454107,0.08516831,-0.03337747,-0.010554966,0.024510406,0.029659258,0.05179841,0.016950812,-0.107327886,0.08028261,0.013170093,-0.062431548,0.078228846,-0.0005181078,-0.08408981,0.06924901,0.027533034,0.039892234,-0.04296219,0.0026599918,-0.019276168,-0.097159885,0.07863582,-0.018518582,-0.07234926,0.0093872575,-0.09805244,0.07281498,0.002209086,-0.038492728,0.005735886,0.026841644,0.08674949,0.0046427054,-0.10484668,-0.051491402,0.044554003,-0.010820813,0.0633266,0.08284142,0.024389729,-0.051159516,-0.070207365,0.05065635,0.057545986,0.05825651,0.056207363,0.058474824,-0.044770956,0.0405262,-0.018931832,0.060244355,-0.066180795,-0.029960342,-0.08588538,0.005171349,-0.03366403,-0.08255499,0.039612025,0.042412758,0.00023552508,0.07981035,0.034266025,-0.046220645,0.017883547,-0.108805224,0.082288794,-0.022829875,0.025167778,0.06347812,0.020729655,0.0010025298,-0.07870863,-0.06774792,0.016630726,0.08391005,0.015432592,0.016806282,-0.042668007,-0.044086017,0.10045987,-0.027721357,0.09129399,-0.02380418,0.016326532,-0.090996556,0.005080379,-0.051212285,0.07175582,-0.037662525,-0.01894433,-0.03624429,-0.0020648125,0.084325135,0.06210723,0.037827063,-0.013150058,0.08481875,0.061394367,-0.049309097,0.0061564012,0.059437428,-0.020315183,-0.01997411,0.035387695,0.05346458,0.027753294,0.034540996,-0.0698424,-0.0850521,0.005300579,-0.009231334,0.031134933,0.09253758,-0.009512619,0.015264373,0.08299713,0.05351859,0.029175952,-0.022290306,-0.0074956263,-0.024821274,-0.0707529,-0.08242807,0.066595644,0.04753859,0.009800352,0.0019176382,-0.010573015,-0.02811471,-0.03654324,0.10394984,-0.049343064,-0.006665214,0.08422183,0.023019293,-0.07878864,0.053024102,0.093187496,-0.048741534,0.072229475,0.10091126,0.09576319,0.0693356,-0.08547415,0.022329014,0.09943211,-0.06390522,0.07057523,0.06390417,0.0400723,0.021336496,0.0057540536,0.0052320785,-0.017491382,0.0116961375,-0.05516375,-0.038726423,0.034740984,-0.0256394,-0.032441314,0.033813115,-0.0050693625,0.056755513,-0.044394527,0.036006488,-0.051843215,-0.051307227,-0.06753296,0.09793443,-0.018209955,-0.038254783,-0.050051905,-0.07847062,0.026660651,-0.08741045,0.06718237,0.017212091,-0.09893069,0.051833734,-0.060076308,-0.07290139,-0.08968297,-0.10701114,0.058185987,0.068020515,-0.058237974,-0.03029873,0.085607566,0.06393787,0.062960915,-0.06351647,0.08056718,-0.046494044,0.058659308,-0.1089105,0.0017053179,-0.08713063,0.08332883,-0.018989047,-0.006820212,-0.09690004,0.0034491494,-0.05932595,0.071407884,-0.018436186,0.015984684,0.04491894,-0.09264975,0.040592153,-0.009923883,-0.028887574,0.045569025,-0.016613377,-0.03743137,0.0031765338,-0.084773764,-0.08024857,0.02844858,-0.038670454,0.019784909,0.026950574,-0.085558765,-0.08348512,-0.085181765,-0.049474288,0.02895321,-0.043128885,-0.09726327,0.07634325,0.07418237,-0.104680516,0.020368269,-0.096609406,0.07011204,-0.09009782,-0.022926383,-0.050335046,-0.07354543,-0.023166837,0.029897662,-0.07518173,-0.07211958,-0.10742668,-0.0012605533,0.055863276,0.02574882,0.091132976,-0.08747105,0.091888,-0.1029048,-0.017347539,-0.088112116,0.055256024,-0.043574862,0.07626113,0.003428323,0.06588231,0.08324509,0.051080745,-0.03748688,-0.017548827,-0.044137813,-0.011049165,0.019924758,-0.0034181564,-0.071604066,-0.075942665,-0.04965449,0.048269313,-0.104455695,-0.02558466,-0.02958419,-0.070921175,0.020989172,-0.10007947,-0.0069557205,0.07777806,0.048422176,-0.0066441535,0.026213877,0.006758482,-0.016782265,-0.0064084358,-0.10235649,0.08892758,-0.019231351,-0.01879373,-0.03948166,0.03910714,0.0762813,0.07102659,-0.058567867,0.065060176,0.04454649,0.057708498,-0.056329295,0.036573675,-0.0040964335,-0.06302102,-0.023083508,0.08722496,-0.035815455,0.03425702,0.03573684,0.07748046,0.025032949,-0.06701121,-0.061401,-0.03291581,-0.08405389,-0.05948126,0.0063119945,0.07167574,-0.010722686,0.039985195,0.024221525,0.0085721975,-0.09069051,0.020820804,-0.062370487,-0.050600663,0.02597404,0.04459451,0.0695071,-0.041586895,0.056365557,-0.018646548,-0.08254883,-0.07349776,0.07793315,0.02836248,-0.059308406,0.038347628,0.03571033,0.022898385,0.028923815,-0.07293555,-0.036195297,-0.0698667,-0.065848,0.087912336,-0.04047332,0.07344801,0.08426615,-0.096875906,0.05986838,-0.043336324,0.033584494,0.031045998,-0.023295632,0.016405085,0.07240492,-0.09708455,-0.088161536,-0.09534577,-0.0979352,-0.09626989,0.031804025,0.027769875,0.088134535,0.009959374,0.015695428,-0.01474204,0.075734735,-0.050735693,0.014222685,-0.091302656,-0.024797358,-0.06008601,-0.05564282,-0.060338356,-0.033986434,0.08431187,-0.04485158,-0.028225288,0.09264058,0.0026589753,-0.009707508,0.012960597,0.012015835,0.089606404,0.082361184,-0.10189847,0.02978408,-0.09360114,0.060093492,0.0057116766,-0.043522853,0.073153995,0.09507629,0.03549775,-0.04283073,-0.06944379,-0.081364624,0.076982304,0.09918174,0.04346475,0.06333521,-0.0641146,-0.0016985675,-0.047200494,0.004583844,-0.057763353,0.088075124,-0.051336095,-0.06358697,-0.068834685,0.032113444,-0.10287538,0.015982527,0.040568713,0.03938064,0.021278836,0.046713386,0.047612213,-0.07433796,-0.094402805,0.06467089,-0.07577079,0.003280891,-0.08502512,0.042888906,0.08658359,-0.04745565,0.05506688,-0.05114653,-0.018964734,-0.07952984,0.063707024,-0.04734441,0.058160353,-7.751101e-05,-0.10826051,-0.080098346,-0.03853355,-0.11084443,-0.10513782,0.030355701,-0.04867443,0.08199544,-0.040558413,0.07066572,0.016288029,0.055207852,0.07391462,0.010666884,0.007534964,-0.0727138,0.008910617,-0.094594486,-0.062444624,-0.050416376,-0.09014473,-0.0005986857,-0.07578676,-0.035359986,0.06700253,-0.017981693,-0.06512341,-0.07729851,-0.037150707,-0.0030118227,-0.108365916,0.025966631,0.08384395,0.0881256,0.07102755,-0.047625247,0.08742358,-0.021871308,0.021822803,-0.0478264,-0.048397988,0.07604313,0.014281951,0.07140504,-0.08340187,0.089395605,-0.023040175,-0.040390067,0.017052613,-0.028615732,0.03379067,0.02189003,0.050924137,-0.03314452,0.08333663,0.091120474,0.058790393,-0.065404944,0.0058292598,-0.0075333193,0.06178187,0.057569295,-0.030020468,-0.03688978,0.009267806,0.03954515,-0.022626314,0.09651447,-0.025191529,0.0023034667,0.031027136,-0.092914194,0.008042464,-0.00022191132,0.030370167,-0.045121253,0.03734242,0.059119027,-0.04928855,0.034359697,-0.016500834,-0.043068875,-0.027586676,-0.08509496,0.018311987,-0.02845239,0.035793055,0.06343788,-0.05124918,0.06288508,0.023609146,0.057684075,-0.09268323,-0.009636114,0.023155404,-0.08581247,-0.09985316,-0.08198476,-0.04905372,-0.041725595,0.032687753,0.039472725,-0.07502781,-0.033454865,-0.10322012,0.06363062,0.00070680294,-0.06778259,-0.09556272,-0.10493119,-0.0788104,0.009640302,-0.028953407,-0.04650859,-0.08689559,-0.025177535,-0.08754955,0.08373176,-0.10511746,-0.10202682,0.0047169346,-0.06553154,-0.06127246,-0.06524794,-0.046694852,-0.026428193,0.083928816,0.044837076,-0.079641886,-0.019215748,-0.060130414,0.050992638,0.064636804,-0.008427608,0.0055453535,0.068040885,-0.0022436855,0.022069927,0.0922725,0.0074582226,-0.08004211,0.09364149,0.07218095,0.054404523,-0.052224424,0.029329643,0.031357784,-0.06759782,0.08390749,0.022217259,-0.07724357,0.030629266,0.09573913,0.00055817515,0.08345394,0.03759198,-0.044030417,-0.03119935,-0.023319883,0.08013723,-0.08436952,-0.014996652,0.025265053,0.06214008,-0.021477206,0.062299512,0.06648387,-0.043807827,-0.04094994,-0.09868532,0.096964486,0.039396726,-0.022194022,0.07739062,-0.095984764,0.002628841,-0.0851097,-0.100994416,-0.08991177,-0.053843644,-0.07617731,-0.07240026,0.07708639,0.024466362,-0.037199944,0.05139644,-0.05602942,-0.100197606,-0.023991115,0.092595816,0.05750153,-0.07535179,0.07569518,0.051755626,0.08844998,-0.08828008,0.039534874,0.022304244,0.072086595,0.07082661,-0.070986435,0.04780206,-0.042782415,0.09461311,-0.032980718,0.03406146,0.06908659,-0.06445512,0.090121694,-0.0025668875,0.0023191744,-0.011851735,-0.025908472,0.041741986,-0.0021070456,-0.08609272,-0.07227419,-0.0028929138,0.016857222,-0.059857212,-0.018752195,0.03832536,0.07911238,0.05110426,0.059090976,0.099824,-0.02914296,-0.07806213,-0.018906144,0.092381045,-0.07544812,0.03123189,0.06845451,0.064110614,-0.095301,0.051459145,-0.09155872,0.06821953,0.086760394,0.05838052,0.020062888,0.021470139,0.07990471,-0.09689964,-0.06106833,0.093406655,-0.098991476,-0.039056037,-0.04138328,-0.044024903,0.07370852,0.010780051,0.060928505,0.0298615,0.020519804,0.0535713,0.07535017,0.060746197,-0.0655186,-0.05346007,0.0052377726,-0.017620938,-0.022071391,0.08833913,-0.017710181,-0.07312162,0.06942076,-0.00079849194,0.0051098424,0.06898429,0.06850155,0.063322626,-0.012062998,0.07749244,0.05546621,-0.091342084,-0.030105643,0.08464759,0.07271917,0.07504212,-0.09128088,-0.10352814,0.03343382,0.08063375,-0.019577516,-0.08235322,0.056018014,-0.022752805,0.030668318,-0.05621215,0.08149582,0.053702846,0.003378748,-0.03962473,-0.004900341,-0.009572081,0.07091816,0.080596365,0.019830285,-0.08815354,-0.098284215,0.08794387,-0.09425316,-0.026373481,-0.08202563,0.06147908,0.07251461,-0.06932698,0.061709598,-0.054002583,0.04586518,-0.10263727,0.08731494,0.043101158,-0.022422312,0.05467709,-0.024124408,-0.028217299,0.054636378,0.011803825,0.027910894,0.090106085,-0.0745503,0.01354865,0.018729148,0.06168959,0.02787135,0.07454398,-0.0016190516,-0.009737316,-0.028915675,0.08565429,-0.095744975,-0.012455358,-0.061361417,-0.039205942,0.041972686,-0.09037725,0.05693799,-0.07095029,0.042705417,-0.049127787,-0.021134142,0.008604051,-0.08100398,-0.017064743,0.07684496,-0.011586495,-0.04326246,-0.101528026,-0.02026762,-0.053504534,-0.00017329484,0.05493172,0.044908594,-0.06404221,-0.022888724,-0.046454746,-0.07826543,0.037220135,0.094298676,-0.068705484,-0.031746015,0.09342748,-0.086230494,0.08831222,-0.046666715,0.048792176,0.095114894,0.06290571,0.0059809857,0.03577838,0.08533605,-0.042242076,-0.0017690852,0.08087946,-0.0036575745,-0.052170075,0.05437363,0.023621395,0.029027961,0.01575901,0.063738406,-0.046101376,0.024140134,0.09086922,-0.059479423,-0.06978246,-0.01961381,0.042429738,0.041358657,0.070817135,-0.019369083,0.031819582,-0.06438673,-0.023979852,0.07905719,-0.025376411,-0.009971233,0.06625479,0.09120789,0.04241901,-0.05061607,-0.07776377,0.0469971,-0.08483684,-0.00967771,-0.047834817,0.05032492,0.030128455,0.03655846,-0.042777397,0.02714413,-0.04557004,0.05255489,0.009321906,0.0009281351,-0.06720789,0.020936877,0.018060684,-0.055399295,-0.088004984,-0.037058983,0.019003505,-0.0203145,-0.01960409,-0.045648728,-0.07003432,-0.057466265,-0.010858385,-0.009402757,-0.0276235,-0.024417277,-0.029133063,-0.07809596,-0.0894055,0.018940834,0.0003480682,0.00089425675,0.015758166,-0.08904246,0.028389722,0.051960334,0.062030703,-0.052660093,0.03759034,-0.0031723827,-0.09624902,0.07056327,0.07922161,-0.073072955,0.09333462,-0.06629635,-0.050273515,-0.064289905,-0.011031325,-0.035701938,0.035484985,-0.074511856,-0.08999349,0.032683976,0.058525667,0.04351464,-0.055136405,-0.08671739,-0.030281305,0.053875484,-0.081434526,0.0579448,-0.089116514,0.033946022,-0.06617224,0.039239723,-0.060807887,-0.080305494,0.06797281,0.06002283,0.02778231,0.09109031,0.009216462,0.08482169,-0.042222444,0.008379023,-0.070616685,-0.07101484,0.02015103,0.09658857,0.1018686,-0.077775896,-0.043388683,-0.06636,-0.00060408516,0.032179758,-0.057897855,0.062213894,-0.05357703,0.0019511966,0.053677507,0.05061454,0.061522692,0.07046959,0.07472667,-0.046663746,0.04807962,-0.07435767,0.06135121,-0.059459858,0.09089683,-0.013003819,0.09211652,0.030370533,-0.069116995,-0.10005737,0.004260689,-0.027204826,-0.0574137,-0.006404549,0.023106635,-0.07304473,-0.097060755,-0.09404284,-0.032053918,-0.06638925,-0.07850933,-0.06945496,-0.08529983,0.036657915,0.09419729,0.0079851225,-0.036978222,-0.021247081,-0.07064369,-0.008785009,0.033289537,-0.01565601,0.08916807,-0.042841796,-0.023771755,0.07288003,0.10026078,0.0073291287,0.059548944,-0.004654169,0.053446278,-0.055158693,-0.042527735,-0.016213879,-0.09878383,-0.0701939,0.09150642,-0.032266133,-0.06227259,-0.06003812,-0.068522744,-0.03422431,-0.035472773,0.087418914,0.009144701,0.036770135,0.009611204,0.047691494,-0.059898637,-0.049635902,-0.08804389,-0.003797792,0.010569863,0.09901564,0.049396187,-0.08048093,0.059157744,-0.013480186,-0.059940066,0.035456598,-0.038790077,-0.019881852,-0.08825193,-0.034789406,0.0054489896,-0.039343856,-0.09893158,-0.08422096,0.05917467,-0.02178657,-0.0010341257,0.020355262,0.046815977,-0.04988763,-0.00032711774,0.024780512,0.09656285,0.065027475,0.02661699,0.00084355474,0.053609043,-0.014351808,0.0736067,0.023335323,0.046894804,-0.09554818,0.08477506,0.09209277,-0.040566407,-0.048328377,0.06792864,-0.07125531,0.031574026,-0.08131936,0.07151751,-0.023582526,0.04628323,0.008340247,-0.0673458,0.010705799,0.05002515,0.08538853,0.0033552274,-0.0038045421,0.019080259,-0.040960852,0.090689,0.017534144,0.005123697,0.01949253,-0.025407627,0.046829388,-0.00419607,-0.070215516,0.008215755,-0.044988494,-0.07679976,-0.026827231,-0.013907783,-0.07169459,-0.047109853,-0.07980196,0.08374591,0.091893286,-0.05810728,0.018938817,-0.044071462,-0.008689135,-0.07757214,-0.04820351,-0.071955934,0.09220405,-0.057290282,0.0696252,0.054012164,-0.069670856,-0.07749611,0.067356244,0.03252709,-0.062711865,-0.014314547,-0.077898905,-0.08729568,0.09407629,0.047917828,-0.06637311,-0.03790663,0.05842024,0.029077873,-0.061102405,0.09754558,0.07546708,0.03907101,0.013695449,-0.089256816,0.0059311315,-0.06006485,-0.027870513,0.0026705489,-0.100300014,0.07244773,-0.07284558,0.036495313,0.028627962,0.093829855,-0.018182889,0.057081044,-0.08380985,-0.07106589,0.025470838,0.08909975,-0.0035034493,-0.016036794,-0.06663599,0.020451002,-0.011680648,-0.041584823,-0.08547245,-0.08893895,0.030632287,-0.07249576,-0.069958895,-0.0937624,-0.06625247,-0.0014160052,0.031371087,0.09566212,-0.09720618,0.09836885,-0.024391633,0.048466712,0.082510106,-0.08691254,0.095301494,-0.0836063,0.04140924,0.022337578,-0.029078687,-0.0017770106,-0.093576565,-0.0285859,-0.08619503,0.08685727,-0.019050224,-0.02149464,-0.087414354,0.066217564,0.048259437,-0.008466974,-0.058287308,-0.088233754,0.031794444,-0.06467786,0.0037383346,0.07198762,-0.046966344,-0.09749329,-0.06551181,0.020283334,0.058383778,0.0011252016,-0.085905865,-0.09044591,0.035421938,-0.09492038,0.0636328,-0.09174649,0.08862987,0.007822207,-0.0036356612,-0.076058835,-0.06558955,-0.030439261,0.01840446,0.036443204,0.055607304,-0.05294341,-0.10630694,0.031073749,0.05095215,-0.04910952,0.09190621,0.022408448,0.020882182,0.05640097,0.043309614,0.10161939,-0.052866157,0.0096037835,-0.0281845,0.024194285,0.006381944,-0.10136548,-0.100331165,-0.04775531,0.09235535,-0.025884196,0.050824836,0.083119534,-0.036484733,0.042500332,-0.034998175,0.09251284,0.028265098,0.02293084,0.08787711,-0.047348104,0.011765836,-0.0698413,0.00093638897,-0.02041358,-0.019789996,0.060665235,-0.006771803,0.05951152,0.008859068,-0.0589126,-0.061826047,0.05927494,0.021054313,-0.013613657,-0.0024073496,-0.017263435,-0.053263966,0.05995637,0.083236575,-0.024375431,0.046511263,-0.081211045,-0.07641191,0.013837025,0.031754255,-0.012749083,-0.08361384,-0.05183071,-0.10115329,-0.016828716,-0.0028913394,0.038623735,0.025207832,-0.09289802,-0.0217221,-0.096846096,-0.09880591,-0.029264353,0.0027992502,-0.045653213,-0.07310075,0.033048093,0.018950827,0.010526381,0.007400207,0.0364327,-0.09620575,-0.041538164,0.050167337,0.048897654,0.04330188,-0.06056787,0.10082933,-0.038316973,0.09130217,-0.06946124,-0.013614491,0.047847822,0.02678959,-0.029754147,0.026246205,-0.06499483,0.101927325,-0.090584904,0.08273047,-0.10054167,-0.008807316,-0.0033565834,0.03049986,-0.00048384815,-0.05445393,-0.09042364,0.038511887,0.051627606,-0.0826703,-0.031498373,-0.09072132,-0.08347486,0.0719278,0.101787016,-0.040190723,-0.031581312,-0.008015454,-0.039627913,-0.01439634,0.0050989464,0.077330604,0.021639585,0.004239306,0.04589893,0.015098274,0.016109489,0.030241266,-0.083111174,0.027774379,-0.07986035,0.05456765,0.03253573,0.060464337,0.08615579,0.070477694,0.066645116,0.07431322,0.0062094107,0.044038877,-0.009505615,-0.09094745,-0.09432379,-0.06111563,-0.045918316,-0.061630514,-0.089250475,0.08243674,0.07920182,0.06597524,-0.010769107,0.022855809,-0.04705688,-0.08452049,0.026393294,0.012805247,-0.06156002,0.0012498867,0.07534278,-0.03008853,0.031654276,-0.07548197,-0.06398256,0.033169273,0.028722718,0.062222328,-0.079973295,0.009612249,-0.092714265,0.0134063745,-0.02054481,-0.074816205,0.057178907,0.08804479,-0.047886126,-0.065544456,0.009093344,-0.08992862,-0.05972216,0.08388369,-0.050305255,-0.0024847942,0.016842235,0.061218776,0.102489874,0.10471473,0.016630936,0.058963574,-0.027292509,0.025207277,-0.085522205,-0.049923666,-0.082927406,0.05590939,0.025102042,-0.04723793,0.08019724,0.042020854,0.037711054,0.059296906,0.10519894,0.018583518,-0.07649316,-0.040890936,0.10084946,-0.01811471,-0.0907189,-0.07326158,0.076529734,-0.0011017495,-0.09106224,0.07400813,0.027808825,0.014010041,0.060787477,-0.011432212,0.008675238,-0.04091852,0.07867078,-0.07018487,-0.041475464,-0.07132471,0.05989317,0.08376924,0.04622323,0.029836152,-0.036468923,0.059187386,0.08288578,-0.061551727,0.04416193,-0.03338594,-0.05392699,0.02623635,0.081340574,-0.0483147,0.046385065,-0.08578368,0.0911178,0.054314222,-0.090758175,0.07702983,-0.045790885,0.09760838,-0.068505816,0.08550839,-0.07172822,0.0370473,0.1002136,0.10060722,-0.048762012,-0.053613216,0.054874375,-0.08910344,-0.023440767,-0.07037978,0.08719785,-0.029474493,-0.09485996,-0.08082334,0.0044360044,-0.08645352,0.09204842,-0.062032986,-0.01591527,0.10350821,-0.018724099,0.08893145,0.103315614,0.04193554,-0.03361638,-0.0340517,-0.08405671,0.064607516,-0.0777437,0.044472083,-0.0814485,0.003918178,0.09505737,0.055242196,0.015249955,0.09652364,0.09299653,0.04599626,0.04360585,0.050040487,0.03204376,0.07223732,0.0068876776,-0.021124953,0.06438363,-0.042579263,0.021509007,-0.039726734,-0.05358115,-0.01639761,0.09801586,0.023382511,0.10000862,0.04194598,0.044678394,0.019379584,-0.04760292,-0.019149315,0.037534636,0.09703963,-0.061385117,0.068584986,0.09116986,-0.019062955,-0.08645481,-0.010998453,0.098229,0.08225493,0.028261526,0.073556215,-0.04928086,0.0059119323,-0.087520696,-0.0781888,-0.0010148501,-0.011659004,0.018745665,0.028600313,-0.04940482,-0.023258232,0.035216887,-0.06382782,-0.01537866,0.047432415,0.07426603,0.051573485,0.08606005,-0.05795695,0.078614995,0.044060666,-0.010286044,-0.06023237,-0.060446147,-0.074903615,0.096463405,0.02939258,-0.0681167,0.08753731,0.08370109,0.046843693,-0.06176235,0.05826637,0.08023814,-0.055287287,0.09406497,-0.06231148,-0.027324893,0.07401345,-0.09258214,0.028942259,0.08037765,-0.08112245,0.07761109,-0.03681543,0.032032084,-0.08953289,0.019176856,-0.022893861,-0.0053161206,0.039394844,0.03714182,0.077941045,0.0055528656,0.007056594,0.013098344,-0.004686536,0.008265879,0.025758538,-0.09547441,-0.001771556,0.02901331,-0.09858291,0.050837774,-0.062954284,-0.057815567,0.04081984,0.0278258,0.09596604,0.011727595,-0.009467562,-0.05734813,-0.07334677,0.05632325,0.047604587,0.038597815,-0.080909394,-0.040895194,0.0068715955,0.054896343,0.08451462,-0.041757636,0.07028159,0.015956521,-0.08604752,-0.013418872,-0.0076087853,-0.09746204,-0.045415074,0.063339844,0.014044226,0.011689206,-0.058154024,0.09834092,-0.10019589,0.05890842,-0.009817826,-0.07935725,-0.0087617105,0.009815118,-0.08107932,-0.068912715,0.020604156,-0.023131104,0.0099780755,-0.0013846343,-0.08489926,-0.005015279,-0.07985457,-0.0159973,0.071257584,-0.03388692,0.072502576,-0.014421433,-0.047675177,0.06805558,-0.020007672,0.044082608,-0.0553731,0.04802141,0.009369592,0.013680221,-0.06935734,-0.06018291,0.03226367,-0.054193407,-0.031981245,-0.048084144,0.08239092,0.045877926,0.10334672,0.10640175,-0.023079187,0.046163134,0.07913849,-0.091623515,0.10241899,-0.0023005132,-0.029720003,0.055820026,0.0716591,-0.035354633,0.06462963,-0.07375172,0.0006971301,0.10442997,-0.071066976,0.013418168,-0.042393874,0.07344568,-0.025857426,-0.06942136,-0.041454658,-0.03756927,-0.038956095,-0.07346823,-0.029125934,0.08380224,0.095628895,0.08092834,0.05621132,0.05107539,0.015086253,0.0477551,-0.007856602,0.05722463,-0.0068135383,0.1032338,0.04721322,0.034392193,0.046051323,-0.0056392136,0.052557006,-0.03081648,-0.03804538,0.06020469,0.070925735,0.098695986,0.005270681,-0.076531135,0.094243936,0.07972946,0.043410026,0.030824633,0.027326759,0.029537167,-0.08480947,-0.09478269,0.07615227,0.100316636,-0.049261715,0.039360575,0.0025255587,-0.08468511,0.092520975,-0.056466598,0.08121075,-0.09327759,0.050699964,0.06353683,-0.037190113,0.026570529,-0.052786946,0.09419923,0.0075575337,-0.059946258,0.039723232,0.051715996,-0.07316011,0.089885496,0.05726192,-0.047802433,0.05529736,0.100289814,0.03682286,-0.056121197,0.026934924,0.046886947,0.048247293,-0.03919042,0.013199583,0.01760368,-0.014733605,0.08661686,-0.0029800385,-0.07330081,-0.09334225,-0.03717383,0.02100046,-0.09993646,-0.051510844,-0.08657262,0.052322865,-0.082278095,0.057965845,0.05423194,-0.0406324,-0.032986946,-0.004570402,-0.09743892,0.02877134,-0.09990485,-0.075018086,-0.06326011,-0.09300604,0.007623017,-0.054057553,0.04733199,-0.09171803,-0.061283447,0.0075473413,-0.076595396,-0.08932205,0.07092568,0.07130541,-0.00020347536,0.06649473,0.09462282,-0.0051580295,-0.080014214,-0.061584584,-0.0821291,-0.068819195,0.046532094,-0.061673257,-0.055739667,-0.019335538,-0.08648805,0.0018571466,0.09206614,0.019126259,-0.091845624,0.040123314,-0.06860088,-0.029197372,0.043398798,0.06531432,-0.04571698,-0.09798637,0.06642872,-0.018684208,0.011923805,0.03861472,-0.05658758,0.0346943,0.06975931,-0.007112026,-0.00592646,-0.023788825,0.07444531,0.04528469,0.082950264,-0.027163893,0.057009146,0.021245003,0.020520702,-0.077384725,-0.060607728,-0.038549453,-0.030810624,-0.08544193,-0.093963765,-0.026857875,0.08197671,-0.09809886,-0.0718418,0.024673954,-0.096668825,-0.08742959,-0.031036958,-0.057185017,0.01954604,0.012792483,0.060751513,-0.09383733,-0.04437511,0.08538032,-0.07450343,0.064928874,-0.08328184,0.08789341,0.008732496,0.034059867,0.0458148,-0.05018524,0.025314996,-0.022725515,0.026528506,-0.022241691,0.052748326,-0.050673597,0.036814943,-0.036960635,0.020569647,-0.071980506,-0.03218015,-0.091109596,-0.0882201,-0.02538469,-0.0051939767,0.038999014,0.093054116,-0.009215787,0.092904165,0.07180805,-0.09862052,0.034399092,-0.045254055,-0.07947532,-0.071480826,0.06901479,0.0887979,-0.007051659,0.06930112,0.061302025,0.07801377,-0.10439736,0.0013931078,0.032980297,-0.0926473,0.029206656,-0.037247103,0.00903286,-0.061028276,-0.06353453,-0.061023347,-0.10322897,-0.059618447,-0.0129442755,0.023500267,-0.08877228,-0.0011821103,0.054206964,-0.032063108,0.05142791,-0.0050454675,-0.003779207,-0.080061644,0.019395536,0.03260178,-0.009055624,0.010296621,0.08466161,0.025766054,0.04227472,-0.00030425898,0.053485,-0.06796469,-0.066825055,-0.011832851,0.012475625,0.004092013,0.004766024,-0.0011562034,0.05944726,-0.026194548,0.06740221,0.010495803,-0.046852946,0.079924725,-0.061037917,-0.030349514,0.091571644,0.025467673,0.0901026,-0.043840516,-0.08146917,-0.079326354,-0.04712128,0.0031732693,0.033683795,-0.038445435,0.096803516,-0.034464695,0.090028524,0.04041025,-0.0038713,-0.07118167,0.032834828,0.085450605,-0.0046845293,0.0023492486,-0.090925306,-0.02690252,0.0007362573,0.008727706,-0.08310311,0.10090037,-0.014349429,-0.059987724,-0.010427987,-0.07749181,-0.046784088,0.028697621,0.028916536,-0.07669004,-0.055505533,0.09551327,0.028717428,-0.053355545,-0.008954056,-0.004549779,0.10810453,-0.06678442,-0.024370562,0.031396657,-0.02266878,-0.065791085,-0.0364983,0.019179085,0.07130906,-0.049504004,0.04703866,0.012475499,0.05462875,0.022078745,0.012919214,-0.018261075,-0.017434828,-0.021262394,-0.057464655,-0.050817512,0.009762823,-0.023111299,-0.0021981418,0.040344454,0.08661485,-0.09249069,0.052713796,0.08856331,0.10758154,-0.061458994,0.029554397,0.07373521,0.0019553825,-0.045517795,-0.01613847,-0.04476026,0.0019727603,0.04254642,-0.080159925,-0.029332772,0.02458646,-0.028731178,0.0570155,0.042915374,-0.044897392,-0.101496115,-0.06405926,0.006223646,-0.014123939,0.032558095,0.10265482,0.073059134,-0.028092511,-0.010590853,0.017294109,-0.041524284,-0.011707783,-0.011014082,-0.0893854,-0.0014783662,-0.10034743,-0.010900155,0.050490618,-0.007278099,0.03999063,-0.07377046,-0.032905824,-0.08334603,0.061101094,-0.085072845,0.09683923,0.021496538,0.06925299,0.01328313,0.02929271,0.08597442,0.06864115,-0.02663035,0.032276016,-0.016475722,0.007230625,-0.046555325,-0.07809776,0.003209036,0.08612117,-0.048307,-0.023602758,-0.020245135,0.020689286,-0.094104685,-0.009825382,-0.078087926,0.040051594,-0.0037766173,-0.056923136,-0.04924045,0.07090973,0.004160861,0.041113913,0.05076747,0.10497565,0.08283383,0.08544561,0.0032400778,-0.08445409,0.09779656,-0.06619915,-0.04298058,-0.04917436,0.101283066,-0.047599662,-0.03579832,-0.07727209,0.056855053,-0.030373935,-0.064794324,-0.028039558,0.091084935,-0.08691422,-0.09762407,-0.0042604567,-0.049610525,-0.00023303577,0.103174396,-0.022003444,0.0073013627,0.10279274,-0.042779867,0.07503187,-0.08056798,0.09696717,0.039054446,0.056007955,-0.008741965,0.046062265,0.0054653017,0.060541715,-0.030144285,0.029916417,0.09331365,0.022215452,-0.0069269827,0.09345328,-0.042856142,-0.0769243,0.038186368,-0.010901973,0.050680235,-0.022820605,0.07321763,0.089790545,0.06382378,0.08093459,0.09448407,0.050046045,-0.08966622,0.016582062,0.024246966,-0.03927269,-0.05450054,0.032811537,-0.08745421,-0.07935995,-0.0057116672,0.06890479,-0.0611633,-0.024744533,-0.01486548,0.023507088,-0.07622288,-0.011236198,0.057636544,0.099605635,-0.004683599,0.04776141,-0.07576448,0.021759644,-0.09378415,-0.06809675,-0.097091265,0.027979463,-0.097646095,-0.08906166,0.09934935,-0.025560819,-0.08580908,-0.024491005,0.039668992,0.03199403,0.08753011,-0.00970383,-0.058296558,0.0034919158,-0.046558652,0.09862585,-0.08461663,-0.0050968975,-0.0503808,0.06605287,-0.008100972,-0.03475205,-0.040655967,-0.02115447,0.10193916,-0.077306904,0.0322517,-0.055173535,0.07819413,-0.06869998,0.09730123,0.031386033,0.027145773,-0.028838426,-0.0921192,-0.03256604,-0.031189129,-0.09839004,-0.036757097,0.022727191,0.07519363,-0.0367214,0.06535517,0.010516599,0.0007293448,-0.07287062,-0.07091215,-0.04213015,0.0350776,-0.0806313,-0.09468495,-0.09143932,-0.064493045,0.081406996,-0.09616435,0.07511772,-0.101639315,0.06921369,-0.0067224577,-0.07245685,-0.05690781,0.06874275,-0.013638027,0.08702229,0.044264957,-0.015993178,0.08574727,0.09681083,0.09289734,-0.06296646,0.019866131,0.06666456,0.01119224,0.03783211,0.041582137,0.08173412,-0.07220863,-0.07580748,-0.0831591,0.010574547,0.012048766,-0.019294538,0.045507416,-0.024019534,-0.053481102,0.010938874,-0.045252513,-0.082520224,-0.013491421,0.043272175,-0.0851031,0.07737455,-0.030209815,-0.061216585,0.061427746,0.017990312,0.019612314,0.008078313,0.030390322,0.053161804,-0.05037733,-0.020646421,0.08607988,-0.03182969,-0.050145384,-0.010825291,0.07673882,-0.08714996,-0.098695554,-0.05826317,-0.08186968,-0.017435066,0.080493554,-0.033745095,-0.058140285,0.050772056,-0.039305568,-0.05994916,0.04681423,0.01777227,-0.004054002,0.055874214,-0.09502357,-0.09369914,0.004729512,0.0040647876,-0.09452549,-0.09220147,0.08824549,-0.096208096,0.057629924,-0.008634645,-0.009151774,0.08450755,0.03825321,0.06914555,-0.04081202,-0.068230994,-0.032630417,0.013794278,0.08152757,0.075239286,0.044393145,-0.0011842867,0.037441324,-0.09520853,-0.088293545,0.07740929,-0.06492881,-0.019311083,0.048382156,-0.10242319,-0.07343591,-0.09223065,-0.06838796,0.02637108,-0.029243395,-0.034608833,0.028433232,-0.0846163,0.0133743035,-0.034397442,0.05288613,0.06087633,-0.055087246,-0.052645717,-0.0025138243,-0.10905417,0.025276601,-0.10447119,-0.03252091,-0.10396949,-0.10134254,-0.08611017,0.06713995,0.03673561,0.08967005,0.008641459,-0.03965147,0.05186537,-0.024978466,0.05778213,-0.07592051,-0.047621246,0.05478333,-0.059887104,0.050138414,-0.067564204,-0.06026,-0.022435628,-0.057395354,0.041420937,-0.060167987,-0.017127864,0.031222194,-0.00013615936,0.089321926,-0.0966187,0.069459274,-0.081142336,0.05620894,-0.031124145,-0.096609354,-0.024742067,0.10113394,-0.059162926,-0.083162576,0.0056454316,-0.07384286,-0.042515226,-0.0842133,-0.0539012,-0.019632787,-0.013384312,-0.04055103,0.051996768,-0.0032301843,0.0995727,-0.05057706,0.01960326,-0.022707164,-0.030704044,0.0026594698,0.057163388,0.035155043,0.06553821,-0.08765411,-0.09950684,0.05207874,0.036266506,0.09507799,-0.078006886,-0.07533069,-0.0011584312,-0.07632251,-0.054459654,-0.070711665,0.063210845,-0.056132045,-0.02635499,0.06673877,0.049442127,0.00466159,0.019667402,-0.090004005,-0.08031258,0.09875552,-0.008711949,0.05283098,0.041681394,-0.04455204,0.0336124,-0.068016455,-0.06437255,-0.07802121,0.05258891,0.0063731,-0.0780433,-0.01677724,-0.088547595,-0.005833186,-0.043287475,0.024230689,0.00901866,-0.0034636036,-0.067107,-0.014279284,0.044743255,-0.029585123,-0.037510358,0.0018849222,0.087356254,0.0029852912,-0.079411305,-0.07878008,-0.019105438,-0.02802777,0.08369279,-0.0038039694,0.016937451,0.010273216,-0.06293764,-0.007265738,-0.062799625,-0.043843716,-0.047702685,0.078302816,0.102874294,0.032156087,0.01303843,0.014556413,0.025550524,0.10484331,0.083166026,-0.02588714,-0.067977175,-0.08702861,0.059045494,0.061108947,0.04085389,0.06853056,0.07731645,0.033500966,-0.07271309,0.010561872,-0.05442675,-0.027991261,0.10722514,-0.08241485,-0.021396574,0.058053114,0.09227442,0.09289653,-0.031062003,-0.0809747,0.040773507,-0.08732105,-0.037999813,0.08557775,-0.06322676,0.06708613,0.049539723,-0.036551546,0.03833143,0.022331923,-0.058889404,-0.0033355213,0.09611112,-0.068052985,0.049736083,-0.043264654,0.08070879,0.09438711,0.06919638,-0.050151564,-0.006110219,-0.017572103,0.07645801,-0.101156786,-0.075150646,-0.030264076,-0.06846934,-0.038201477,-0.06642481,-0.036871634,-0.09544639,-0.040081963,-0.024261035,-0.014147813,-0.016496059,0.015021497,-0.050214704,0.016133677,0.0041891513,0.055159766,0.038164116,0.07740468,0.082214765,-0.054838102,-0.08648403,-0.09211289,0.0460872,0.064422466,0.049856164,0.08699587,0.06545965,0.049377173,0.027384669,0.080028206,-0.062135715,-0.06153974,-0.00309842,0.046308786,0.043993443,0.020673439,0.09234781,-0.041057065,0.012837334,0.039252743,-0.08730018,-0.0058825198,0.01170904,-0.095392905,0.07202869,0.005751513,0.025846004,-0.09272763,-0.0400033,0.056283012,0.012677295,-0.03010877,-0.093116626,0.029471144,-0.07143324,0.046780944,0.03437023,0.04022342,0.007800564,-0.04539829,0.05102302,-0.02239582,-0.04543712,0.071633585,0.012862614,-0.06986212,0.06957025,0.042074725,-0.0011871404,0.090754725,0.06137773,-0.090287805,-0.034958012,-0.044428337,-0.07184412,-0.06815317,-0.09092382,-0.07666542,-0.053126138,-0.02331791,0.07403746,0.039749637,-0.037792962,0.0897028,-0.07219846,0.020852689,-0.07383,-0.008413171,-0.06977123,0.06545248,0.07418008,-0.01830819,0.022313746,-0.09179907,0.019243093,-0.09397709,0.077451006,0.050323337,-0.019226475,-0.076816685,-0.024096286,0.0003563718,-0.00718046,-0.106224544,-0.05891083,-0.03738019,0.06635432,-0.0845738,0.016676718,-0.00470222,-0.06960265,-0.07445636,0.048266366,-0.064275466,0.0045413002,-0.08736625,-0.074915424,-0.0878055,0.05515422,0.07997213,0.04571463,-0.07478224,-0.09506445,-0.107550874,0.059315857,0.0810516,-0.084428065,0.034306243,-0.029780645,-0.06544622,0.088443644,-0.08047243,-0.10258634,-0.10583412,-0.110959835,-0.0027028248,0.07462434,-0.110078126,0.080892384,0.08815614,0.05104344,0.020127678,-0.10511769,-0.007057749,-0.00803795,-0.010412653,-0.10263322,-0.108188435,-0.09020744,-0.0055946335,-0.07545589,-0.09649082,-0.0010727765,0.083937205,-0.060214024,0.055759978,0.037338123,0.082416445,-0.017764818,0.038807098,-0.056419626,0.057838067,-0.03622359,-0.07196962,-0.075475015,0.055344462,-0.08161374,-0.04380103,0.04628034,0.017415538,-0.061794765,-0.0693913,0.024029495,-0.032275338,-0.068608984,0.016762102,0.036809314,-0.019780869,-0.03681375,-0.020618968,0.06720662,0.05236038,0.0010685424,-0.058855698,0.08716683,0.079607606,0.06617573,-0.05791949,-0.06153341,0.0061903317,0.06481623,0.004262818,-0.031176144,-0.10129976,0.0664223,0.008733788,-0.017112847,0.052425083,-0.06260993,-0.10604855,-0.023659587,0.08867127,-0.095423006,0.089394696,-0.008980862,0.03206505,0.08310084,0.057351746,-0.0037367982,0.032575883,0.08678352,0.0676767,-0.025400383,-0.07694476,-0.041758835,0.06263104,0.036922287,-0.056742158,-0.029577099,-0.036067728,-0.043772213,-0.0041225106,-0.063399434,0.0824039,0.08976468,-0.025027435,-0.09941304,-0.047725063,0.0025516564,0.016142162,0.04579443,0.09233594,-0.058016464,-0.062074553,-0.071684435,0.058425475,-0.03230719,0.048358776,0.09044771,-0.009797632,0.04800771,-0.025517236,-0.032111716,0.019182367,-0.03706032,0.07456046,-0.09015616,0.09628339,-0.026387332,-0.0032530536,-0.107614465,0.051582355,-0.047884904,0.06258516,0.089134544,-0.021824703,-0.020298135,-0.020036824,-0.09856743,0.03932832,0.020640336,-0.100281075,-0.013595772,0.031225048,-0.10338863,-0.10381609,0.06815524,0.05388303,-0.04952789,0.041471343,-0.005377174,-0.0364542,-0.009417207,0.01632202,0.09117826,-0.067695886,-0.07077406,0.08318105,-0.09567865,-0.003349192,0.024484605,-0.10216385,0.08047835,-0.0345091,0.022115706,-0.07527206,-0.07258066,0.08213792,0.015136739,0.034571487,-0.09422269,-0.051190607,-0.022896128,0.049327224,-0.048686184,0.07642032,0.035353478,-0.07233921,0.09049755,0.083365336,0.009789163,-0.018014694,-0.004414308,-0.075270966,-0.04093721,0.03833464,0.036740664,0.050176736,0.032241557,0.08979043,-0.07315344,-0.09971802,0.08196749,-0.046326786,0.07564116,0.072179705,0.027080595,-0.045461126,-0.066794634,-0.08388834,0.033359755,-0.07837889,0.021650743,0.08862423,0.055121835,0.027035521,-0.007604756,-0.051677227,0.04067018,-0.0696662,0.04986912,-0.08689776,0.039837305,0.081894495,-0.10845428,0.051846042,0.065653786,-0.00986063,-0.07065313,-0.0391869,-0.03242367,-0.053512957,-0.06090596,0.085180104,-0.020625822,-0.03112512,-0.023277178,-0.09840009,0.0040994436,-0.027015453,0.055115342,-0.09562946,-0.016733868,0.012745712,0.05694979,0.05561687,-0.08836048,-0.011169389,-0.0696751,-0.050498534,-0.08755738,0.05112171,0.00965417,0.020963896,0.05615362,-0.07434361,-0.061733324,0.027816527,-0.047746394,-0.017967511,0.00688418,0.05227764,-0.03157107,-0.07885572,0.040882364,0.06857547,-0.10635521,-0.034270212,-0.021429697,0.054248065,-0.09603295,-0.0911416,0.050870042,-0.03554551,0.04405127,-0.0021805218,0.044060066,0.0065193265,0.064484686,0.07709491,0.010665712,0.043926436,-0.0037312238,-0.043201298,0.08012707,0.05175273,0.023815976,0.006547096,-0.069056556,0.040045816,-0.093441784,-0.023126725,-0.002615113,0.014323243,-0.045438353,-0.047560506,-0.04045804,-0.0054057194,0.065373026,0.067623734,-0.013246238,0.08977186,0.050832864,-0.013279758,-0.026292525,-0.06422382,-0.021433376,-0.028368939,-0.108597614,0.019916706,-0.036962505,-0.09529454,0.08780575,-0.05986962,0.09401665,-0.02510188,0.07473819,0.023718715,0.072524354,0.018147461,-0.02359813,-0.017647872,-0.03512728,-0.0802352,0.0055449195,-0.04659188,0.0696912,-0.041153755,-0.05499869,0.08870751,0.03988977,0.07772571,0.039713997,-0.09664911,0.09544435,-0.08250079,-0.06672407,0.08564014,0.06877679,0.05616376,-0.09967848,0.06718591,-0.046098668,-0.025271863,0.09038854,0.037154395,-0.055695195,0.01953971,0.03267806,0.05602172,0.045697987,0.008914454,-0.075093806,-0.006579809,-0.050079256,-0.05203577,-0.0097191185,-0.06634329,-0.0018881256,-0.020873897,-0.053097297,0.060091447,-0.040516246,-0.09887235,0.04380043,0.05775657,-0.005997037,0.053391553,0.072103456,-0.08116522,0.047959022,0.007140732,-0.065931454,0.073464505,-0.031896364,0.08052554,-0.049873326,0.050094426,-0.0896283,-0.10090462,0.023765549,0.050675567,0.040816773,0.040044777,0.08052731,0.052734192,-0.09322301,-0.10206918,0.04949835,0.08705505,-0.08131199,0.01677211,-0.09116492,-0.07666273,-0.07201861,-0.017925126,0.061253924,-0.01992469,0.016801784,0.061083674,0.08209309,-0.011369251,0.06953963,0.0012155942,-0.008254517,-0.086863,0.04528859,0.041063998,0.042765807,0.07689626,0.09470171,-0.048312806,0.06849567,0.007666132,0.04226648,-0.09049069,-0.04416713,-0.10050383,-0.064641714,0.00157368,0.07655578,-0.09355938,0.015129326,0.07593481,-0.08152535,0.040040582,-0.09799867,0.07237837,0.047056038,0.021570496,0.029418143,0.026404757,-0.026542107,0.020504547,-0.020897957,-0.05105916,-0.021345414,0.08211017,-0.08593855,0.072505414,0.0045236032,-0.08605921,0.021307575,-0.06405556,0.035364572,-0.084323026,-0.046762183,0.06297698,-0.046853133,-0.059462182,-0.08635676,-0.0015914849,-0.01925664,-0.031393662,-0.08793156,-0.03015854,0.079109706,-0.10205311,-0.02369583,-0.10558191,-0.10067434,0.061068743,-0.06250314,-0.056682844,-0.0062711425,0.050807096,-0.013183534,0.021246305,-0.09158682,-0.02268102,0.08816843,-0.08077863,0.057189368,-0.031593826,-0.05624182,-0.06858654,0.029646518,-0.0051570227,-0.043237366,0.08547319,0.0728228,0.011588141,0.046339236,0.08725952,0.01853187,0.006825794,0.014193926,-0.043109596,-0.09955309,0.05349478,-0.10827362,-0.09960267,-0.016267067,-0.06362828,-0.0848314,0.05560361,0.06603442,0.08378543,-0.029280787,-0.038346503,-0.019494789,0.036882713,0.06470736,0.089487664,-0.017040584,-0.089490265,0.005007552,0.067958206,-0.07573305,0.073685445,-0.018683467,-0.0040594824,0.098243296,0.0051962747,0.08606618,0.09261175,0.06945802,0.015280502,0.02903005,0.072848335,-0.008983418,-0.018304236,-0.037783433,0.09152116,0.08918375,-0.07380486,-0.06884474,-0.0073245163,0.0022751908,-0.027518453,-0.024981683,0.060286295,0.0024599747,-0.03545778,-0.070821665,-0.042116653,-0.06187586,-0.07570016,-0.031299252,0.008257032,0.06338187,-0.02341976,-0.08213222,0.085146554,0.054171573,-0.07211056,-0.055100266,0.028602881,0.0014364141,-0.011564992,-0.06579746,0.07336359,0.09077169,0.00059399375,0.049727,-0.017047852,0.038287252,0.050596915,0.010127225,0.027987434,0.10887172,-0.056930672,-0.051700592,0.009651935,-0.07406917,0.027425209,0.104277916,0.081284456,-0.05513345,-0.057543524,0.008880312,-0.11257321,0.06360559,-0.004321809,0.005407355,0.069673724,0.054111023,0.06770759,-0.09435541,-0.07866265,0.073695734,0.0011512075,0.022332387,-0.07205525,0.053884782,-0.028539594,-0.06531613,-0.018599814,-0.058655895,0.01650367,-0.09011407,0.040282205,0.100935295,0.081260204,-0.09279424,-0.038700163,-0.0009931624,0.029984893,-0.077657394,-0.08279274,0.008752916,-0.08469322,-0.04762283,0.047205772,0.0789134,0.017788185,-0.03719192,-0.0042912657,-0.08726801,-0.06360876,0.08506805,-0.09848782,-0.10367227,-0.04351456,0.08833024,0.005172923,-0.058653846,-0.011910647,-0.05244624,-0.030441355,0.06299412,0.033918016,-0.04092353,0.033698767,0.02837879,0.037657883,-0.06509737,0.05803623,-0.0013517838,-0.04516228,-0.075886734,-0.034569852,-0.045508746,0.039209086,0.020739608,0.037965104,-0.04365426,-0.025978211,-0.013249017,0.04874793,0.0048040734,-0.040790215,-0.052979596,0.0010901308,-0.044246532,-0.09095744,-0.021313699,0.07974427,0.04116268,0.025815383,0.069209665,-0.05448093,0.07957076,-0.07277308,-0.019682446,-0.0050286916,0.07531205,-0.01036793,0.048171043,-0.0037706262,-0.07222603,-0.04529931,-0.054377876,-0.06793093,0.09864771,-0.07869554,-0.012341396,0.06932828,0.08959432,-0.0041224523,-0.071817264,-0.04728372,-0.039895628,0.044722483,0.09677485,-0.008434437,0.040822655,-0.0017025173,-0.077572994,0.06724574,-0.05417135,-0.027345821,-0.04001088,0.027524814,-0.09914418,-0.047677178,0.06990616,-0.06866099,-0.04588073,-0.08864169,-0.045186084,-0.050016563,0.03545694,0.0097702965,0.10036652,-0.043356486,-0.04848274,0.031692937,0.021360792,-0.077016525,-0.052182574,-0.069721304,-0.012396283,-0.08047571,-0.0658363,-0.04083456,-0.02008336,0.07706201,-0.09593189,0.07365374,0.014694937,-0.054655306,-0.10186204,-0.07678568,-0.0041126385,-0.06297465,-0.057559714,0.054774597,-0.09701144,-0.04242916,0.08852765,-0.024195053,-0.051650606,0.011175901,0.07646425,0.039106682,0.057087123,0.015461735,-0.07552037,-0.07244951,-0.06511931,-0.01867941,-0.09517236,-0.052816775,0.097442925,-0.022231407,0.09061542,-0.08147478,-0.034688517,-0.024652876,-0.098934226,0.029119357,-0.045298517,0.039353997,0.031401128,0.08919084,-0.05362016,-0.036981218,-0.02166488,-0.017013483,0.09940122,-0.05131787,-0.0732342,-0.019758783,-0.0636173,-0.08018993,0.034598902,0.032739043,-0.0051181465,0.06844926,0.041418523,-0.030422479,-0.021433577,-0.0782292,0.0619224,-0.027245887,0.012088031,-0.045206476,0.050945118,0.0051317886,0.0074809045,-0.023476787,-0.04331002,-0.048345435,0.037338734,-0.097824216,0.0970747,-0.09608555,-0.084394485,-0.00806091,-0.09208767,-0.031609908,0.0625148,0.08945818,-0.04121775,-0.04526506,9.302686e-05,0.046915796,-0.089799784,-0.043293513,0.00036171108,0.02099006,0.06928745,0.09774371,-0.10491307,-0.095247485,0.07202211,0.023932358,0.038818054,-0.0638274,-0.048295904,0.052956156,-0.02706925,0.009925954,0.06823757,0.028078305,-0.043062754,-0.01350224,0.09346433,-0.012482464,0.086042985,0.015061254,0.04779624,0.0012227668,-0.09641136,0.07652319,0.08466965,0.051290054,-0.019571919,0.059026957,0.08359654,0.008625094,0.049138606,0.0378533,0.03125481,0.02436122,0.008017647,0.014020623,0.039880197,-0.026073245,0.02961085,-0.04575502,-0.010697325,0.08111947,0.08994594,0.068523444,-0.02912101,0.0778461,-0.06660865,0.03158704,-0.041872717,-0.09368701,-0.07302335,-0.07452975,0.05809527,-0.06949297,-0.06766427,0.09170651,-0.08499218,0.0014144867,0.01681225,0.022389166,-0.09609993,0.048384268,-0.0010744801,0.040108703,0.010819192,-0.0015465079,-0.045365453,0.092502266,0.079931095,-0.028194942,0.063124575,-0.0014133576,-0.028823014,0.078215346,0.02329834,0.008082998,-0.054941874,-0.082021326,-0.010393738,0.0036376254,-0.02233419,0.080740616,-0.0706394,-0.01647237,-0.06289718,-0.033817697,0.01660004,-0.041799493,0.039960817,-0.0110085085,0.071927525,0.08886297,-0.068909444,-0.04911951,0.07334638,0.03554039,0.080547765,0.049483657,0.09558037,0.017243009,-0.090102516,0.0072535328,-0.07667116,-0.02378292,-0.06617579,-0.03817315,-0.0028038868,-0.07658756,0.094778195,-0.04583809,0.051767692,0.0621904,-0.07875432,0.067197025,0.003537409,0.053531796,-0.08863129,-0.08215148,-0.049789384,-0.060370583,0.07936642,0.058420423,0.07900413,0.019502,0.096146815,-0.06620645,0.098249085,0.081585914,0.019251112,-0.04664289,0.08269772,0.01474203,-0.04340382,-0.066381514,0.09329191,-0.042688478,-0.05790826,0.018249635,0.036440335,0.0057976176,0.03130715,-0.031941574,-0.039682183,-0.03626661,-0.057691153,-0.0027577998,-0.0037916375,0.08986558,-0.0744843,0.047788184,0.08816443,0.041732095,-0.078587584,0.08557422,0.016380848,-0.05265747,-0.066795655,0.09669436,-0.09642537,-0.06286208,0.05568585,-0.08809848,-0.028930947,-0.06001861,-0.08248326,-0.077181004,-0.095308304,-0.0067838226,-0.045543037,-0.055421773,0.09712658,-0.01912517,0.06924921,0.09164343,0.08047793,0.038025234,0.041256137,-0.00263626,0.009570047,-0.0822535,0.0897897,0.021620005,0.07305327,-0.01706367,0.08506405,0.08929744,0.02125302,-0.08396982,-0.07480006,0.058691204,-0.001146093,0.09370439,-0.035894617,-0.07468797,-0.095024474,0.05431378,-0.012039788,-0.0641187,0.06711328,0.061611906,-0.0514436,-0.07048337,0.014199741,0.019618005,-0.059854716,0.051606596,-0.044008076,-0.051644716,0.00076217204,0.040984526,-0.0196324,0.10054229,-0.084334165,-0.04312566,-0.09275734,-0.016009629,0.03436683,0.08051805,0.047498077,-0.100591324,-0.08542754,0.03156899,0.020834573,-0.05715343,0.09049469,0.007880256,0.031722963,-0.0808154,-0.085350096,-0.028772704,-0.028041713,-0.0732352,0.053931296,0.061123163,0.06985533,-0.07489866,-0.09004004,0.012441829,-0.096604764,-0.03958417,-0.009455316,0.006494999,-0.009022228,0.06646207,0.08962616,-0.028812818,0.09017016,-0.04553133,-0.07296494,0.00243745,0.07831308,-0.04593294,0.053189322,-0.07715219,-0.043488007,-0.0054371506,-0.04012602,-0.033001035,-0.010470323,-0.01813972,0.056133404,0.014290415,0.016006224,-0.046183452,0.083207995,0.024633229,-0.074658714,-0.054100405,0.029619396,-0.019258961,-0.063945174,0.010263883,0.016250104,0.059166133,-0.0035043135,-0.01784449,0.07664329,0.08386041,-0.070558146,0.0010472015,0.03922926,-4.5135617e-05,-0.0020700768,-0.0897339,0.064782694,-0.088644564,0.09666115,0.07407972,-0.055155408,-0.020299979,-0.05509685,0.0078116357,-0.01677861,-0.045913268,0.0010148063,-0.050249714,0.0064402595,-0.091608465,-0.016115054,-0.093986556,0.0011247769,0.019719511,0.045939684,0.0015821978,0.023496866,-0.04805229,-0.0039098933,-0.033507355,-0.06909899,-0.061837457,0.043689057,0.055396512,0.0940233,0.02897416,0.08062552,-0.0755572,-0.0651475,0.03057307,-0.033203915,-0.08485398,-0.052903634,0.00996688,0.016421191,-0.059131574,0.0037774593,-0.006839633,0.06947115,-0.08961996,-0.08788509,-0.081036024,-0.08690192,0.025135085,-0.024780102,-0.007362962,0.06282081,-0.07069708,-0.012384959,0.07878019,-0.057831153,0.091403365,-0.03359043,-0.008131228,0.052914664,-0.095550485,-0.02082929,0.08209695,0.031717315,0.027906373,-0.018897712,0.047369197,-0.036233425,-0.10160358,-0.0059691146,0.057808965,-0.06427335,-0.092401944,0.04869628,-0.009174272,-0.09393628,0.012365416,0.097887546,-0.04982322,-0.07203784,-0.03561724,0.036834702,0.050572753,0.0996843,-0.08482603,-0.011917487,0.09521708,-0.029739581,0.09276271,-0.05328349,-0.068815105,-0.051464893,0.026094735,-0.0850954,0.012104355,0.03154533,-0.045515414,-0.05124569,0.07546038,0.09579443,0.055278033,0.006549002,-0.017013699,0.00054648955,0.07815633,0.008566254,0.08859067,-0.088424265,0.0051106634,0.08751584,-0.019446727,-0.08591684,-0.0020680951,-0.0006248091,-0.07514435,-0.02256396,-0.050288696,0.072171,-0.09795602,0.06388694,-0.06807822,-0.0032799956,0.03290661,-0.07897381,-0.07743018,-0.08529988,0.045160364,0.0063735056,-0.045658626,0.0739945,0.009635194,0.080368705,0.0815344,-0.009286413,0.07812531,-0.059486333,-0.0019629723,-0.014565498,-0.007824583,-0.08741816,0.07014787,0.09784214,0.060171567,-0.01824268,0.02522308,-0.071666524,-0.07435025,0.07801141,0.055609334,-0.059906133,0.032520782,-0.024017008,0.103832684,-0.045397043,0.034109946,-0.038952794,-0.09522637,0.09327423,-0.030178953,-0.00993667,-0.036834866,-0.042963445,-0.07577375,0.085407,0.018478176,-0.06412467,0.05528348,0.015765214,0.083232366,-0.058230314,0.08239412,0.090449125,-0.023447378,0.086311236,0.059987992,-0.08047974,-0.024872378,0.0660636,-0.020889198,-0.032706574,-0.026505945,0.06955664,0.09088073,0.034868803,0.091531105,0.056349494,-0.009099829,-0.091772795,-0.047047365,-0.016303256,0.077491075,-0.09531608,-0.1124031,-0.07742695,-0.08399449,-0.08011601,-0.04468753,-0.08633932,-0.08800826,-0.014202302,-0.071216024,-0.038934488,-0.009444069,0.03706048,0.05139952,0.07386667,0.023414355,-0.07426171,-0.065416574,0.0430972,0.04310077,-0.050280623,-0.10038506,-0.06761466,0.06385799,0.09390447,-0.04110212,-0.09846904,-0.09507196,0.0941677,0.08024135,0.058408476,0.0370122,-0.037771508,0.08171881,-0.09450597,-0.029065093,0.08948898,0.066175394,0.08642938,-0.07683781,-0.024298579,-0.07002966,-0.0699637,0.09422666,-0.0381532,-0.091926776,0.04061183,0.03782081,-0.024387559,-0.03803562,-0.06853339,0.087222986,0.08060078,-0.07753489,-0.004374407,-0.04628707,0.080956414,-0.0007092274,0.006493937,-0.060835846,-0.026247935,-0.046727344,-0.031332344,0.03406825,0.089855045,-0.010669003,-0.084980294,0.05210723,-0.042769954,-0.07008949,0.023824384,0.036397323,0.05284536,0.034954675,-0.030060448,-0.006557417,0.03349716,0.021270232,0.05240184,0.043388188,0.025617676,-0.037731677,-0.010989195,-0.015339561,-0.07089416,-0.015069018,-0.02033965,-0.042540114,-0.002819702,-0.013975725,-0.07296349,0.073902026,0.0656707,-0.07938388,0.053122118,-0.015927091,0.08785865,-0.05135325,0.020952173,0.092685744,-0.10152147,-0.073644444,-0.06741336,-0.0631194,-0.08308828,-0.039092712,-0.079444446,0.037364587,-0.019786514,-0.038148656,0.07371351,0.038748115,-0.08548683,0.049731344,0.03044942,-0.02615206,0.032851264,-0.09541125,-0.094994634,-0.045142796,0.039453417,0.04522583,0.095194995,-0.09929301,-0.009360075,-0.03387495,0.05889158,0.0007435009,-0.047333844,0.07634954,0.017187722,-0.08640824,0.054831237,-0.03503617,0.031596437,0.08472054,-0.06288083,-0.048341118,0.039933026,-0.023328714,-0.049104337,-0.06140554,0.05238162,-0.023120627,0.06911372,-0.0149106905,0.048837587,0.080646515,0.007667534,-0.07987286,0.002282992,0.09217934,-0.04533049,-0.023613967,0.02225016,-0.092737384,-0.09185246,-0.06642652,0.0062447935,0.067129746,-0.037025847,-0.052435152,0.039454103,-0.09088789,0.004772082,-0.07562627,0.08750479,0.053142324,0.085005656,-0.045644514,0.09699017,-0.02317857,0.03913048,-0.016425982,-0.003324978,-0.0919834,0.07023361,0.058307886,-0.071020715,0.092073396,0.09559347,0.088352084,0.056977615,0.0029937848,-0.05439243,-0.056374323,0.07014538,-0.036621973,0.070645116,-0.0704141,0.059576556,0.0668713,0.08102119,0.037267238,0.0338074,0.0012339464,-0.10731433,0.05479798,-0.07014741,0.0063266256,-0.09335528,0.082468055,0.035998475,-0.038219813,0.066815995,0.09527225,-0.009785201,-0.069183625,0.05655572,0.044176113,-0.02901545,0.053065754,0.02103594,0.016151749,0.07207298,0.09495044,0.018375777,-0.0074271546,-0.07285701,-0.0027362823,0.024041392,0.09353733,0.093159005,0.08516269,0.049042236,-0.015736574,0.04159886,-0.07465352,0.0027261204,0.05120281,-0.059958655,0.08491796,-0.10604017,-0.063173726,0.024812814,0.040110793,-0.015038758,-0.077642724,-0.05189261,0.029580314,-0.018677829,0.05850879,-0.07623479,0.0882946,-0.025993645,-0.04274819,0.075295694,-0.095238015,0.0065548755,-0.109115325,-0.049175844,-0.07771129,0.021858605,0.0797644,-0.008584044,0.0021045823,-0.031382136,-0.048987407,-0.07994053,-0.0740172,-0.00092860055,-0.017595535,-0.052707933,-0.09801426,-0.089997746,-0.014311594,-0.0426027,-0.025861755,-0.022178372,-0.06358115,0.040647514,-0.059981186,0.006642811,0.006203691,-0.06939477,-0.05244564,0.050231107,-0.0851844,0.052670997,-0.028317148,-0.061035197,-0.060775373,-0.06039163,-0.03570919,-0.033646397,-0.10071243,0.08363366,-0.050250627,0.001726775,-0.09553935,0.0075357757,0.025305862,0.071944505,-0.060802422,0.057659917,-0.1066991,0.024012472,-0.095924616,0.047526218,0.06430318,0.026603408,0.009607499,-0.028948637,-0.075085215,0.039884392,-0.067324474,0.075267926,-0.05384095,-0.028386744,0.042143434,0.076868325,0.006172359,0.039216522,-0.024110809,-0.074375086,-0.02274608,-0.09307365,0.068406925,-0.09199294,-0.022784324,0.07610426,0.01861194,0.012232479,-0.105684265,-0.07561192,0.019233428,0.026021611,-0.035671204,0.010868247,-0.06602699,0.08241353,-0.04608252,-0.0635123,0.033250242,0.07421115,0.08940202,0.08538483,0.023884755,0.05040464,0.09199305,-0.07641083,0.013695466,0.014057092,0.06483913,-0.046377648,0.04209181,0.022994207,-0.003324004,0.044266723,-0.01407789,-0.07070859,0.07211645,-0.042829018,0.03193003,-0.062526315,0.06643788,0.04146438,-0.01743119,-0.040596504,-0.042314153,-0.08559608,-0.050592795,0.043598086,-0.052670762,0.021264367,0.02209025,-0.05102036,0.021175116,-0.04407254,-0.059006028,0.045186214,-0.084782675,-0.082990944,0.0063525178,-0.010481058,0.012342668,-0.06046943,-0.010566236,-0.07564698,-0.09589347,-0.026268361,0.08155909,-0.09143263,-0.011509679,0.060629696,-0.08958274,0.055509478,-0.07449638,-0.0040850714,-0.07107282,0.032094084,-0.100346774,0.009231077,-0.09959046,-0.042971365,0.014563307,0.064673364,-0.08408833,0.02190726,-0.01610513,0.024514852,-0.061012678,0.023635697,0.055259183,-0.011724547,-0.0035873055,0.05720471,-0.09129816,-0.02749522,-0.02319484,0.024123102,-0.08446383,-0.102491036,-0.03606333,-0.05458034,-0.0077560497,-0.019739015,-0.03852001,0.041980963,0.05421041,0.029864967,-0.012839256,-0.0014725546,-0.011120334,-0.0063444003,-0.082756296,-0.025257913,-0.014316468,0.052870784,0.067725785,-0.031686105,-0.024608195,0.022875596,-0.026817992,0.09288557,0.008985709,0.08576712,0.013654169,-0.009056444,-0.07068947,-0.075787544,0.014880918,-0.008407067,0.047686275,0.012973838,-0.08678819,0.006764841,0.0739239,0.029000029,0.06693002,0.0047376864,-0.0025145179,0.0908096,0.037726864,-0.029550813,0.099500835,-0.017231256,0.08982855,0.029637009,0.07056899,0.05573918,0.03765113,-0.07863925,-0.028915562,-0.056370877,0.079012424,-0.081540555,0.08651863,0.036940105,0.07497698,-0.056267094,-0.02274353,0.012081736,0.07823625,0.0961334,0.0030839986,0.06884558,-0.019163527,0.08573018,-0.080248594,0.067041546,-0.0103136785,-0.08022553,-0.017043702,-0.022663074,-0.069889136,0.0766434,0.07378428,0.0845865,-0.032645278,0.037655454,0.009412102,0.018691488,-0.05823311,-0.07136558,0.007835453,-0.07220583,0.028371906,0.090120785,0.054831907,-0.08649522,-0.098128945,0.048158273,0.051186934,-0.087165646,-0.08468806,0.00043809245,-0.02804546,-0.07565676,0.05613262,-0.036001485,0.08674748,0.09625559,0.080173984,0.049149986,-0.046821497,0.029680997,0.08200152,0.07651734,0.055614155,0.09115684,0.043284185,0.037335128,0.043561537,-0.080818854,0.0819852,-0.053902294,-0.059137203,0.049691886,0.060927816,0.00021279605,0.09630214,0.07099784,0.04908463,0.004912684,0.044839118,0.004450307,-0.067164145,-0.10488285,-0.071493566,0.09472357,-0.0910029,0.031013861,0.06576197,-0.07125485,-0.07832433,-0.023027843,0.063169934,-0.052550375,0.009953518,-0.017420521,-0.10402236,0.021580027,-0.008228306,0.07480604,0.07002969,-0.09400146,-0.07668674,-0.08489487,-0.039667252,-0.009126279,0.0014870365,0.051736392,-0.096001856,0.04602474,0.06385967,0.074724525,0.06507918,-0.063402556,-0.11344678,0.0741872,-0.006290067,-0.048353776,0.09344271,-0.04321709,0.0932173,0.089178875,-0.008694832,-0.011486166,0.009111986,0.050423037,-0.009374036,0.070489444,-0.070821986,0.010682154,0.0065928483,0.038731612,-0.01997876,0.035460003,-0.06087147,0.03792189,-0.043632552,-0.0757931,0.038820744,-0.050163623,-0.016908059,-0.010683437,0.051368028,-0.07336539,0.042835325,-0.030604176,0.033828005,-0.08215664,0.08474292,-0.034233607,-0.0821521,0.050545227,-0.050617818,0.08544417,-0.09458325,-0.021157846,-0.0067810873,-0.06059074,0.061816346,0.036386028,0.03187042,0.04296183,-0.0786417,0.08818494,-0.09459145,0.09140012,-0.044958845,-0.06415999,-0.06611984,-0.014453041,-0.028867317,0.047109313,0.0011982233,-0.043527003,-0.00078324956,0.064655736,0.09855121,-0.055883236,0.09359345,-0.047335014,-0.0278392,-0.022714263,-0.055492107,-0.058357853,0.030339513,-0.05396669,-0.023730341,0.0137637295,0.016634284,0.09630388,-0.022581818,-0.037201814,0.06771927,0.042454936,0.01812794,-0.0026967898,0.012151358,-0.038667675,-0.086663686,-0.02975607,-0.018704887,-0.018648999,-0.0479614,0.014324274,0.021453623,0.08759354,0.05855703,-0.03146964,0.03240543,0.056457207,0.10293842,-0.09165034,-0.06031218,-0.101099536,-0.056834005,-0.017428428,-0.058331806,0.048957862,-0.09842361,0.031922735,0.07359463,0.014520906,0.009801419,0.009689794,-0.02589856,-0.034013804,0.07265724,-0.007255671,0.029335039,-0.08274273,-0.10502843,-0.025256205,-0.045331046,0.084981434,-0.012496485,0.026630264,-0.06437798,-0.013380015,-0.017658852,0.08891344,0.03222753,0.025401926,0.028462628,-0.0016436279,0.08793041,-0.09168397,0.08179969,-0.09820221,0.077067025,-0.09471758,-0.0012583905,0.06565015,-0.042160574,-0.058882978,0.061626073,0.03925062,0.035206348,0.007211542,-0.01929766,0.0071912063,-0.110488705,-0.073087364,0.077877894,0.08228519,-0.04249736,0.07895746,-0.0612756,-0.033336926,-0.00858056,-0.101706274,-0.07924209,-0.08882394,0.021999829,-0.05794122,-0.0023392793,0.0028136745,-0.03472315,0.06260467,0.026908096,-0.0035237917,0.04005475,-0.011580376,0.048248645,-0.014820854,-0.0064644846,-0.06534197,0.06579273,0.0068551847,0.0873325,0.03877723,0.086609,-0.022269584,-0.052724835,-0.0063390066,0.023934256,-0.05311466,0.02784973,0.009978659,0.03741133,0.0279585,0.0729863,-0.09166512,0.0019809501,0.08723732,-0.07598968,0.05322101,0.098548725,-0.06269545,0.08876552,0.07920851,-0.07947341,0.09798664,-0.019283615,0.078121364,0.07455533,-0.08671482,-0.0940231,-0.070717126,0.09576551,-0.01792999,-0.07723463,0.07856858,-0.03668462,0.07112271,-0.0049183117,-0.01842825,0.06059703,-0.05414521,-0.049966376,-0.08766121,-0.039637968,-0.08718537,0.066046834,-0.06402115,0.03786698,0.08002134,-0.083254874,0.10224535,0.010404217,0.069874,-0.044853855,-0.014667538,-0.052641414,0.08734403,0.02286441,0.013922447,-0.0007990587,0.08225364,-0.076251216,0.008566272,0.03788856,0.029360212,-0.073306814,0.024931699,-0.013205288,-0.016013326,0.02866187,-0.023022039,-0.012747124,0.10120003,-0.0012158828,0.044469252,-0.027734492,0.05723126,-0.03843657,0.09571424,0.07356147,0.044638343,-0.07500757,0.012936125,-0.06347133,0.10555993,0.05406987,0.100473836,0.031130757,-0.07621569,0.011515055,0.07890982,-0.005264462,-0.0021920651,-0.0025261524,0.08665529,-0.07592097,0.086390495,-0.07875138,0.06827357,-0.0822936,-0.0915927,0.08375829,-0.0051232264,0.06074526,0.010812664,-0.03089191,-0.054489948,-0.046755046,0.043794654,-0.08779708,-0.035197355,0.033596642,-0.04539617,-0.016167808,-0.048481688,-0.033447184,0.043963715,0.06910778,-0.03198188,-0.08688858,0.019548811,-0.033047333,0.085919775,0.06849722,-0.0052659265,0.012822167,-0.02420788,-0.081713215,-0.07172438,0.009387668,-0.010457926,-0.037096653,0.0010331643,0.04369405,-0.020178173,0.03352543,0.083949156,0.059557784,-0.05973985,-0.03654387,0.05996151,0.052703366,-0.028625133,-0.03632313,-0.026833236,0.07075542,0.06611253,-0.008868629,0.03860303,-0.05972851,0.014790276,-0.0029573343,0.015419465,0.027248185,-0.0049031484,0.05650969,0.015333694,0.076491244,-0.024871618,-0.09028646,0.074369475,0.06915251,-0.0044632615,-0.04219547,-0.07943561,-0.0102679515,-0.0072950274,-0.016125467,0.058529004,-0.106552415,0.006200155,-0.0076939645,0.03653939,-0.040861886,0.07320137,-0.00514145,0.08912602,0.040018003,-0.08873048,-0.03785212,-0.05310005,0.036981683,-0.08787542,0.01969222,0.024778549,-0.09829011,-0.01923817,0.09326627,-0.06631607,0.089910574,0.06600517,0.06960948,-0.046042345,-0.10594826,0.013360949,-0.063029826,-0.029715316,-0.06443621,0.007949552,-0.05080137,0.060798768,-0.044639774,-0.06092274,-0.077395566,-0.10481427,0.04947069,0.04541532,0.03271856,-0.031412955,0.026523722,-0.037195764,0.012377168,0.05481132,0.07572509,0.0765353,-0.02963578,0.055710375,0.026026309,-0.0011878853,-0.07102369,-0.09360625,-0.073800616,-0.094449535,0.046023298,0.002985203,0.019194841,0.07390481,-0.02671094,0.083223626,-0.097424775,0.05989287,-0.07218968,0.012571131,0.015335822,0.05330794,-0.0445325,-0.045950778,0.026658583,0.05796359,-0.017573796,-0.022415854,0.0864491,-0.03179232,0.102560714,0.0008571675,-0.05950591,-0.031726673,-0.03739867,-0.062140718,-0.064508446,0.057461884,0.030129382,-0.01731021,0.05656325,0.034454357,0.011061878,0.049253743,-0.014214338,-0.048612997,0.05000363,0.016021239,0.078129254,0.048306204,-0.019644264,-0.06298235,0.013080163,-0.09871682,0.065483026,0.051019106,0.006704048,0.009407349,0.014608381,0.022468632,-0.03962517,0.013728168,0.07796559,0.01579779,0.06375605,-0.11161789,0.016152186,-0.09758558,-0.020465635,0.05396615,-0.00919643,0.08147495,-0.038831014,-0.018511321,0.0750945,-0.10411925,0.03045783,-0.010686338,-0.02203587,0.05517387,0.016393237,-0.00703106,0.010431844,0.03650048,-0.07563305,-0.09176167,-0.056161735,-0.0026200365,-0.11029264,-0.10004479,-0.021219742,-0.05786178,0.096770704,-0.020570045,-0.03771743,0.062470723,-0.07625471,0.028745724,0.08978216,0.083742246,-0.015297033,0.08971796,-0.013383616,-0.08097322,0.07841761,-0.016577387,0.07435015,-0.01285047,0.10060895,0.087948695,0.07784033,0.047700983,-0.07616202,-0.025565477,0.044244062,0.06723056,-0.081527956,0.015434193,0.09436236,0.0998617,0.037755832,0.02076604,0.032956257,0.023920119,0.047092497,-0.04324977,0.083644174,0.0039165746,0.103380546,-0.065274484,-0.020222543,0.05528643,-0.049950555,-0.02415976,0.102742575,-0.04111221,-0.03976226,-0.061399203,-0.04869297,-0.059794776,0.013762647,-0.08181345,-0.09290231,0.0026753186,0.034345914,-0.07227591,0.0066326456,-0.029273247,0.02652335,0.009945636,0.066783406,0.07291418,-0.09603091,-0.06681339,-0.07401416,-0.074177675,0.08612285,0.083784364,0.06272313,0.0059398334,0.07034782,-0.095182575,0.030681662,0.07563757,0.07381716,0.09438457,-0.0039094933,0.096800014,-0.07049047,-0.02566987,-0.04738361,0.048325848,-0.071472585,-0.015914347,0.08719358,-0.033333935,-0.05944234,-0.0920792,0.06479773,0.041900195,0.038361106,0.033097826,0.06040193,0.09553931,0.1023517,0.07049106,0.009876653,-0.062947854,0.09188124,0.11199519,0.10461004,-0.056950744,0.021439767,-0.096207045,-0.045040995,-0.009796448,0.009341858,0.056040898,-0.009353504,0.0026156902,-0.025725778,0.019740848,-0.020038169,0.011536418,-0.0073640835,-0.036214307,0.01923595,-0.048999425,-0.021437922,-0.007267162,0.074245825,-0.058711626,0.018236244,-0.101947226,-0.079551734,0.04910454,0.09186782,-0.093927145,0.081036195,-0.10168175,0.08452566,-0.018928573,-0.034159496,0.0899044,-0.067416005,0.019533647,-0.07164984,-0.08977164,-0.09367718,-0.07520198,-0.040404502,0.025673483,-0.06293401,0.009367559,0.04851716,0.10060963,-0.032137167,0.03593926,-0.02673438,0.054505557,0.05497222,0.08518183,-0.044043627,-0.047277316,-0.07751151,0.054610215,-0.052870378,-0.09656416,-0.07862241,0.042107612,0.03448702,-0.042391762,-0.010127062,-0.014330428,-0.09305757,-0.067280225,0.00065532327,0.0046955496,0.010670099,-0.086427286,-0.021805905,-0.039622255,0.07300164,0.0767664,-0.025788048,-0.067411,0.07383081,-0.054241367,-0.027467199,-0.00097483397,0.098681614,0.04027948,-0.021222008,0.027722174,0.020486727,-0.078943625,-0.040677696,0.004712093,0.030277565,-0.06726751,0.010943063,0.032912407,-0.052949164,-0.057904817,-0.04070901,-0.08365518,0.0008111596,0.07376608,0.021196691,-0.07674466,-0.052514445,0.017384276,0.005437024,-0.100054465,0.014964104,0.0005462167,0.07450934,0.094721824,0.0020344297,0.06886918,-0.0025597168,0.09517179,0.093167275,-0.0045840163,-0.045890532,-0.027286662,-0.057535194,0.027739359,-0.08493612,-0.04732521,0.05856672,-0.001998955,-0.04706124,0.07447673,-0.09408727,-0.05535745,-0.01730641,-0.062471315,0.08299342,-0.022529619,0.07738166,-0.06782749,0.04810305,-0.0560924,0.02696991,-0.039534584,0.077701,-0.037516665,0.09113968,-0.06535129,0.026014397,-0.08336131,0.08554957,-0.03696766,-0.0011648766,-0.015232169,-0.052838866,-0.0006548344,-0.0065101404,0.050288193,0.040175635,-0.08997093,0.08764651,-0.047312684,0.08606627,-0.049289513,0.10249916,0.049468447,0.013865724,0.055096257,0.076513365,0.029047139,0.08257851,-0.023781398,0.05474986,-0.096628785,-0.033180848,-0.07074102,0.08214485,0.063076496,0.0007910957,0.043474246,0.040283255,-0.02920236,0.03356595,-0.037514623,0.08822596,-0.04525092,0.0037431666,0.013623999,0.039210014,0.08860204,-0.0970983,-0.017391248,0.057487536,-0.05817191,0.08576311,0.077410966,-0.009071319,0.10238282,0.11053698,-0.07654911,-0.0656209,0.048366148,-0.008193408,-0.05841918,-0.08097134,0.007740557,0.08069682,0.003212969,0.10947073,0.107623816,-0.043134328,-0.061669685,-0.080989085,0.055930797,-0.015305677,-0.021076074,0.07599465,0.074042775,0.030707859,-0.014096638,0.01268191,0.07839208,-0.018980348,0.06909376,-0.023340994,0.033256963,-0.074320436,0.10460914,0.07148728,-0.088230915,-0.007334344,-0.0075073885,-0.046753082,0.043162044,0.059953332,-0.06155615,0.08663911,0.020012537,0.08992036,0.0013319163,-0.095199086,-0.015377426,0.08423202,0.09150067,0.10248318,0.093244515,-0.008761074,0.00041913227,0.007117804,-0.07405784,0.06539002,0.0152022205,0.01863136,-0.031406395,0.099381104,-0.025027152,0.05368674,-0.03317445,-0.01695655,-0.0746991,-0.08421868,0.101110466,0.016699305,0.09456344,-0.047266707,0.0306418,-0.059601776,0.09940695,0.06420936,0.052645992,0.0042382334,0.10160628,-0.08763962,-0.036576074,0.009108702,-0.086576805,-0.018059514,-0.04293147,0.08558495,0.07940563,0.06758973,0.049491692,-0.035216767,0.08216417,0.06399656,-0.033260122,-0.011955168,0.097204,0.10123458,-0.009299955,-0.07486705,0.032118708,-0.037830457,0.10566213,-0.0853684,-0.08618804,0.070065066,0.08285176,-0.08181287,-0.013402752,-0.04741165,0.03700006,-0.0035344139,-0.029520325,0.053500928,-0.00036605442,0.022826552,-0.07235369,-0.020173997,-0.06780251,-0.0061380295,0.083491005,0.08610526,0.06893067,0.0972068,0.08374851,-0.08024005,-0.09115753,-0.077947825,-0.016965058,0.058309026,-0.029016865,-0.098541565,0.058073092,0.056355298,-0.012494944,-0.023794048,0.014266395,0.0870169,-0.05412894,-0.09489728,-0.061008725,-0.011392524,-0.0076923785,-0.04703579,-0.08019187,0.09567712,0.014673328,0.03630667,-0.055757668,0.015596741,-0.0049520507,0.018660024,0.038539436,-0.017835986,-0.0911355,0.0124020185,-0.019745104,-0.022984557,-0.07759321,-0.0028435662,-0.011078426,0.09245325,0.0075536165,-0.019138856,0.08215913,-0.008446022,0.053301282,-0.0791661,-0.087308444,0.009527414,0.033558443,0.0026327756,-0.05505134,0.092264734,-0.056611795,0.009676358,-0.0976235,-0.050657332,0.024380043,-0.08819254,-0.019168498,0.05845977,-0.04296223,0.098491564,-0.05083615,-0.009647813,-0.080676146,-0.05728433,-0.009226749,-0.089541815,0.048937365,-0.044306677,-0.0012224284,0.019675428,0.0082198335,0.024219664,-0.04355477,-0.060204912,-0.012679177,0.07239514,-0.028447218,0.028331256,0.011857259,0.10193533,-0.038345695,-0.027398333,-0.01581873,0.064810276,-0.022352347,0.08167963,0.04588439,0.064354144,-0.04828906,0.014230293,-0.06566167,0.047651585,-0.089584716,-0.088772245,-0.006274751,-0.058430623,0.052529156,-0.04715502,0.03555196,-0.0969769,0.057579946,0.028144982,-0.08905892,0.0453922,-0.07815747,-0.063296795,-0.055923447,-0.06111243,0.02060815,-0.0040087407,-0.021042973,0.033839647,-0.05549697,-0.0099066775,0.057951227,-0.036735352,-0.014246927,-0.07913871,0.090169854,0.053977203,0.10730232,-0.03716245,0.09067173,0.085009865,-0.045594282,0.1007286,0.0145421075,0.03133082,-7.9198726e-05,-0.1073661,0.032139145,-0.018386751,0.060167186,0.09562628,-0.040685266,0.0266279,-0.025449213,-0.059138738,0.06470837,-0.10337158,-0.012841747,-0.053167593,0.023129374,0.06865134,0.10447193,0.027734805,0.0867338,0.08522121,-0.07559896,0.10283458,0.013488433,-0.09522018,-0.022586094,0.10674328,0.048739016,0.07720297,0.04885619,0.036179245,0.0068887775,0.0028333764,0.09864093,0.07311351,0.0592727,0.09002849,0.08010188,0.104222864,0.057845354,-0.007068677,-0.01440255,-0.0013673676,0.050202608,0.0032931268,-0.099340275,-0.023114607,-0.052585676,-0.068733215,0.050869167,-0.04602139,0.08566742,0.06559646,0.046224058,0.09170292,0.010611765,0.08353709,-0.05515923,0.027875885,-0.06338134,-0.011920357,-0.026375115,-0.0369467,-0.06934222,-0.04302278,-0.07202116,0.09303026,0.088171236,-0.093441315,-0.05227499,-0.07660017,-0.08744665,-0.09287562,-0.004253862,0.041291535,0.085401565,0.05644481,0.020360008,0.026953608,0.07231498,-0.02981695,-0.07694157,0.07220747,0.050113462,0.0029013196,0.025008889,-0.026732022,-0.0828164,-0.053030927,-0.041908592,-0.07351182,-0.06103796,-0.09900786,0.013686589,0.027229577,0.023226582,0.024382072,-0.014609807,-0.07849805,-0.023217518,0.07579553,0.04140789,0.024706425,0.020831868,-0.035424642,0.043703057,0.07700555,0.026735175,-0.07058152,-0.045773435,-0.0726899,-0.06730861,0.012371456,-0.039918456,-0.07588741,-0.05459978,0.06974086,0.021845043,-0.0362913,-0.07322932,-0.036043797,0.03329707,-0.0821437,-0.021426104,0.099950194,0.04110737,0.046883162,0.03676538,0.013668646,-0.10368683,0.024984563,0.018622786,-0.03223209,-0.05458519,-0.03702285,-0.043561798,-0.06349477,0.03213869,0.07643602,0.067048505,0.01766166,0.0019296855,-0.0506793};
const data_t conv_block_2_bias[] = {-0.07089922,-0.037912298,-0.04839044,-0.097302556,-0.09977962,-0.041671354,-0.011290861,-0.0641033,0.08424889,-0.085049145,0.08410318,-0.007188343,-0.03618626,0.011860787,-0.049711227,0.07298384,0.09918763,-0.090192005,-0.0535367,0.095771715,0.018995408,-0.011933638,0.058168635,0.04285002,0.09860356,0.045156356,0.085777745,-0.037413996,0.08470166,0.044809703,-0.025492959,0.011832684,-0.059841406,0.036835115,-0.0630899,0.0062873606,0.0256634,0.060755163,0.05877628,-0.08446685,0.07586813,0.083765954,0.08186881,-0.08709697,0.0640088,-0.033260122,0.048125837,0.07325134,0.043442935,0.01144691,-0.096705824,-0.099731505,0.0685183,-0.012088752,-0.02559744,-0.06324541,-0.057934877,0.10057483,0.08858159,0.105830275,0.07865487,0.08392539,-0.053545814,-0.051201764};
const data_t fc_weight[] = {0.114912346,0.101220615,0.018827582,0.046288233,0.014926225,-0.017458066,0.017192306,-0.05894122,0.04486087,0.007722673,-0.009790556,0.07860885,0.011491141,-0.00068009394,0.09300875,0.005303259,-0.08494128,-0.07853602,0.045000058,-0.10343358,-0.121290065,0.031287692,-0.043154564,0.010643397,-0.11092307,0.08530022,-0.062054344,0.03428386,0.054582775,0.10268842,0.013817415,-0.018266018,0.03483355,0.09802677,0.054573372,0.09693138,0.06849545,0.08047108,-0.04675062,0.11810451,0.0419731,-0.015883038,-0.11802691,0.076335296,0.016022503,-0.003334913,-0.041017156,0.07453607,-0.026073296,0.09773823,-0.08151175,-0.011934,-0.08279749,-0.011272449,0.05049596,0.025719462,0.07235414,0.07290135,-0.12347853,-0.026634416,-0.10210565,0.042767968,0.073248796,-0.088455,0.09056656,-0.0051074424,-0.049092453,0.041868776,-0.08991715,0.010892957,-0.015438175,0.046704352,-0.041627884,0.0084234355,0.096085034,0.12872882,0.01756716,-0.09483348,-0.12521935,-0.072567485,-0.03867805,-8.097291e-05,0.009522274,-0.12345591,-0.07944205,-0.032986373,0.029578304,0.034570508,-0.07662812,-0.0142274145,-0.019550882,0.094563425,0.09271869,0.05241898,-0.05440876,0.009501125,-0.0377966,-0.031652283,0.12146794,-0.0904402,0.08253063,-0.040542275,0.11660323,-0.09423633,-0.12123017,0.12100081,-0.020217517,-0.094097584,0.038226873,-0.004352593,0.11160538,0.1179882,-0.08948131,0.03437169,-0.11761461,0.03524517,0.09184224,-0.06997189,0.03355652,0.026862064,-0.07972994,0.070551395,-0.114565924,-0.07661488,-0.02635207,-0.0076155574,0.07997403,-0.11224879,-0.11809012,-0.07841733,0.032427214,0.0010037834,0.06849234,-0.022999287,0.10810048,-0.12819822,0.08040239,0.10699269,-0.0153958,0.04709396,0.03608155,0.107855335,-0.12629235,-0.10293054,0.06105998,0.10379107,0.022839855,-0.111859635,-0.10260222,-0.1271557,-0.0030892012,-0.015786905,0.09730086,-0.0014160689,0.06580464,-0.11717738,-0.024842322,0.11710934,-0.0126312375,-0.091248535,0.027526667,0.016641624,0.07972388,0.016568944,0.06725357,-0.04258556,-0.08256894,0.07694678,0.013007432,0.08742792,0.0034342865,0.06572239,0.014957011,-0.058625724,-0.093775064,0.10428314,0.085364416,0.0656553,0.11507572,0.04558423,-0.107435286,0.06726303,-0.0039562183,0.10991691,0.11090444,-0.032204863,0.035210937,-0.12742677,-0.07456679,-0.05075403,-0.11553435,0.022269795,0.007256652,-0.0009180229,-0.022531914,-0.013861039,-0.06969346,0.0066682696,-0.103496596,0.067698106,0.08776725,0.061290618,-0.1143855,0.0021205735,0.11072101,-0.11427179,-0.10564821,0.044410642,-0.07279861,-0.06676683,-0.057837088,-0.11775483,-0.09291671,0.055780705,-0.09967968,0.047415894,0.03275673,-0.10601685,-0.08115524,0.09021089,-0.062157437,-0.011994103,0.105119154,0.08556874,-0.06577302,0.043816797,0.030698923,-0.108622,-0.037686702,-0.09357108,-0.08223843,-0.10124728,0.0042368025,-0.042615425,0.08240503,0.05003883,0.08895938,0.048731737,0.07105545,-0.036511272,-0.09269359,0.029477142,-0.08915859,-0.05963665,-0.11729653,-0.02041812,0.038398627,0.09717457,0.08952727,0.116717264,0.030670002,-0.08061981,0.10010209,-0.10176237,-0.035244945,0.075601995,-0.108713396,-0.11803769,-0.061801843,0.06696045,-0.09314978,0.111672655,0.07278058,0.10373319,-0.031088997,0.086245604,-0.01279313,0.056116845,-0.07188454,0.11446751,0.011921612,-0.04434801,0.0047240257,-0.11914307,-0.064749666,-0.036352262,-0.04284384,0.0042898674,0.03455622,-0.09140012,-0.07679255,0.0005885013,-0.07604576,-0.092986256,0.040527955,-0.118664876,-0.08418721,0.06708816,-0.10487144,-0.02023385,0.019070193,-0.077731594,0.0030156886,-0.08405593,-0.07475485,0.06023108,0.09548324,-0.038357873,-0.06342596,0.09544106,-0.10410623,0.102866985,0.06632587,0.032733783,0.08344093,0.117621645,0.08458316,-0.078209035,-0.0745642,-0.010321741,0.062273987,0.107640274,0.069569744,0.1168245,0.11784203,-0.059630323,-0.08059483,-0.03379534,0.11550599,0.11050712,0.0931458,0.011564211,-0.06220068,0.117940396,0.055791378,-0.05532904,0.042313904,-0.1133684,0.063920334,-0.059830174,0.004264936,0.052982867,-0.09790195,-0.07321537,-0.015300795,-0.060043857,-0.089782596,-0.04554622,-0.059274793,0.03876853,-0.10595024,-0.082527265,0.04091139,-0.0020245712,0.034812123,-0.018882781,-0.072821826,0.04325372,-0.10372947,0.04817964,0.032116547,0.09164791,-0.10565755,0.008877501,-0.069007605,0.07906756,-0.020092726,0.08722809,0.014798597,-0.09751624,0.066676125,0.059924096,-0.08710733,-0.1182224,0.024879143,0.11216766,0.10969216,-0.043695927,-0.08021276,-0.11770485,-0.024986118,-0.10306664,0.024324551,-0.11749412,-0.04789096,0.07649922,-0.08291733,0.04826291,0.008589938,0.088886924,-0.0598633,0.07443948,0.080727726,0.022962093,0.04689824,0.00081349193,0.124532685,-0.116122775,0.11988227,-0.02316773,-0.10317119,-0.037043836,-0.08464553,-0.067516625,0.024353087,-0.08662677,-0.10403048,0.009871585,-0.017456047,0.022872966,0.11796971,0.054541156,-0.1028603,0.033265486,-0.062388815,0.0017859546,-0.0035853537,0.111177705,-0.09246005,-0.017662484,0.061490607,-0.02373799,-0.114037395,-0.033575088,-0.10070576,0.114621855,0.11134081,0.057518523,0.029495312,0.04462549,-0.028068298,-0.058611315,0.042839136,-0.07876404,0.11031826,-0.027276212,-0.07979018,0.07486309,-0.034846112,-0.02614429,0.035328016,0.06001623,0.110440314,0.010447543,0.012759079,-0.06186297,-0.05845522,0.0068315556,0.06648138,-0.031647414,0.11621856,0.11636495,-0.015584283,0.037811387,0.10022939,0.042234834,-0.050984487,0.0003100552,-0.035860624,0.021866465,-0.07932158,0.09315885,-0.008019805,0.116334274,0.060168557,-0.052951694,0.099915914,0.110834785,-0.059290893,-0.026885161,-0.027168132,0.09959514,0.110452995,-0.083562054,0.11790462,-0.03202021,-0.004748584,-0.004033357,0.026362639,-0.10127651,0.087199524,0.07215781,-0.11722486,-0.033728275,0.09701232,-0.091053,0.09833786,-0.115338035,0.1154138,-0.01571036,0.11597247,-0.053399727,0.01805435,0.116080314,-0.08643081,0.096785076,-0.07912699,-0.09686896,0.0108658075,0.00842851,0.005927206,-0.009493798,-0.081529826,0.027656186,0.10102447,0.022638068,-0.105371594,-0.061754834,-0.07294242,0.04461851,0.07663109,0.07634264,0.042179726,0.123746745,0.034607783,-0.059789352,-0.12725306,-0.00714485,0.11849289,0.10504704,-0.050312035,0.11445815};
const data_t fc_bias[] = {0.10425893,-0.0406182,0.051804673,-0.10543902,0.09547104,0.028161138,0.043760862,0.045056097};
#endif