#ifndef WEIGHT_H
#define WEIGHT_H
#include "ap_fixed.h"
typedef ap_fixed<16, 6> data_t;
const data_t conv_block_0_weight[] = {-0.07981502,-0.03737769,-0.10344857,-0.022063365,-0.16303451,-0.03788798,-0.07686031,-0.043483876,0.097481936,0.020911036,0.037772626,-0.08774544,-0.1287687,0.024662446,0.0032515198,0.08528111,-0.07736735,0.09829874,-0.08270908,-0.08835217,0.05253244,-0.0836072,-0.009838293,-0.073533185,0.050304588,-0.06930898,0.00042976276,-0.04156308,-0.13087393,-0.15087299,-0.1012725,0.0026705526,0.050525993,-0.0048074885,-0.05203374,0.013811288,-0.03894785,0.08931375,-0.015541193,0.072128095,0.013269831,0.08286272,0.027446289,-0.041082475,-0.0886567,-0.00032103833,-0.022971839,-0.051486306,0.011906617,0.05316709,0.05484091,-0.07302964,-0.077840775,0.022959573,0.07587418,0.025561856,0.034387063,-0.0354667,-0.16278492,-0.19875039,-0.19866113,-0.08507121,-0.19465771,-0.12617269,-0.07484427,-0.055534422,-0.083804026,-0.2183694,-0.1306934,-0.048115112,-0.077080876,-0.08013947,-0.18108484,-0.17598008,-0.049916204,-0.0055327616,0.042399567,-0.033281215,-0.024721991,0.0008103483,0.13426553,0.016169379,-0.09621218,-0.010925823,-0.06494029,-0.01814807,-0.10746524,-0.014086205,0.034853615,0.04467593,0.32145664,0.28018656,0.3084225,-0.7585377,-0.68125045,-0.72434026,0.017023677,-0.037013646,-0.012044511,0.18619455,0.0016348135,0.10901715,0.34582248,0.32617655,0.26208857,-0.234924,0.27226624,0.10691217,-0.37872285,-0.31386542,-0.2981066,-0.18373995,-0.06830837,-0.21543942,-0.40473825,-0.3808143,-0.2316386,0.18112226,-0.16895607,-0.25789472,0.29678833,0.31918013,0.17414637,-0.7227225,-0.66333324,-0.75118667,-0.1273926,-0.12410288,-0.12929268,0.070381336,0.012066506,-0.016176201,0.45574316,0.6084611,0.43981794,-0.73845214,-0.61518794,-0.67352974,-0.33794647,-0.30814776,-0.43427047,-0.023696033,-0.05688651,0.12775478,-0.20534572,-0.4108515,-0.41247845,0.72388935,0.70925814,0.7411285,-0.6511301,-0.6443146,-0.6679629,-1.0613956,-1.1688516,-1.0818546,-0.60347056,-0.56053215,-0.62784725,-0.6614762,-0.7804653,-0.6590804,-0.33348942,-0.35997787,-0.47614068,0.9855579,0.949597,1.0156652,0.22453399,0.11234834,0.11864161,-0.33165276,-0.43895176,-0.44091734,-1.1376055,-1.0056864,-1.1778407,1.0208881,0.9397556,0.8912184,4.923627,4.8448772,4.8911037,-2.6748226,-2.7530315,-2.7041168,0.3107497,0.18311654,0.281887,-4.2743726,-3.9174721,-3.5935633,10.825963,10.029249,9.355754,0.7915238,1.7793169,3.5319471,-0.18775368,-0.11845701,-0.17893958,-0.06693931,-0.06928991,-0.09411701,0.12349103,0.1067395,0.15851258,3.8067288,2.6694891,1.456956,4.751198,4.724961,4.8090944,-2.769012,-2.7881212,-2.7730184,0.30525607,0.30457854,0.20533964,-1.6535648,-1.8248359,-1.8350888,6.0903273,6.088767,6.079857,2.1912117,2.0898914,2.2116077,-0.13295683,-0.30739912,-0.13082413,1.3445125,1.3459101,1.3822191,0.03788284,-0.052826893,0.050566617,0.19177811,0.2544748,0.117059976,2.2224817,2.1996498,2.170936,-0.16161908,-0.27258506,-0.25830328,2.051951,2.2297044,2.1083272,-0.056395944,-0.16951221,-0.09904162,5.0417476,5.0788174,4.988083,0.5150457,0.5367637,0.4679815,4.2061896,4.270605,4.182028,-1.1015913,-1.1697302,-1.0794231,0.42478153,0.41826412,0.32791778,2.0257561,1.9941423,2.1175675,0.41784742,0.40362477,0.31024188,-0.017870553,-0.053185817,-0.15750848,-0.51246053,-0.35701472,-0.32987285,0.3538225,0.30831686,0.33567587,-0.31081435,-0.15501359,-0.33116692,0.14016548,0.21294416,0.18891072,-0.17569233,-0.00715369,0.0023820102,-0.19159031,-0.20126973,-0.18604879,-0.016533053,-0.12744273,-0.09721576,-0.026372403,-0.03388641,-0.14668584,0.43988228,0.34086803,0.39836887,-0.21763799,-0.17435811,-0.11150866,-0.33767188,-0.49755976,-0.3979986,0.09520124,0.15304966,0.2299477,-0.16491,-0.1253062,-0.21973294,0.055985447,-0.08279721,0.08885128,-0.10047681,-0.09834374,-0.1756215,-0.0036396582,-0.03687879,-0.004097879,-0.10602623,-0.08814965,-0.06926284,-0.024859142,0.016011458,-0.07831106,0.47532535,0.46164802,0.60534775,0.54691917,0.7100545,0.5718121,0.2707935,0.3087358,0.33238256,0.07476785,-0.008207442,0.15594909,0.3102834,0.16702569,0.33970407,0.03165998,-0.13714176,0.02759744,0.6153609,0.6046933,0.5503324,-0.29066053,-0.26396993,-0.28175557,0.87044144,0.78167665,0.8550426,-0.19289257,-0.1605821,-0.118543595,0.7698448,0.7584076,0.6504816,-0.3977879,-0.26347467,-0.2693431,1.1804984,1.1658043,1.1609973,1.433401,1.9435894,2.4273877,-2.0535047,-2.8558102,-3.2829034,9.1269655,10.227179,11.889381,-0.6995449,-0.59954387,-0.54537106,-0.10113908,-0.33842057,0.12616709,0.36421996,0.3409626,0.4653977,-1.0082941,-1.4451139,-1.9707562,0.7237123,0.6115999,0.6568161,-0.37549078,-0.41173953,-0.45436805,1.2350622,1.1768821,1.267563,1.3412138,1.3719326,1.4027795,-1.688956,-1.5343246,-1.5886517,11.573923,11.642051,11.600572,-0.5987135,-0.66161406,-0.47580492,0.4324864,0.40239382,0.42783695,0.39331332,0.42453972,0.28113368,-1.1372656,-1.1476874,-1.1165512,-8.974257,-9.018405,-8.985673,-4.904367,-5.043531,-4.9829116,-4.402353,-4.478757,-4.3121557,0.5336875,0.59176207,0.60689336,1.343797,1.347274,1.4016124,-3.3037617,-3.363538,-3.373257,3.0933874,3.0523922,3.0664327,-0.4663554,-0.5065051,-0.43979406,-15.509186,-15.429434,-15.503986,3.5986302,3.7515543,3.695804,0.022064524,0.116403796,-0.023627719,0.2028392,0.18117484,0.16942436,-1.3813521,-1.4925851,-1.5081753,2.132992,2.175647,1.74549,-0.15719451,-0.26837927,-0.37924775,1.8462625,1.3311163,0.71235067,-0.09207574,-0.16867946,-0.13440545,-0.54973793,0.07692228,-0.29232544,-0.17676014,-0.28315693,-0.20574024,1.307158,1.2895892,1.4883671,-0.03605846,0.06118276,-0.0011185496,0.30777544,0.2992103,0.25920194,-1.4302497,-1.4677055,-1.4184213,1.1449734,1.0368406,1.0022495,-0.9920095,-1.0535206,-0.96594524,0.7621506,0.7216039,0.8485928,-0.21426898,-0.23988354,-0.24834123,-0.6917925,-0.8409406,-0.7198878,-0.26526415,-0.19714761,-0.17673042,2.118723,2.1105018,2.1340437,5.0308113,4.971374,5.0319924,4.9893785,5.0164237,5.1154485,3.3831997,3.3525782,3.413941,3.5998933,3.4462993,3.4051864,3.799888,3.6751766,3.73559,1.0761319,1.1780019,1.2057207,2.7048416,2.8141625,2.8670983,-0.6598994,-0.66259575,-0.839005,5.5743403,5.539963,5.6595383,1.4266931,1.3953365,1.4673051,-0.8150175,-0.6532812,-0.60446554,1.832351,1.7174675,1.7891889,1.5299412,1.4294908,1.3707571,-1.8943291,-1.5604361,-1.0913059,0.07932518,-0.49173495,-0.9925605,4.040215,5.622745,7.2404046,-0.5956422,-0.44276434,-0.42446378,-0.2152732,-0.21225995,-0.427517,0.86864555,0.9699953,0.91566205,-5.105802,-5.204386,-5.2610946,-0.6193502,-0.69140136,-0.6765033,1.7169873,1.7907873,1.6787175,1.509332,1.4807825,1.4680231,-0.28783163,-0.27923593,-0.3159859,-0.881294,-0.9512477,-0.8554113,6.5820737,6.469321,6.481849,-0.5184465,-0.59733415,-0.535868,-0.1351059,-0.10360384,-0.18644388,1.0362161,0.90612775,0.984847,-5.3439856,-5.300502,-5.447283,-32.68148,-32.59844,-32.53164,-15.6476755,-15.756957,-15.64293,-17.556513,-17.453457,-17.430908,-12.26548,-12.162006,-12.30242,-9.652054,-9.65774,-9.653261,-7.8953314,-7.8498526,-7.9365435,5.757051,5.6421084,5.6858187,-0.6326376,-0.47610125,-0.5404996,-37.14432,-37.132427,-37.070522,-6.4532204,-6.404187,-6.3659773,4.953214,4.9285274,4.980485,-0.4099017,-0.39716613,-0.27518454,-2.2406735,-2.236557,-2.2199256,-0.088641815,0.19501153,0.4807493,2.5871809,2.0968568,1.9288394,3.3134484,4.0522256,4.9156947,-0.10251773,-0.021218047,-0.047820013,-0.13594602,-0.08687586,-0.038637884,0.26808268,0.23773283,0.17700897,-0.43857527,-0.96771425,-1.4546962,4.892561,4.8992634,4.8967876,-0.4145727,-0.2762485,-0.4179329,-2.314498,-2.3499193,-2.2209592,-0.8492903,-0.88698477,-0.93214923,0.06972663,0.07433535,0.15803744,3.7765415,3.720998,3.6763122,-0.03580064,0.019747274,-0.071809925,0.5868804,0.47549173,0.57082015,0.2436861,0.11166966,0.09930712,-0.65910333,-0.45607352,-0.6111503,-5.9852896,-5.9743166,-6.00694,0.5546258,0.4697819,0.62650543,-6.046602,-5.9023232,-5.960386,1.0303627,0.95400554,1.0152712,2.858797,2.7619243,2.7635317,-0.48773354,-0.38334253,-0.4040163,9.179773,9.285858,9.208673,-0.65232784,-0.6279153,-0.731762,-3.5526435,-3.4794981,-3.4119117,3.175797,3.1510382,3.1146874,-0.03142652,0.013725153,0.01885862,-0.045534007,-0.064584516,-0.056779597,0.01908579,0.04462401,-0.1510445,0.08518553,0.08411088,-0.007949816,-0.09254993,0.03284294,-0.091004506,0.04086066,-0.024633652,0.082276165,-0.07828585,-0.13981248,-0.16640939,-0.026444675,-0.0040726326,-0.043113716,-0.15942091,-0.058119293,-0.15717052,-0.036892414,0.038167648,-0.031868067,-0.11908418,-0.081946895,-0.015362414,-0.021437073,-0.1331771,-0.042481583,0.045809716,-0.121503286,0.03903254,0.087746225,0.03560166,-0.022308081,0.030958252,0.047651567,-0.050580382,-0.050281458,0.027156921,-0.042827938,-0.15011762,-0.12082336,-0.0908237,-0.028511245,-0.11288351,-0.012660438,-0.15598111,0.0110806115,0.002671425,0.0060200565,-0.044948574,-0.06858977,0.002144775,-0.013812499,0.0044044205,-0.12224084,-0.040233433,-0.06418094,-0.08885961,-0.0575931,-0.026516568,0.046424445,-0.07284661,0.023614582,-0.012272212,-0.1316352,-0.0065447404,-0.06816652,0.013728261,-0.06303355,-0.06812089,-0.0110345865,0.0123868985,-0.009677929,-0.12640047,-0.087387,-0.082386665,0.022126041,-0.09410396,0.050910756,-0.06808005,-0.12869458,0.23050882,0.17793232,0.16729112,-0.36418754,-0.3516556,-0.3306416,-0.9985158,-1.0799981,-0.9469875,1.3236619,1.253533,1.2688719,0.72812736,0.75428426,0.8726111,-0.3963992,-0.3484533,-0.37316698,-0.3705031,-0.36854535,-0.3776908,-0.083930105,-0.16816726,-0.2331776,-0.5312836,-0.5338423,-0.3952545,0.4591195,0.50605214,0.40521565,0.10010624,0.22343697,0.1712255,-0.43102166,-0.3229888,-0.34500134,-0.96863806,-1.0527484,-0.97390413,1.2371399,1.1424086,1.1724149,0.7448253,0.7769486,0.8480995,-0.9450057,-0.9114463,-0.81165916,-0.37382725,-0.48621947,-0.43602264,-0.16039541,-0.20383349,-0.12076339,-0.4271462,-0.3862865,-0.395128,0.9972015,0.8248231,1.012529,0.8740434,0.8970479,0.98097825,1.2451607,1.1015166,1.128138,0.35739428,0.33845943,0.41629148,-0.5449328,-0.5178828,-0.5865532,-0.18492065,-0.11521609,-0.12835313,0.90500283,0.9690904,1.003034,1.0799583,1.0080053,0.99768853,-0.26285228,-0.09930773,-0.21632038,1.8051138,1.7884429,1.7747128,0.757569,0.8442109,0.88131547,-0.28593165,-0.23866768,-0.3512365,-0.533983,-0.56303936,-0.53307086,-0.53279,-0.35016996,-0.45936906,0.44286245,0.44906178,0.48853824,0.45855165,0.34773806,0.43468902,-0.9052782,-0.9511804,-0.9003722,-0.54900247,-0.49252412,-0.42688048,-0.07852997,0.021599116,-0.079047196,-0.48929122,-0.3888947,-0.45297042,0.8893917,0.9003604,0.8846272,-0.3680798,-0.41713372,-0.39153892,-0.5655742,-0.41510525,-0.4911702,-0.474248,-0.41879013,-0.51507664,0.32923475,0.43537,0.42801479,0.3907279,0.34788337,0.48174122,-1.1666303,-1.1106268,-1.0865394,-0.5082189,-0.45360288,-0.4645214,0.014042876,-0.023570726,0.032724228,-0.50637186,-0.48047945,-0.4287269,1.0065007,1.0466352,1.089851,-0.42326438,-0.5147238,-0.41827482,-0.50940555,-0.4792067,-0.43924356,-0.4589802,-0.43124607,-0.53309786,-0.608784,-0.5904407,-0.6184924,-0.43757045,-0.57970613,-0.48141137,1.1637993,1.1206713,1.1273143,-0.09802048,0.013484216,0.06669301,-0.04401096,0.0016753459,-0.02367314,-0.47675037,-0.61073095,-0.44079062,1.1138393,1.1338563,1.1912733,-0.31216273,-0.42277297,-0.26335433,-0.58492905,-0.45196304,-0.5931035,-0.45147285,-0.2906385,-0.31435364,0.52718866,0.4782923,0.58587873,0.46952114,0.49914336,0.4277195,-1.2408123,-1.1002569,-1.1301042,-0.48412892,-0.5127785,-0.4477969,-0.005815593,-0.079990685,0.041346986,-0.47815236,-0.3590241,-0.4868391,1.1273497,1.1539758,1.0253347,-0.41906232,-0.30974683,-0.39912626,-0.588677,-0.4166921,-0.47614706,-0.35779455,-0.4580333,-0.30736867,0.5801975,0.4309519,0.507153,0.3845857,0.4704307,0.56082666,-1.0763452,-1.1999403,-1.1589148,-0.4301836,-0.43236807,-0.48891586,-0.09595168,-0.01727457,-0.07982142,-0.47625127,-0.4432522,-0.42443636,1.111013,1.2010144,1.0517089,-0.63317245,-0.55457115,-0.636579,-0.69861823,-0.5831915,-0.55348057,-0.65510976,-0.5726763,-0.5514652,-0.46330544,-0.6384124,-0.45319965,-0.6590726,-0.5799498,-0.75487083,1.1433877,1.1539745,1.1007355,0.062873565,-0.03873267,0.009987139,-0.15232591,-0.026929783,-0.13081393,-0.45907137,-0.4857788,-0.511642,1.217587,1.2072115,1.0759072,0.6463866,0.54361457,0.6040985,-0.6604771,-0.57957566,-0.5752209,-1.0478154,-1.2158482,-1.1790149,1.2965981,1.1889628,1.2231214,0.6525841,0.7301119,0.80834836,-0.9066302,-0.88053346,-0.585651,-0.3766438,-0.3014235,-0.34096527,-0.26358652,-0.2137167,-0.31905833,-0.50456595,-0.4909404,-0.53997487,0.53596044,0.5764319,0.41324058,0.63109386,0.56134295,0.5847446,-0.53327256,-0.52245253,-0.61530465,-1.0820112,-1.089613,-1.0996418,1.3635945,1.2698694,1.2599765,0.5552269,0.593156,0.49870902,-1.1393731,-1.1189557,-1.179299,-0.4284496,-0.31782827,-0.4689739,-0.082003124,-0.06947614,0.052566733,-0.4132376,-0.40964702,-0.5470075,0.71359944,0.75014055,0.78137094,1.2554055,1.2516683,1.2404939,1.7759038,1.8106282,1.7984068,0.48292568,0.48345795,0.5097606,-0.43604094,-0.503161,-0.38453358,-0.2727998,-0.37729672,-0.324399,0.92846686,0.8128833,0.9829834,0.66306484,0.7698555,0.8062837,-0.24484944,-0.077080816,-0.050483663,2.6166413,2.7289166,2.6690493,0.68334085,0.78132856,0.8007705,-0.5139057,-0.5607463,-0.5793245,-0.45215836,-0.6048452,-0.50868416,0.0027560494,0.09340558,0.004879562,-0.057670183,-0.06821752,-0.054098453,-0.32261166,-0.28696808,-0.3686906,2.198765,2.132782,2.3359585,-0.52197623,-0.35398954,-0.41390884,-0.026673375,-0.09111803,-0.10432351,-0.276598,-0.35299805,-0.44888845,-1.1351615,-0.9624966,-0.95060885,-0.47593412,-0.45893732,-0.44170907,-0.45439327,-0.42217848,-0.44622427,0.12989895,0.1058737,0.048161894,-0.12790978,-0.061019607,-0.05188864,-0.46511224,-0.27413553,-0.29180342,2.4536912,2.5308037,2.3847408,-0.41955054,-0.34547353,-0.36450613,-0.06368774,0.04072845,-0.04988481,-0.38493064,-0.37539753,-0.45616767,-1.0567358,-1.0261409,-1.0396761,-2.435717,-2.5252016,-2.5246956,-3.1110084,-3.036754,-3.1693256,-2.323503,-2.3909242,-2.4310288,-2.4907155,-2.3438354,-2.442169,-1.489023,-1.5373461,-1.6282837,-2.6736941,-2.5878825,-2.7046523,-0.124677315,-0.16421598,-0.22245094,-0.05859458,-0.036526397,-0.08362355,-3.774609,-3.7058578,-3.645855,-1.3943176,-1.4270781,-1.3255714,-0.58649725,-0.5199183,-0.5131471,-0.33110854,-0.4815263,-0.50730205,0.6901669,0.6679578,0.6610879,-0.79710245,-0.8021586,-0.7403883,0.25984386,0.43998942,0.2530273,-0.8172848,1.1534334,1.2034436,-0.011335378,-0.18659195,-0.04855966,-0.082434535,-0.02563404,-0.11256627,-0.17245142,-0.005286447,-0.087985724,0.46060866,-0.77187026,-0.75022584,-0.5591502,-0.42894673,-0.5679298,-0.42073253,-0.42642382,-0.32956478,0.6546776,0.5632848,0.57679194,-0.63919777,-0.6001418,-0.6893826,0.22939456,0.3513809,0.31334105,-0.6918981,-0.8378897,-0.71209717,-0.010016495,-0.16398546,-0.064061165,0.022988385,0.024225092,-0.099497505,-0.1757691,-0.123152,0.0013956005,0.49111143,0.4612215,0.4150947,-1.5216278,-1.6127194,-1.6050748,-2.1571527,-2.0726132,-2.122878,-1.3878607,-1.4925072,-1.4228961,-0.8253687,-0.8159558,-0.7630393,-0.76698124,-0.6993975,-0.7158575,0.83762556,0.70474917,0.8006683,-0.055858955,-0.119034946,-0.14750682,-0.13674119,-0.27865982,-0.19167015,-2.4453013,-2.3834977,-2.2528706,0.82629853,0.8075497,0.87059605,0.052976266,-0.08966645,-0.016869567,-0.3008286,-0.1971198,-0.31046838,0.33845463,0.33865336,0.37727022,-0.48768136,-0.51823163,-0.6489559,0.21077605,0.22709286,0.10554533,0.77306026,1.0351914,0.8627402,-0.03929108,-0.01460823,-0.15356717,-0.14978218,-0.15660578,-0.09080972,-0.109094515,0.085485116,-0.009789796,-0.33577368,-0.342581,-0.3108481,-0.07937025,-0.055148296,-0.08067638,-0.20545565,-0.27524787,-0.10479559,0.2757736,0.29081002,0.3367463,-0.5115539,-0.48761043,-0.5546812,0.23817076,0.08756431,0.07354572,1.0275273,1.1876798,1.1428957,0.020878881,-0.080347605,-0.01575122,0.08962852,0.21738225,0.13768646,-0.03636944,0.050545167,0.04189882,-0.3389434,-0.35534093,-0.37953693,-1.05071,-0.9961999,-0.8766856,-1.459275,-1.444746,-1.4007411,-0.76797193,-0.9186618,-0.78656644,-0.6196259,-0.8055967,-0.6437101,-0.352178,-0.34362152,-0.41144118,-0.99315464,-1.1749831,-1.1047101,0.16202395,0.17726249,0.02079235,-0.06835166,-0.08668835,-0.0941029,-1.5945065,-1.5482125,-1.5548171,-0.35829875,-0.41727504,-0.39568546,-0.1081462,-0.17182371,-0.048685186,-0.012491762,-0.0587247,0.027811065,-0.048746884,-0.16083065,-0.122951396,-0.0369107,0.10674364,-0.017607044,0.121171564,0.12882607,0.07485711,0.09574692,-0.02754477,0.08575294,-0.06590939,-0.07254122,-0.084559746,-0.054848723,-0.057009313,-0.058986984,-0.1550348,0.008267348,-0.13022424,-0.14201242,-0.083107084,-0.04160233,-0.051389143,-0.09972484,-0.14711888,-0.054411635,-0.12807855,-0.15695313,-0.031452082,0.0019204775,-0.03267492,0.08649694,0.16437589,0.04052847,0.0019437944,0.018948939,0.043312885,0.036357634,0.04872166,0.1808232,-0.10843699,-0.15061541,-0.17931288,0.028961143,0.012337338,-0.096363924,-0.038755506,-0.0980198,-0.064203285,-0.019635439,-0.12414321,-0.15559241,-0.13970652,-0.104274854,0.0005493497,-0.12913607,0.008655752,-0.022828825,-0.105650455,-0.0096490765,0.042132955,-0.15833978,0.040528364,-0.049416948,0.00014092178,-0.15551385,-0.15374884,-0.022821633,-0.03581608,-0.17354208,-0.14290349,-0.029427074,-0.10386333,0.004128358,-0.034441102,-0.08467849,0.0433809,-0.10549578,-0.14047283,-0.046504013,-0.021318357,-0.031273916,1.1059995,1.0007616,1.0382845,-3.3896568,-3.3925207,-3.2291868,2.9926872,2.8989334,2.9162166,-4.397125,-3.4227889,-2.568742,6.518839,5.3485794,4.5647073,-0.6225178,0.37762246,1.7455281,-0.20392811,-0.2543942,-0.26363355,-0.23734082,-0.116468996,-0.14044425,0.2337667,0.2515183,0.33490402,2.8144145,1.8772082,0.9372544,1.0245436,0.9815457,1.0114653,-3.312096,-3.2610817,-3.2535958,2.8843944,2.875573,2.9421418,-1.3869603,-1.4631224,-1.3689187,4.793151,4.773304,4.769373,1.6477542,1.6482341,1.7467803,-0.26980048,-0.23744424,-0.21283531,0.17919658,0.29676878,0.26993144,0.2807231,0.34819674,0.42473334,0.43431896,0.37978613,0.3412851,-7.2560062,-7.3599358,-7.347701,-6.268315,-6.1377225,-6.1361585,-2.9577427,-2.8065987,-2.8911905,1.8422636,1.9643596,1.9095179,4.4915643,4.55485,4.573525,-2.397625,-2.4847856,-2.5717597,2.1898293,2.2282088,2.1077287,-0.8383117,-0.7655636,-0.9422473,-8.65451,-8.720461,-8.75818,5.29875,5.3477783,5.3279095,-1.0992516,-0.9104194,-0.995314,-0.24046005,-0.33579326,-0.2847493,0.33072814,0.28989333,0.16839474,5.8111706,5.787898,5.6989484,2.7696931,2.7817373,2.6748776,3.2460167,3.3850124,3.0671296,-0.11203838,-0.16392574,-0.14066195,-0.49150178,-0.24877499,-0.17784175,0.098993264,0.040578052,0.098015174,2.122561,2.4944017,2.0777297,-0.94547105,-0.86423904,-0.86499697,-0.034543443,-0.05624249,-0.23294684,0.13424894,0.19787508,0.21843688,5.3271284,5.307341,5.4072194,2.4086914,2.5324626,2.4622679,2.364973,2.4850693,2.448264,-0.28619954,-0.15113772,-0.21972837,-0.6501153,-0.6158184,-0.5664234,-0.053977415,0.040850304,0.091636024,1.157661,1.222038,1.2481905,4.249732,4.3811164,4.224139,3.6206663,3.6839688,3.6965225,3.6539714,3.6520169,3.5244427,2.9845934,2.9834862,2.986504,3.4351165,3.512803,3.3573143,0.18029492,0.0062892917,0.13855939,-0.25749412,-0.18584816,-0.2588223,-0.45820075,-0.46094984,-0.5208049,3.9183922,3.8435688,3.9096968,0.46864843,0.4598941,0.32237935,-0.24897012,-0.18198365,-0.18099245,-0.42451403,-0.34689313,-0.31975093,-0.37321544,-0.35395902,-0.32628933,0.18400294,0.3523647,0.16944732,0.16332506,0.09135268,0.20655611,-1.2237619,-1.122401,-1.0631167,-0.09590783,-0.14836459,-0.23074514,-0.07914085,-0.08831873,0.028679825,-0.3461707,-0.35494694,-0.24425507,1.1827741,1.1247038,0.90829086,-0.22764051,-0.3013744,-0.19979058,-0.32688648,-0.32134908,-0.4815218,-0.21123624,-0.20850754,-0.23468839,0.13138448,0.088144116,0.1753644,0.10059613,0.08509206,0.11470178,-1.1261543,-1.0473384,-1.1090244,-0.1709623,-0.17597423,-0.22688082,-0.15296808,0.0429665,-0.045447588,-0.22278833,-0.38853273,-0.2066324,0.98669404,1.0815016,1.1190578,-0.5235028,-0.42439485,-0.6202078,-0.4901871,-0.53095555,-0.6273028,-0.5075469,-0.63126117,-0.5759263,-0.55214894,-0.59065706,-0.50231934,-0.55334294,-0.4024178,-0.5995989,1.083328,1.1409324,1.0070626,0.071937166,0.059511457,-0.09637573,-0.10409231,-0.097246364,-0.13560489,-0.5436065,-0.3985435,-0.40109783,1.1249257,1.0676578,1.0029159,-1.9975597,-2.1025689,-1.9888213,-0.40949416,-0.6772187,-0.5456696,-0.7783033,-0.79159063,-0.589743,-2.1152089,-3.3910146,-4.425149,2.1258826,3.17469,3.8443947,-5.539666,-6.568014,-8.569169,0.7344791,0.6034769,0.6769416,-1.3666016,-0.2874803,-3.8299706,-0.73097587,-0.7903518,-0.951145,0.8264152,1.8511714,3.0657718,-1.9906101,-2.0418775,-2.0126553,-0.56036806,-0.5751715,-0.49955866,-0.6993837,-0.722871,-0.77615196,-2.3060164,-2.3021622,-2.3048413,4.1201124,4.020997,4.0806484,-10.832662,-10.903445,-10.8786745,0.6727684,0.66813165,0.5728231,-4.41912,-4.280091,-4.2521605,-0.9346883,-0.9300951,-0.8966806,1.3675609,1.3750042,1.4420946,20.51952,20.48082,20.409025,8.042764,8.108531,8.128612,10.088295,10.065409,10.16687,-1.0182593,-0.90884334,-0.8390655,-2.2326238,-2.2309554,-2.374441,-0.46819437,-0.49848872,-0.52389073,-15.404638,-15.526453,-15.573622,-6.568336,-6.65945,-6.658273,25.822166,25.798922,25.704926,-5.383597,-5.5100913,-5.4049106,-0.34256724,-0.21646471,-0.26192975,0.3951145,0.41026813,0.31250232,0.86614084,0.75448626,0.8582582,-0.9060952,-0.8099692,-0.84387565,-2.6827626,-2.7749534,-2.9399145,5.609956,5.981119,6.275607,-0.1623076,-0.26353857,-0.16191919,-0.3951413,-0.3836328,-0.3561006,0.38758874,0.21253684,0.3682069,-1.6054904,-1.4652913,-1.353264,-0.2132444,-0.20233922,-0.31701595,0.2529409,0.25110364,0.35421538,0.78472424,0.86726165,0.91683745,-0.7184697,-0.6320704,-0.7782787,-2.5823057,-2.5828013,-2.4980123,5.980472,6.054848,6.1366982,-0.2183507,-0.2173018,-0.297495,0.070302494,0.022414569,0.09374456,0.19046037,0.34978783,0.38398314,-1.5582027,-1.5516375,-1.5131863,-6.994768,-7.051538,-7.0958376,-8.3441305,-8.375702,-8.4057255,-8.210704,-8.247201,-8.194515,-7.7570114,-7.809022,-7.7040653,-2.9127789,-2.904775,-3.066932,-6.161467,-6.2887816,-6.3004827,-0.4649236,-0.4429982,-0.5158874,-0.3995929,-0.25005844,-0.21848701,-14.383811,-14.562657,-14.428073,-1.1777343,-1.1627847,-1.3057822,1.34547,1.3653274,1.381344,1.9254118,1.9586109,1.8507125,-4.6621003,-4.5802803,-4.5829153,5.016773,4.877469,4.661501,1.1431781,1.5364114,1.8594614,5.2157106,5.2138786,5.120812,0.1249473,0.17097455,0.015464332,-1.001828,-0.3433814,0.31222057,-0.12748137,-0.07646959,-0.025829844,-1.7561353,-1.9048797,-1.7660502,1.3546659,1.4632157,1.3250235,1.8401575,1.8031564,1.8240263,-4.4873805,-4.501144,-4.5405583,2.5858338,2.4674819,2.5845206,-0.85889906,-0.7680693,-0.7011034,3.7450364,3.8691962,3.8237727,0.13765338,0.09322385,0.18651855,-0.9515212,-0.9174765,-0.9669457,0.014647231,-0.002476436,-0.11060292,-0.083884224,-0.13525821,-0.09830205,4.448304,4.373521,4.489563,5.4017673,5.4228835,5.4741626,1.2930819,1.3403107,1.4456581,3.5930839,3.543993,3.4760723,1.3598822,1.4617461,1.3355156,1.2932693,1.2427732,1.2637819,4.2699113,4.2078624,4.213297,-0.6053064,-0.5078994,-0.50155795,6.5391045,6.3367577,6.52194,-0.0033902035,-0.004401942,-0.063934885,-0.052978307,0.031836748,-0.074701026,-0.08209815,-0.04150357,-0.14215921,-0.0505744,-0.13536987,-0.06699729,-0.045391787,0.10511865,-0.035406254,-0.13204658,-0.0036185945,0.1072231,0.03608078,-0.098310694,0.054411452,-0.14449322,-0.14597255,-0.07722334,-0.0017501157,-0.07124181,-0.0155513855,-0.022510946,0.009774853,-0.06670888,-0.045923796,-0.072938405,-0.10572937,-0.08619165,0.02467106,-0.017447047,-0.06974114,-0.13927804,0.026289787,0.009404963,-0.12540853,0.036863696,-0.035043374,0.07555882,0.092549056,-0.03203026,0.06601438,0.04524998,-0.02864811,0.103633046,0.029017769,-0.079527095,-0.13161145,-0.030767525,-0.11091335,-0.07227844,-0.09317645,-0.104456715,-0.12044066,0.008083596,-0.11852172,-0.10943289,-0.033166658,-0.031612646,-0.07842773,-0.017460784,0.044151366,-0.102984294,0.049997527,-0.13364492,-0.072494626,-0.08476001,0.036675893,-0.14356203,-0.07818692,-0.06519582,-0.07379518,-0.11359228,-0.102982484,-0.14217809,-0.038246334,-0.10355076,0.04816356,-0.10836892,-0.0877946,-0.15881723,0.020904653,-0.016794441,0.04837776,0.029284753,-0.067218885,0.05200391,-0.037616026,0.040952094,0.13148548,0.16778187,0.03580433,0.22608133,0.114865005,-1.6251005,-1.5114285,-1.4947057,1.7246666,1.8175446,1.8314667,0.9288129,0.8265553,1.0030894,0.4585989,0.29403904,0.028269555,-0.1460801,-0.08050312,-0.16167565,-0.61371696,-0.2546754,-0.19687061,-0.29452643,-0.41461283,-0.35919487,-0.23171993,-0.13552813,-0.017518766,0.09224574,0.065960534,0.16623351,0.2226949,0.21514496,0.15830535,-1.5410275,-1.5105524,-1.6179676,1.080669,1.0438099,1.1882143,0.20840894,0.18404636,0.27708495,-0.10878987,-0.12583514,-0.12803446,-0.017486619,-0.119157635,-0.01092065,-0.46408048,-0.39684448,-0.45087484,-0.23504022,-0.4027274,-0.3650814,0.23008367,0.33096153,0.32270062,3.7107985,3.6556795,3.7485,4.52156,4.617331,4.566295,2.4910355,2.5115561,2.4382188,1.7456568,1.7688819,1.9503706,1.2687547,1.2654254,1.118667,-0.10871469,0.033294424,-0.1005797,1.0966502,1.0619712,1.0016481,-0.09139333,-0.057425786,-0.17354955,6.524167,6.624893,6.484286,-0.15921119,-0.05621919,-0.07556839,0.41453955,0.429528,0.41022843,-0.078028604,-0.09893841,-0.14275078,-0.09780914,-0.123083055,-0.06725591,-1.1675413,-1.1299887,-1.1201316,-0.38259932,-0.24393135,-0.34918416,1.584616,1.6127075,1.8053399,-0.20966187,-0.16226645,-0.28016642,-0.010615734,0.014432713,-0.031724565,-0.119568914,-0.12205861,-0.21843016,0.19038656,0.25379413,0.28407234,0.28014025,0.42082536,0.42457685,-0.25712383,-0.27438748,-0.17029554,-0.16915657,-0.10660483,-0.06545873,-1.2244186,-1.2544198,-1.2004405,-0.35397184,-0.38107458,-0.3788758,1.6928418,1.6194186,1.7400918,-0.2751363,-0.21030025,-0.18833281,0.019662892,0.20153174,0.20167097,-0.19778861,-0.18445799,-0.059470262,0.109329134,0.14521861,0.19898656,-0.4050983,-0.38310906,-0.37828478,-1.0432999,-0.87648416,-0.8690816,-0.27387908,-0.30183044,-0.37206104,0.27242965,0.2890103,0.21086894,0.29553,0.39684308,0.5028388,-0.8766782,-0.867406,-0.85610557,1.4560848,1.4719775,1.5022173,-0.347728,-0.41151914,-0.33553508,-1.24208,-1.1505771,-1.2313602,0.6156185,0.5061806,0.4088413,-0.36456728,-0.28963792,-0.31450215,-0.38777786,-0.39583287,-0.28557932,-0.22529985,-0.29498556,-0.24356924,0.40321884,0.2634814,0.2677496,0.27627903,0.22495782,0.25660974,0.21635152,0.16877125,0.3643868,-0.28521222,-0.26513296,-0.2845047,0.04617125,-0.14550611,-0.0021098831,-0.38482848,-0.27379587,-0.2869641,-0.30438507,-0.37890488,-0.37429672,-0.24007837,-0.3902868,-0.3438194,-0.19189219,-0.23924156,-0.33605316,-0.2416355,-0.32045856,-0.30202615,0.22842073,0.27828762,0.24916817,0.2536552,0.3704751,0.30226183,0.18529104,0.2709851,0.26604867,-0.34160694,-0.28125516,-0.25348485,-0.31349728,-0.25250268,-0.3537731,-0.38166282,-0.28445312,-0.36029044,-0.27722353,-0.32610607,-0.27186197,-0.3769794,-0.23560825,-0.19879207,-0.20999494,-0.33665964,-0.26141366,-0.34379122,-0.26698536,-0.3255474,-0.17718348,-0.17097864,-0.1697265,-0.3722,-0.23997872,-0.36691844,-0.31017548,-0.17713083,-0.35968783,-0.12819396,-0.16050795,-0.09262185,-0.16580856,-0.18381323,-0.12410473,-0.297574,-0.24901468,-0.20597082,-0.16725048,-0.1951722,-0.254566,1.5895725,1.5263412,1.6235908,1.376797,1.2976353,1.3397161,-4.897654,-4.9202476,-4.9283643,3.023331,2.768684,2.2492886,3.847071,4.256269,4.6395607,3.3130164,2.937202,2.5687194,0.2697651,0.391483,0.18893643,-0.85987383,-0.5654971,-0.5349924,-0.34348693,-0.275933,-0.2630386,-1.8866204,-1.6797814,-1.5125457,1.4352185,1.4823693,1.5866343,1.2399992,1.2921239,1.2705206,-4.9453816,-4.746797,-4.7906995,0.60900176,0.7035657,0.75054896,1.7195051,1.7974232,1.7697617,2.595384,2.502514,2.5018535,0.27202538,0.38392586,0.32948822,-1.3765947,-1.2775408,-1.3205624,-0.36450633,-0.18044603,-0.35446206,0.31586254,0.29666716,0.44890577,7.9223638,8.05764,7.9261174,4.99923,5.0139575,5.0061345,2.6503942,2.4830945,2.5743287,2.3101194,2.244785,2.376326,1.1150382,1.1909947,1.1272913,1.7723333,1.8633472,1.7447249,3.0035944,2.88936,2.9712405,-1.2485354,-1.3602135,-1.3665588,11.073787,11.050169,11.121774,0.18820609,0.15884958,0.0024385254,0.563413,0.5914399,0.5179768,0.34382027,0.42427388,0.35367107,-2.2066,-2.295343,-2.387986,0.92847186,0.85172415,0.9899757,0.6496088,1.0672361,1.3979574,0.00082200515,-0.22022691,-0.60822463,-0.075160734,0.0070578954,-0.07062662,-0.40716648,-0.3395523,-0.42232507,-0.27041373,-0.42577422,-0.2946669,-0.14787188,-0.06254946,0.1771655,0.5456439,0.5049827,0.39499563,0.23971422,0.35468844,0.41292927,-2.282468,-2.2310205,-2.3682907,0.50264364,0.48169583,0.48425126,0.08731364,0.25313228,0.11395873,0.11590415,0.12648357,0.08906646,-0.07138512,-0.03399157,-0.09574023,-1.0897683,-1.0370356,-1.0908068,-0.39762965,-0.28047112,-0.42159995,-0.32538307,-0.31951475,-0.19138701,3.6319523,3.8129842,3.6882467,4.796785,4.761572,4.822788,2.3265495,2.400086,2.4752898,1.4735024,1.423471,1.4769835,0.30908155,0.2518527,0.36854613,-0.35668078,-0.33014736,-0.384515,2.159633,2.2437909,2.1302211,-1.0510833,-1.2561415,-1.1814798,8.0149975,7.953316,8.003835,-0.930628,-0.87251854,-0.7938052,0.3193997,0.30522776,0.4137835,0.589543,0.4962452,0.52251434,-2.9537134,-2.9712098,-2.8595843,-3.5012906,-4.1238112,-4.7373567,-1.5117371,-0.07050774,0.9500142,-9.475233,-9.6699915,-11.156395,0.30161333,0.45912963,0.3884722,-0.5744691,-0.2688638,-3.1181579,-0.705445,-0.697222,-0.7488636,-2.1368225,-1.3761173,-0.69068146,0.3486769,0.2855452,0.27441224,0.64294237,0.72533137,0.70215064,-2.9423168,-3.0442255,-2.9864209,-4.014124,-4.0315795,-4.008006,-0.82583946,-0.81158215,-0.8148503,-16.6527,-16.617218,-16.522707,0.34239125,0.38752127,0.42665923,-1.3023441,-1.3542546,-1.333482,-0.7591459,-0.7850501,-0.7099163,-1.2156453,-1.1812608,-1.1872916,9.924749,9.896219,9.898237,1.9396281,2.0149457,1.9605916,0.7947543,0.7488261,0.87970495,-3.328967,-3.4098558,-3.3406796,-4.2376475,-4.2443395,-4.189922,-2.498285,-2.5639122,-2.4357514,-1.7620372,-1.8378936,-1.7283796,-1.4492671,-1.3460016,-1.5199001,18.602392,18.526464,18.642454,-4.3762927,-4.4238977,-4.425671,0.05341884,0.08190186,-0.0460557,-0.2670727,-0.2787228,-0.26218802,0.27132106,0.20071372,0.18170375,-0.65850073,-0.5028123,-0.5025713,0.27290535,0.34149256,0.3529596,-0.0069940095,0.19650196,0.31588277,-0.18837985,-0.08428443,-0.18552339,-0.19780454,-0.20102076,-0.24428283,-0.007171017,-0.062869914,-0.09905421,-0.1132195,-0.12809189,-0.26019296,-0.0427666,0.05650283,-0.041079797,-0.13513285,-0.2998223,-0.13137989,0.18364765,0.20220959,0.22451589,-0.64512336,-0.53317255,-0.55122465,0.34598303,0.40526715,0.34682375,0.43264094,0.51803696,0.47557274,-0.022580057,-0.102570176,-0.11591386,0.12794764,0.120490015,0.04139349,-0.105054,-0.016416686,-0.08853243,-0.30165112,-0.25772032,-0.3770266,-1.0397182,-1.0676496,-1.0083902,-1.3988425,-1.4541651,-1.4838196,-0.84495497,-0.9680345,-1.0203745,-0.6420932,-0.76879764,-0.643347,-0.40860948,-0.4978145,-0.49516165,-0.14066498,-0.0033693558,-0.042642556,0.29362008,0.20905145,0.26256314,-0.28140315,-0.16445908,-0.12595063,-1.6304427,-1.6221311,-1.6738418,-0.055696502,-0.010930789,-0.13452291,0.17128237,0.1950357,0.10406388,-0.59659886,-0.6717351,-0.53974974,-0.077643365,-0.21331477,-0.20005381,0.29492423,0.3292392,0.28823116,0.4214579,0.34500858,0.341081,-0.6649014,-0.61592823,-0.48558018,-0.42261225,-0.39876828,-0.5682928,-0.10007588,-0.015525953,0.10857313,-0.33742428,-0.32753268,-0.37767303,0.046463255,0.09468626,0.10924661,0.15600488,0.16106293,0.18588915,-0.62246567,-0.58209497,-0.5156288,-0.1874764,-0.24884343,-0.19999278,0.08323868,0.10342134,0.15726739,0.4839937,0.4427778,0.30306613,-0.7893224,-0.86216676,-0.7565993,-0.44514814,-0.41453528,-0.43243453,0.09457912,0.122195534,0.04695019,-0.39824393,-0.4093632,-0.41156623,0.6225762,0.6278639,0.6489736,0.03033072,0.08954569,0.020285329,-0.07034486,-0.09615609,-0.11634044,-0.023044407,0.04032881,0.10953658,-0.23120336,-0.16418202,-0.26376206,-0.09351388,0.04552723,-0.10872046,0.9217972,0.8924106,0.89207107,0.5665087,0.6598808,0.6222138,-0.3681459,-0.42107007,-0.25125483,-0.10386397,0.08066669,-0.052268695,0.78681606,0.82932705,0.9028783};
const data_t conv_block_0_bias[] = {-0.07666486,-0.30460334,0.004750717,-0.049993396,0.4776847,-0.28047153,1.1185808,0.08038502,-0.08343871,-0.403069,-0.40142873,-0.43641904,-0.41562545,-0.2808538,-0.051902905,-0.00055813976,-0.09822528,0.39871916,-0.22309172,-0.22210693,-0.97881526,0.26581994,-0.14060886,-0.08207439,-0.28598833,-0.048304133,-0.31380928,-0.44765368,-0.38497582,-0.75594175,-0.03464944,-0.3954322};
const data_t conv_block_2_weight[] = {0.0024538315,-0.045310583,0.036383253,-0.08953615,-0.12719901,-0.05015735,-0.45687285,-0.5504805,-0.4163191,-0.03132084,-0.05531576,0.026710201,-0.23003949,-0.22546525,-0.28947562,0.028266173,0.010056665,-0.08116698,-0.45459563,-0.5271529,-0.38454336,-0.28358358,-0.32898358,-0.36737478,0.03769502,0.056835443,0.036424145,-0.10818886,-0.08021583,-0.046048723,0.08304351,-0.04494743,0.0442418,0.021784864,-0.013619465,0.0072106305,-0.01076233,-0.14775611,-0.011743848,-0.14806618,-0.15212448,0.00079867133,-0.052210297,-0.03344214,-0.090327516,-0.14629108,-0.14113902,-0.06888868,0.05665867,0.09515308,0.049031407,-0.12467897,-0.20832586,-0.080933034,-0.036979545,-0.12619813,-0.033895507,-0.09650958,-0.096668415,-0.13356096,0.13714711,0.030803502,0.0048337677,-0.23195484,-0.21857859,-0.2483896,0.03032974,-0.004942518,-0.09537951,0.07597147,-0.07287677,-0.09693059,0.03111237,0.07206733,0.05673022,-0.010368237,-0.13432369,0.009560626,-0.008801695,0.014550539,-0.06418426,-0.14488871,-0.18607892,-0.24199824,0.04608871,0.03339578,-0.03909397,0.022712953,-0.1272843,-0.09053207,-0.091460995,-0.070171006,-0.12586764,-0.14134616,0.03251844,-0.116336435,-0.029970778,-0.114388876,-0.009577121,-0.83730376,-0.6964163,-0.69117266,0.0337086,0.005725788,0.08297057,-0.06605269,-0.07749948,0.040628504,0.10215852,-0.1133942,-0.007594861,-0.26573163,-0.2933084,-0.44108918,-0.16730633,-0.10886272,0.1328609,-0.5486157,-0.4668571,-0.64906996,-0.047893062,0.0017030537,0.025575265,-0.095497064,-0.061876394,-0.0667095,-0.2017188,-0.0877444,-0.24171078,-0.06162292,-0.060611222,-0.08759323,-0.12350303,-0.10740197,-0.15033188,-0.07378404,-0.14361404,0.02181211,-0.010339673,-0.004322504,0.03619224,-0.12306753,0.04251602,-0.13053821,0.04256329,-0.05222585,-0.054858577,0.004858131,0.044411153,-0.050848376,0.7000567,0.8375152,0.80307966,-0.20930552,-0.03175143,0.007177945,-0.69961965,-0.6293338,-0.57550246,-0.2683892,-0.19177371,-0.1423964,-0.6104005,-0.5919748,-0.66075283,-0.07743528,0.03438686,0.023835257,-0.26046255,-0.27660757,-0.38856143,-0.063135915,-0.08122002,-0.17456758,-0.06667117,-0.08870034,-0.05762782,-0.20474388,-0.12318219,-0.15686655,-0.3136591,-0.39280894,-0.3101353,-0.10770868,-0.018024277,-0.08684354,-0.12106774,0.033236217,-0.106307216,-0.19418223,-0.16630976,-0.2661378,0.0052012103,0.12026531,0.144996,0.036297504,0.0947042,-0.014755055,0.21823405,0.28204235,0.27135053,0.2530893,0.26852736,0.15129848,-0.40636152,-0.11536314,0.055186365,-0.6614744,-0.65069896,-0.4864686,-1.7703999,-1.6831915,-1.5672035,-0.65400076,-0.7355177,-0.9169433,-0.02510971,0.009904293,-0.021283777,0.022332776,0.017819492,-0.0076673473,0.48855117,0.59363747,0.45311743,0.44066066,0.5298134,0.4287315,0.25857624,0.19939126,0.11135372,0.11364523,0.046845023,0.030183624,-0.13512702,-0.26848638,-0.072070174,-0.013144959,0.094278276,0.10138271,-0.022403294,0.06901467,-0.020723134,-0.7395506,-0.7740199,-0.864026,-1.2173475,-1.1369202,-1.0306919,0.4361247,0.5600313,0.5977142,-1.1232607,-0.9181646,-1.0233406,0.55700046,0.4198752,0.5671333,-1.2855324,-1.2771634,-1.3157582,-0.037653137,-0.10272344,-0.050254155,-0.274582,-0.18846595,-0.20881625,-0.04581133,0.0030568934,-0.10726428,-0.044447552,0.0016983952,-0.08678414,-1.3624946,-1.2692667,-1.2586048,-0.5581037,-0.4969944,-0.62746024,-1.3977904,-1.0576348,-1.0918857,-0.09925653,-0.10260724,-0.16103715,0.0054554036,-0.055496156,-0.15688948,-0.13800012,-0.14138414,-0.10767071,-0.018878032,-0.15905616,-0.10134553,-0.11966807,0.019949738,-0.11449281,-0.03733202,-0.050400086,-0.1308165,-0.20303723,-1.116513e-05,-0.11079692,-0.20494291,-0.23618883,-0.19090119,-0.18647957,0.040804844,-0.06452707,-0.15801638,-0.08008685,-0.119333476,-0.027523689,0.0067518502,-0.10095523,-0.15283921,-0.11101943,0.0056222775,-0.06610298,-0.050818693,0.041787162,0.02515848,-0.019761428,0.023329705,-0.014374951,-0.10693655,-0.06281888,-0.15922235,-0.118962765,-0.22720192,-0.033268325,-0.03396812,-0.0018343272,-0.030605156,-0.06209711,0.036955383,0.041276023,0.06728244,0.049366906,-0.26036602,-0.06468017,-0.14640619,-0.08887011,-0.14268382,-0.14506604,0.041683644,-0.12038418,0.035831038,-0.21420306,-0.2145426,-0.12699604,-0.17441083,-0.0019799753,-0.13463789,-0.20724383,-0.18415932,-0.07089828,-0.042760327,0.10089451,0.034451574,0.13781367,0.062239666,0.18048827,-0.10526806,-0.14405271,0.0386506,-0.11259811,-0.07713519,0.052909438,0.10392824,-0.041046906,0.048046578,-0.1703768,-0.16447526,-0.27886418,-0.107932225,-0.21920672,-0.16497391,-0.0024931366,-0.09842442,-0.042420536,-0.11406481,-0.07036989,-0.1495245,0.02023186,0.019730404,0.028690754,0.033449184,0.16197824,0.14292914,-0.34885412,-0.10933581,-0.09302932,-0.11815756,-0.10781275,-0.054393683,-0.30740944,-0.18802334,-0.2898651,-0.23852783,-0.37502423,-0.35223478,-0.08498963,-0.0035473625,-0.055028006,-0.3986773,-0.15887144,-0.11637328,-0.10070604,0.021011002,0.09479165,0.22128174,0.14204627,0.11599705,0.051335633,-0.04500035,0.05076751,-0.043879934,-0.009909645,-0.0042543486,0.056970466,0.044652447,0.013913048,-0.0369725,-0.021209005,-0.15957002,-0.122207135,0.04210307,-0.1195653,0.01790681,-0.003912592,-0.115314715,0.044654146,-0.05134611,-0.09917378,-0.2921473,-0.3353358,-0.27861512,-0.039867908,-0.141632,-0.114237316,-0.04600379,-0.060515754,-0.032000124,-0.24031623,-0.36017007,-0.40024087,-0.17224243,-0.27813476,-0.17715211,-0.42774084,-0.39427218,-0.3077822,0.095954254,0.015119068,0.014697075,-0.31952688,-0.37830663,-0.24593538,0.07655391,0.08264849,0.10964722,0.023902189,-0.039319985,-0.04289029,-0.3580268,-0.27853516,-0.2592761,-0.38506877,-0.2760436,-0.26078048,-0.37086096,-0.28636214,-0.38644278,-0.101418555,-0.05424908,0.012759574,-0.023435168,-0.1279332,-0.10172946,0.05084642,0.065430835,0.13554263,-0.23357327,-0.2464176,-0.32106742,0.30538446,0.9579442,1.3522309,0.03267168,-0.04490591,-0.09703201,0.022206368,-0.2801538,-0.48659924,0.855623,0.7951789,0.5815618,-3.4901812,-3.6210344,-4.0264854,0.05843807,-0.1653903,-0.16967782,0.015262314,-0.15151072,0.024714444,-0.1718684,-0.18456101,-0.16598347,-0.7174894,-0.8501534,-0.67419016,-0.7567479,-0.7679617,-0.93577194,-0.22837463,-0.20577389,-0.25826603,0.273976,0.21852535,0.16297686,-0.54815173,-0.52572775,-0.39883703,0.15044397,0.023076221,0.05462288,0.065549865,-0.008636794,0.083355986,-3.6167865,-2.8661704,-2.2070463,1.0468283,1.0353717,1.0158838,-0.8796023,-0.7909508,-0.8323181,0.62673014,0.789437,0.98056453,-1.7250702,-1.7058442,-1.8347257,-1.8110932,-2.1770685,-2.732337,-0.03707536,0.12003698,-0.03301941,0.02113141,-0.020987488,0.014862244,0.16396877,0.07058519,0.14687599,-0.06743156,-0.061033316,0.005478797,-0.92249775,-1.0858502,-1.3643634,0.34791058,0.4289573,0.37164897,0.1484902,0.25801796,0.18671356,0.30695438,0.29973567,0.22568527,-0.17383051,-0.05112748,-0.046764135,0.025662487,0.057425003,0.013581216,-0.12386422,-0.101617664,-0.17943014,-0.1410408,-0.13813092,-0.23364802,-0.022782655,-0.07105335,-0.06439142,-0.10153166,-0.028899776,-0.11380742,-0.10967438,-0.00863551,0.017766193,0.038422607,-0.045353875,-0.031269573,-0.12028886,-0.0011651064,-0.019589657,-0.0020145476,0.067368254,-0.0392371,-0.05169248,-0.032365743,-0.04810024,-0.028982252,-0.01496505,0.06941989,0.03167948,0.06261368,0.0084278,0.2111246,0.088626735,-0.36713073,0.062745914,-0.09304588,0.020892091,-0.0038858484,-0.07466845,0.0490968,-0.061881073,-0.11435794,-0.12574126,-0.052418288,-0.09573118,-0.0098145455,-0.07045552,-0.024906103,-0.0064576287,0.01354415,0.044244017,-0.13190462,-0.025805674,0.073948294,-0.09005735,-0.07492323,0.031029075,-0.039760835,-0.13159119,0.04141641,0.015778165,-0.07524945,-0.072821766,-0.13234903,-0.049056057,0.04549235,-0.045379773,0.0543243,-0.063438475,-0.086637914,-0.059663333,-0.06474806,-0.0660813,-0.032226667,0.012909966,-0.047124263,0.04485337,-0.10345828,-0.058318943,0.0096340645,-0.116211444,0.018355958,-0.054556817,-0.001760222,-0.081574015,-0.06334148,-0.06315739,-0.008273784,-0.18097655,-0.16328228,-0.32134286,0.0040143873,-0.1567417,-0.08562249,-0.17021592,-0.22537883,-0.24255574,-0.19418992,-0.25142404,-0.14870478,-0.03917775,-0.013574073,-0.15941057,-0.35964343,-0.44744936,0.009101318,-0.11788782,0.025230423,-0.12038034,-0.37161607,-0.23237076,-0.24121067,-0.16447163,-0.22118916,-0.12424389,-0.038195536,0.06541568,0.009567797,-0.07328773,-0.016277866,-0.106553964,-0.0903094,-0.037074782,0.09678115,0.060852796,0.08195387,-0.08606892,-0.20591849,-0.21626765,-0.21469532,-0.055651687,-0.10167162,-0.0059630917,-0.0101496875,0.023320336,0.02689638,-0.14982551,-0.05644358,3.228512e-05,0.0716034,0.0921039,0.0124529,-0.1471365,-0.20363547,-0.07471682,-0.050888594,-0.102203414,-0.0909964,-0.041405305,-0.042945456,-0.10195253,-0.09366141,-0.14399561,-0.16383532,0.0097548505,-0.13161743,-0.3596177,-0.059520897,-0.15777999,-0.13587363,0.006289184,-0.014010496,-0.052292403,-0.21186857,-0.16954671,-0.2103593,-0.21057184,-0.20880659,-0.14548533,0.2092262,0.25330243,0.19145887,-0.10767769,0.0015265845,-0.21336566,-0.10520566,0.048685648,0.055223573,-0.25396618,-0.22600257,-0.23089914,0.23315,0.19213778,0.19463006,-0.08713771,-0.032614283,-0.02198043,0.0063468977,-0.026772738,0.008383684,-0.10130725,-0.1402086,-0.15334131,-0.07773955,-0.0340005,-0.03157739,-0.057895776,-0.070718065,-0.03071251,-0.32087496,-0.3395865,-0.44240642,-0.02833825,0.014882874,-0.069730766,-0.06512205,-0.013247373,0.004361115,-0.41719636,-0.39559802,-0.3096056,0.04049,0.028202593,0.029087082,0.016464693,-0.13857491,-0.08182671,-0.060133345,0.0037625208,-0.09458062,0.04277812,0.0625357,0.00020627677,-0.073240176,0.021460135,-0.085359246,-0.027121764,-0.15744749,0.019253086,-0.15729605,-0.13710102,0.010569998,-0.09510698,-0.06307947,-0.13619581,0.05763258,-0.02262351,-0.02840691,-0.07781271,-0.13384399,0.015546881,-0.06991889,-0.15387997,-0.08239081,-0.15539195,-0.045281377,-0.10279444,-0.15000848,-0.13123891,-0.22143473,-0.29971707,-0.34557545,-0.14349133,-0.03009699,-0.0833603,0.0031188198,-0.070694864,0.0456886,-0.046650816,-0.118644446,0.029209329,-0.1536153,-0.10236456,0.012941646,-0.06980434,-0.14601772,0.031241655,-0.12511466,0.21704784,0.17709835,0.061356243,-0.32923144,-0.2398686,-0.35522205,-0.28596532,-0.24979217,-0.34146267,0.031471882,-0.03408956,-0.085829996,-0.11001907,-0.19229503,-0.12973796,-0.07978476,-0.061756022,0.0021284202,0.21910152,0.31992385,0.31588733,-0.06593393,-0.25921902,-0.25237778,-0.01991731,0.040430177,-0.051910207,-0.5555131,-0.7308385,-0.6939159,0.21093014,0.20201144,0.14656778,-0.71268886,-0.5662572,-0.72503096,-0.07250783,-0.07930108,-0.06894895,0.031018024,0.06145695,-0.0004739465,0.4080171,0.2963734,0.42637226,0.34935194,0.46405667,0.39918447,0.4774404,0.5687227,0.54035366,0.45969108,0.47680333,0.38270667,-0.05400467,-0.015350817,-0.038782515,0.043894935,0.074632145,0.01880934,0.06431426,0.08433294,-0.08122532,0.025897803,0.069056466,-0.051685065,-0.14127664,-0.17653245,-0.13595249,0.037232276,0.06470623,0.08425866,0.4477603,0.31696755,0.27748966,-0.38694176,-0.39579257,-0.4102482,-0.0055552563,-0.09273214,0.0027040031,-0.45682275,-0.66657,-0.65100974,0.047957316,-0.022906544,-0.11917704,0.027189488,-0.021475764,-0.05601371,-0.048546147,0.09610152,-0.071425796,-0.06850857,0.05117889,0.053156674,0.108740725,0.19499719,0.34680802,-0.13924788,-0.07081259,-0.123343684,-0.5386965,-0.51426864,-0.54273593,-0.21532166,-0.08576656,-0.11156086,0.28509507,0.2870526,0.33943436,0.15338308,0.07490735,0.048378453,-0.27958417,-0.20972364,-0.3071224,-0.9933187,-0.41267216,-0.09884136,0.041195683,0.0033030165,0.06368842,-0.5701367,-0.63426256,-0.89434224,0.8668995,0.8494474,0.70161515,-1.752159,-1.7468826,-2.1971943,-0.8238474,-0.75561905,-0.97606236,-0.17085764,-0.15526262,-0.15365054,-0.14880048,-0.13021351,-0.27120942,-0.74745935,-0.81180376,-0.64952636,-0.926947,-0.90323776,-0.89273846,-0.22319072,-0.2891277,-0.20928043,0.3191625,0.23542982,0.1798207,-0.38369486,-0.36508787,-0.3890178,0.1147365,0.004501948,0.04926858,0.045149717,0.028360607,-0.004957917,-2.164623,-1.6612331,-1.2976236,0.66097397,0.73002994,0.65163434,-0.9421889,-0.80102694,-0.85767186,1.3477433,1.3811026,1.6592262,-1.6664282,-1.7544595,-1.8785597,-0.6135031,-0.858034,-1.155048,0.122799344,-0.027708665,0.053146422,0.032916006,0.10067242,0.102165885,0.008784968,-0.09467161,-0.04782932,0.07735679,0.10082282,0.014729613,0.19800927,0.0057322057,-0.11509457,-0.08033004,-0.087830976,0.014460915,0.15959457,0.11485572,0.22239643,-0.048845015,0.016143806,0.08808193,-0.19771546,-0.024153152,-0.14720607,-0.061870188,-0.048705272,-0.054364633,-0.15400748,0.0077708727,-0.15847546,-0.13058119,-0.008065927,-0.030892598,-0.10041924,-0.13621315,-0.09621271,-0.13613033,-0.10399218,-0.14045094,-0.02009052,-0.03355459,-0.071935356,-0.12548485,-0.05376664,-0.039815348,-0.04300823,-0.056571115,-0.27947295,-0.0035443455,-0.0029130876,0.015614182,0.020045886,-0.12512104,0.023709318,0.018407047,0.083240926,-0.010966316,0.016285628,0.09374456,-0.05978355,-0.09392667,-0.14798057,-0.048620623,-0.07330762,-0.13861114,-0.0009793229,-0.044502676,-0.13059421,-0.017749062,-0.053168386,-0.09934393,0.040409867,0.03424248,0.096541986,-0.073047586,-0.0026688485,-0.102285266,0.0014414408,-0.11093338,0.0005165284,-0.014478104,0.0038118009,-0.09001823,-0.074164085,-0.062621385,-0.15096961,0.019501926,-0.04910786,0.01687411,-0.1374492,-0.034715522,-0.024471063,-0.029200539,0.00799837,0.085427985,-0.018149562,-0.06764376,-0.097827986,-0.073993646,-0.10262655,0.023595292,-0.0315111,-0.0886377,-0.08524668,-0.060739785,-0.15844761,-0.08920577,-0.1834289,-0.03076388,-0.06358633,-0.024908178,-0.07221426,0.013220527,-0.13088192,0.048237916,-0.030390395,-0.014679733,-0.037520416,0.026085187,-0.09535438,0.09884884,0.01455508,0.057749584,0.6294761,0.7108103,0.60638314,1.9764814,1.5666381,1.377488,0.109638974,0.22176453,0.12390139,-0.24281147,-0.08062798,-0.082962535,-0.44700724,-0.4942735,-0.35535204,-4.0767117,-3.9463634,-3.892435,0.042444315,0.32019642,0.44363937,0.0769659,0.06515931,0.037722882,0.6050613,0.6591382,0.6890461,1.0597427,1.1351433,1.1837282,1.0881699,1.0305381,1.0830157,0.84570444,0.74799764,0.8715711,0.11839749,0.16281126,0.2015623,0.34763414,0.37881815,0.5290969,0.09346119,0.087266274,-0.010431374,0.08006359,0.023521526,-0.07247237,0.36969674,0.30968168,0.1482698,-1.36545,-1.2484504,-1.1449513,1.0840781,1.1378497,0.96282417,-0.69572866,-0.8682066,-1.1984903,0.024489144,0.090843916,0.08880434,-1.7191322,-1.4208908,-1.3471407,-0.016240701,0.0016579924,-0.071017325,-0.25479195,-0.42841044,-0.286776,0.14013289,0.081318,0.14913717,-0.0022122604,-0.061857335,-0.026438154,-0.99807596,-0.94986165,-0.85609615,0.08783492,0.112668306,-0.0545543,-1.8797961,-2.061516,-2.3397965,-0.16527386,-0.15013282,-0.24711367,0.58790475,0.6120145,0.5012379,0.20342427,0.24155603,0.20460771,0.1469934,0.028992215,0.15807997,-0.07010638,-0.11580922,-0.23707981,-0.13744336,-0.019256901,-0.14220224,-0.23115216,-0.24183087,-0.25686026,0.10087017,-0.019093752,-0.14240274,-0.30827948,-0.33639926,-0.27754384,-0.29456007,-0.28401345,-0.21500555,-0.03410875,-0.084501356,-0.049517762,-0.19899517,-0.120076455,-0.19048175,-0.072035104,0.03833675,-0.019274388,0.0939594,0.04409078,0.06910526,-0.0046375627,-0.10221995,-0.20767248,0.2534424,0.33042106,0.25382558,-0.18920359,-0.114817,-0.18663059,-0.036469407,-0.19349517,-0.22535737,0.07115048,-0.06920689,-0.09052138,-0.22325669,-0.14055029,-0.2857801,0.32182968,0.22691151,0.3313774,-0.07067617,-0.036558073,-0.082436316,-0.21918117,-0.18680821,-0.24331596,-0.25039378,-0.3467687,-0.36124504,-0.27549252,-0.2917142,-0.3717621,0.0766142,-0.05753758,0.014017224,-0.18795277,-0.35597146,-0.33028847,-0.25310922,-0.2882373,-0.27190405,0.07800272,-0.017266147,-0.045172494,-0.12237083,-0.1287405,-0.33434305,-0.11964584,-0.08825033,-0.059916794,-0.18453325,-0.40109724,-0.4413249,0.20851332,0.32093096,0.22717236,0.3003196,0.32174897,0.21208647,0.005164074,-0.13007192,-0.029940035,-0.0914164,-0.054854978,-0.09861934,-0.022250377,-0.12784311,-0.07668858,-0.15915069,0.01963147,0.0121441595,-0.11396519,-0.16043332,-0.09041667,-0.016505204,-0.08927341,0.03570057,-0.06813921,-0.13698134,-0.01976647,-0.017712206,-0.06553853,-0.15526463,0.010960215,0.018845377,-0.15744863,-0.13221651,-0.010597915,-0.096746825,0.096900254,-0.040008888,-0.054438543,-0.13076188,0.0071618953,-0.043781128,-0.04277804,-0.07855946,-0.008253774,-0.12074306,-0.15369098,-0.00042944838,-0.076129764,-0.09732562,0.011014752,-0.05880884,-0.02704303,-0.1260415,-0.046185717,-0.065004036,-0.002043791,-0.033569384,-0.039448682,-0.10070374,-0.1006277,-0.018379021,-0.107361056,0.14531839,0.067448944,0.08393613,-0.08046896,0.023869371,-0.07749797,-0.27825528,-0.283241,-0.010762101,0.014140905,-0.048697256,-0.022178259,0.10147838,-0.094941095,-0.10009279,-0.08203992,0.0021481595,0.005652185,-0.031929314,-0.12971982,-0.0023321363,-0.004662575,0.054604806,0.044850767,-0.0050554527,-0.101981394,-0.08249676,-0.07914335,-0.010605078,-0.088557735,-0.12671047,-0.12002215,-0.15182461,0.02292886,0.02318763,-0.17979747,-0.06354025,-0.06853131,-0.07716722,0.12269761,0.043694176,0.11608967,0.15330273,0.16612928,0.09495929,1.0837727,0.92867947,0.7476964,0.10898028,-0.014230519,0.14329542,0.21683206,0.47567242,1.0915391,-0.6650087,-0.57510006,-0.6431594,-2.2068872,-2.130541,-2.1470037,0.33541715,0.3638048,0.30764806,-0.049721465,0.02001034,0.0099719055,0.13799436,-0.04243196,-0.016211733,-0.14066102,-0.10809751,-0.19990811,-0.22401546,-0.07821194,-0.20713018,0.23545477,0.1487898,0.25724217,0.36739305,0.42378035,0.3412371,-0.29872572,-0.2721464,-0.39454746,0.1311962,0.10615033,-0.0051125027,0.04234127,0.044659615,0.046842985,1.3417869,1.2950268,1.0951669,-0.15225796,0.06575396,0.008206537,0.01691102,-0.04177483,0.02847348,-1.5888506,-1.4925655,-1.5945485,0.14669396,0.0062808343,0.07743418,-1.271585,-1.3229322,-1.2594004,0.11109646,-0.019247932,0.16508333,-0.15269242,-0.09006041,-0.055816997,0.14632544,0.017948378,0.16474535,0.116844095,0.14683422,0.22543426,-1.313885,-1.267017,-1.3157501,-0.08559623,-0.00583205,-0.6074598,-0.005893378,-0.014260222,0.06147535,-0.18544586,-0.1474572,-0.09272978,0.1045268,-0.06844089,0.010183301,-0.08840724,-0.000864971,0.08385665,-0.24132612,-0.25039417,-0.29723242,0.69107836,1.4417017,1.6960429,-0.027579527,-0.009121123,-0.03096981,-1.2815801,-1.3092985,-1.656894,0.52691734,0.40275827,0.49506196,-2.9162376,-3.0197332,-3.272682,0.161139,0.13121438,-0.020388246,-0.0554976,-0.028030466,-0.1688406,-0.26652622,-0.11445558,-0.11895865,-0.83745414,-0.74678683,-0.72408366,-0.7974982,-0.8704976,-0.89589334,-0.13360079,-0.28820297,-0.14321773,0.074367605,0.06273892,0.24806094,-0.55104434,-0.535041,-0.5436983,-0.18271546,-0.18245402,-0.015967097,0.07942377,0.023319893,0.031817257,-3.1228333,-2.5471945,-2.0696735,0.39161992,0.45541593,0.32135504,-0.82453805,-0.76894724,-0.8227836,0.98982626,1.2047497,1.3239394,-2.0471005,-1.9997498,-2.1304173,-0.059585374,-0.42198038,-0.87351286,0.08443562,0.11737894,-0.03323863,0.09021168,0.10073547,0.04014599,-0.0012101822,-0.10621422,-0.11710116,0.02875726,0.108613215,0.07585511,-0.4804437,-0.6490534,-0.67042625,0.33642206,0.33454368,0.23624793,0.25834417,0.2761654,0.37491122,0.012620021,-0.040088657,-0.106000215,-0.30085716,-0.36232692,-0.2607337,-0.11314962,-0.07441226,-0.019023728,0.05661763,-0.09032181,-0.067846656,-0.1104937,-0.10159095,-0.08185233,-0.15917674,-0.14327951,-0.06756105,-0.00841833,-0.008265877,-0.020768786,-0.026985988,-0.049486365,0.01617331,0.028336773,-0.10955268,-0.011001968,-0.056883387,-0.07583904,-0.016772512,0.01071668,-0.113651335,-0.054117627,-0.0563713,-0.024905251,-0.041725703,-0.031679124,0.01984787,-0.0024042577,-0.06506858,0.07728466,-0.04414224,-0.08497865,-0.051716547,-0.10114715,-0.04677514,-0.017246682,-0.066722386,0.06259478,-0.08602016,0.061293848,-0.08711853,-0.13549334,-0.117064446,-0.07864546,0.0406793,-0.08506747,-0.017533543,-0.01984443,-0.06271236,0.06323109,0.020754103,0.034713667,0.08926459,-0.011187352,0.08025004,-0.057899278,0.028650586,-0.051035065,-0.008295294,0.0042164153,-0.019419702,-0.10660019,-0.01722656,-0.09804862,-0.07412825,0.06400229,-0.038414463,0.009419371,-0.14250392,-0.14113481,-0.117341645,0.013835287,0.0037880037,-0.04828924,0.0036234285,-0.09227868,-0.044423085,-0.0059549105,-0.016642893,-0.10276418,-0.0075809313,-0.08156151,0.051055722,-0.015637195,-0.14708123,-0.13870598,-0.0020871782,0.032568123,-0.02901965,0.02797173,-0.015857233,0.0026557844,-0.05946154,-0.12856421,-0.08971901,0.014264385,-0.038200848,-0.10749065,-0.12276104,-0.13149986,0.016065313,-0.06161579,-0.043412566,-0.031838384,-0.036056306,-0.09913407,0.030486576,-0.0059142685,-0.0997033,-0.18728173,0.09036748,-0.15363616,-0.08300492,-0.046427168,-0.004113564,-0.06420545,-0.07200981,0.0022444278,-0.14786334,-0.037714902,-0.008746462,0.04478845,-0.03817349,-0.098035604,1.79559e-05,-0.08083916,0.03203556,-0.15698546,-0.022473427,-0.049440783,-0.021865478,-0.10025303,0.031140752,-0.16077796,-0.15955901,-0.03990926,0.013789595,-0.03312069,-0.09446922,-0.018250376,0.08071555,-0.09395008,0.0006322873,0.0092836935,0.005160411,-0.14581828,0.019840993,-0.15799329,0.0018421068,0.033466212,0.009724639,-0.00471449,0.0022015753,0.0030210079,0.01836235,-0.08250792,-0.007361309,-0.12801021,-0.053572603,-0.28970233,-0.0929427,-0.070749804,-0.07446333,-0.019987714,-0.0668803,0.01893275,0.098771535,0.08776998,-0.14064763,0.006272332,0.023266278,0.15646543,0.0144342035,-0.048479624,-0.082925245,-0.100685686,-0.044852376,-0.05545246,-0.06737553,-0.033098854,-0.14380448,-0.30015415,-0.10860265,-0.29583162,-0.103522405,-0.11475,-0.12223035,0.021352053,-0.12299332,-0.1325662,-0.20609915,-0.08524248,0.0061207926,-0.06153254,-0.20050846,-0.24322355,-0.11694728,-0.12722416,-0.12623903,-0.095904514,-0.1358414,-0.12046954,-0.15148868,-0.09670496,0.004124913,-0.07992336,0.09846318,-0.13840914,0.002472713,-0.345068,-0.2659536,0.08327176,0.050040767,0.044945657,-0.047265083,-0.041304406,-0.15088601,-0.040156715,-0.04690051,-0.022738919,-0.057784434,-0.07489541,-0.07590933,-0.11969401,0.023024237,-0.13535938,0.010484657,-0.09786431,-0.11736524,-0.005750676,-0.053830095,-0.009137623,-0.08946237,-0.028629914,-0.006075435,-0.053835925,-0.041663542,-0.080858156,-0.16355403,-0.18603022,-0.10979667,0.014231367,0.04231639,-0.002734727,0.03877391,-0.05829035,-0.045288406,-0.09879586,0.086300105,-0.037337594,-0.01574327,-0.03198325,-0.094336085,-0.105061285,-0.123843566,-0.013371609,0.05875121,-0.05105346,0.065973446,-0.067457475,-0.07143818,-0.10158328,-0.0685323,-0.055390604,-0.13422291,-0.08681034,-0.022358708,0.06652878,0.03407921,0.017507464,0.06708962,-0.0923299,0.027076513,0.06608695,-0.047182575,0.058232203,-0.07260833,-0.14973706,-0.12916352,0.016979953,-0.12069052,-0.13823138,-0.05102907,-0.026755504,-0.009065923,-0.113679595,-0.19112916,-0.24048157,-0.15919976,-0.110866606,-0.45278615,-0.8423794,-0.11654898,-0.062953345,-0.15375707,-0.6385959,-0.7768331,-0.5806654,-0.21484694,-0.2178773,-0.23695715,0.26095203,0.08620304,0.15706192,-0.6139164,-0.62019557,-0.64801455,-0.060617838,-0.025226414,0.039717644,-0.16386572,-0.13689244,-0.10845658,0.003910452,-0.0005440116,-0.046647664,0.03285946,-0.10165582,0.024251163,0.19964835,-0.113755256,-0.29714933,-0.089194715,-0.00027810613,-0.11873368,-0.053571455,-0.026161008,-0.0028168415,-0.15483117,-0.047034264,-0.13984491,-0.05438871,0.016779676,0.08834949,-0.50873506,-0.3852827,-0.3544322,-0.100939155,-0.08590382,0.01998557,0.06902881,0.07993633,0.017505636,-0.28278768,-0.4469488,-0.42828912,-0.28023714,-0.11915077,0.0015880775,-0.00868432,-0.08825953,-0.101002865,0.09266539,0.0867338,-0.028125308,-0.2919844,-0.5098724,-0.36405116,-0.21063301,-0.14891092,-0.19936137,0.23234828,0.34189212,0.21490942,-0.055835463,-0.36329827,-0.6834658,0.42158702,0.30928493,0.3779589,-0.39585146,-0.32768473,-0.3999954,-0.29024723,-0.20174202,-0.18052126,-0.10576918,-0.059626516,-0.21702787,-0.10018589,0.00884943,-0.019566266,-0.0016128075,-0.01918118,0.013186638,-0.012691509,0.0024515374,-0.14482367,-0.0447235,0.010901097,-0.17481607,-0.08922462,-0.046550337,-0.061346117,-0.13963221,-0.15213957,-0.03462647,-0.035175197,-0.108910225,-0.15659285,-0.09514996,-0.12188538,-0.007630359,0.052161083,-0.0077430904,-0.01736869,0.022259125,-0.015962001,-0.16748005,0.04289113,0.040409505,0.0067924857,-0.022215255,0.057139933,0.09226523,-0.16835225,-0.13118729,0.0023048704,-0.05465135,-0.1046627,-0.101521045,-0.16057575,-0.14968313,0.019138165,0.01846471,-0.082980305,0.010361888,-0.00639192,-0.041028596,-0.026368141,-0.006373955,-0.1612444,-0.17286116,-0.062410243,-0.11525697,-0.14542319,-0.03184197,0.050939336,-0.0768622,-0.095417954,-0.08719986,0.006924848,-0.076140784,0.020927044,-0.06912104,-0.095577076,-0.0420356,-0.072812214,0.05089505,-0.028705254,0.040659934,0.013490572,-0.13207571,-0.14456664,-0.01978111,-0.089420006,-0.09941645,-0.06040827,-0.14862372,-0.13278009,0.0004467699,-0.020739105,-0.046502024,0.09509198,0.03350863,0.10089193,-0.07106598,0.034979444,-0.06695833,-0.1759406,-0.0470414,-0.12868914,0.011539548,-0.09528292,-0.06904275,-0.022230636,-0.046415314,0.01278715,-0.09383542,-0.09177372,-0.041775025,-0.6824642,-0.41379002,-0.38580376,-0.023892252,0.029335054,-0.083807506,0.043941103,-0.34511456,-0.49944377,-0.15082476,-0.0035379268,-0.12916492,-0.1111299,0.0054309056,-0.019158088,-0.05560817,-0.085842736,-0.09511825,-0.028138667,-0.060910974,0.0036583245,0.040605597,-0.03904575,-0.012291571,0.08255507,-0.028947026,0.06925075,-0.079033114,0.032972574,0.0049629286,-0.0075686467,-0.12783456,-0.02052303,-0.09101055,-0.061025638,-0.026388906,-0.0047189975,0.041896038,-0.029581126,-0.15098071,-0.114701755,-0.025529258,0.05334449,-0.022582576,-0.09898816,-0.17770952,-0.4102659,-0.40997106,-0.041106768,-0.023446647,-0.015761372,-0.03606299,-0.16118589,0.03843098,-0.23036821,-0.25178307,-0.40256128,-0.21323086,0.06304394,0.094485566,-0.08111044,0.020397995,-0.095561676,0.04122992,-0.045286898,0.08709282,-0.073278636,-0.012378435,-0.06315049,-0.0338056,0.03319217,-0.11355239,0.14810808,-0.005301533,-0.15694925,-0.015796706,-0.03088013,0.041653216,-0.09859903,-0.19956687,-0.13334048,-0.07638641,-0.08253066,-0.06331268,-0.0063646375,-0.1335574,-0.03628055,-0.22306365,-0.27413303,-0.14722057,-0.11064597,-0.07389001,-0.0049795397,0.24199545,0.28053805,0.09492596,-0.73922276,-0.88660526,-0.9026421,-0.09278709,-0.05695671,0.08565126,-1.1718783,-1.1604477,-1.2585914,0.010942503,-0.034073606,-0.13498427,-0.07792557,-0.06425564,-0.080183685,-0.5480745,-0.5706152,-0.5272498,0.025943153,-0.06467189,-0.07129989,-0.25199533,-0.12149338,-0.13815865,-0.126245,-0.06365498,-0.02916285,-0.0016286537,-0.06012757,-0.010137767,-0.06653385,-0.13646632,-0.116652355,0.041844144,0.03923452,-0.08799524,-0.08101345,-0.07127338,-0.11772569,-0.09337656,-0.039790582,0.03523247,0.066334784,0.049575925,-0.093464516,0.16887538,0.0077153966,-0.03310745,0.015389923,0.001229429,-0.01633151,-0.046951525,-0.093923226,0.02401109,-0.120511584,-0.16759165,-0.1592621,-1.069069,-1.1030672,-1.1009258,-0.12170249,-0.12028745,-0.04182591,-0.049091123,0.08361028,-0.096437015,-0.14473625,-0.10884102,-0.0048272717,0.0904391,-0.0062806443,0.065425485,-0.097069345,0.07762398,-0.017470598,-0.030345682,-0.058449354,-0.14977723,-0.02492234,-0.15274899,-0.13108884,-0.44852456,-0.26752043,-0.37975353,-0.20614521,-0.35209653,-0.40046215,-0.150658,-0.17243071,-0.2232796,0.091678604,-0.070757754,0.049661502,-0.38807595,-0.34035316,-0.24327148,-3.0322752,-2.0575256,-1.5124797,-0.021197272,-0.11108133,0.074613065,-0.22732009,-0.42363012,-0.7521619,0.27257243,0.25623304,0.10614653,-2.2416453,-2.2810452,-2.7950177,-0.95595443,-1.182726,-1.2224889,0.0068211034,-0.023432441,-0.009345661,-0.49890992,-0.36981097,-0.40298146,-0.52939206,-0.55007726,-0.5993529,-0.60179055,-0.6106081,-0.6571076,-0.49767235,-0.3503114,-0.36841387,-0.12569469,-0.11877431,-0.103003755,-0.42866254,-0.52206355,-0.54611367,0.12526764,-0.046183296,-0.053416394,0.041952446,0.081918806,0.0032054111,-1.7938347,-1.1957287,-1.110237,0.051364254,0.09531849,0.26576605,-0.87064046,-0.71457547,-0.8970049,1.7768714,1.8791609,1.9997166,-1.2072415,-1.2217143,-1.2269354,0.42929137,0.16906756,-0.09862817,0.085642025,-0.00043608248,-0.050362766,-0.0901575,0.029137427,-0.070488,0.02025825,0.048915416,-0.010535193,-0.438469,0.05941336,0.09440878,0.37878236,0.36925286,0.05991652,0.17390817,0.10697681,-0.0104859965,0.3989752,0.32123303,0.5161647,-0.07730569,-0.116257265,-0.04451476,-0.35829386,-0.2259504,-0.2713151,0.01188124,-0.031094905,-0.068222895,-0.37913027,-0.33184606,-0.33672744,-0.19485499,-0.03884442,-0.21851616,-0.18797022,-0.17155908,-0.17519373,-0.21813075,-0.083059765,-0.22734414,0.10054749,0.27501136,0.18820642,-0.05115471,-0.12164325,-0.122552395,-0.25525132,-0.21160223,-0.27768692,-0.03674359,-0.029834375,0.01609192,-0.21445495,-0.03275649,-0.19226594,-0.08814003,0.012146987,0.031076849,0.034133136,-0.010038391,0.012918897,-0.19175734,-0.14839359,-0.19715914,0.058146507,-0.00072440045,0.02062439,-0.11460109,-0.01643331,-0.09064837,-0.25650573,-0.13719547,-0.15991691,-0.07932322,-0.061412327,-0.006294057,-0.44600764,-0.4371786,-0.24874946,0.0071218554,0.08795341,-0.0028624644,-0.09524496,-0.03987249,0.031229375,-0.115554824,-0.19960104,-0.23959331,-0.06941536,-0.121176705,-0.0955361,0.057039868,-0.12023816,-0.008439424,-0.0012812465,-0.031944305,-0.007957101,0.12650418,0.25453544,0.13882945,-0.014437455,-0.004423612,-0.0079283,-0.022015681,-0.09741875,-0.0006882965,0.07164979,0.036753803,0.022624249,-0.2566311,-0.37160876,-0.3317626,-0.05284704,0.007640204,-0.016113376,-0.120110475,-0.04046646,-0.050963324,-0.23597607,-0.24974807,-0.16201518,-0.020893952,0.12790373,-0.034593444,0.76333576,0.6731756,0.75522405,2.5411777,2.0813112,1.7319053,0.16702335,0.24368326,0.24922407,-0.29780462,-0.08537032,0.16773883,-0.48140338,-0.37000817,-0.36932448,-3.558065,-3.6135714,-3.4551382,-0.34200203,-0.094397575,-0.04582575,0.046258315,0.010266367,0.07155804,0.7517117,0.66961616,0.72262424,1.0819498,1.0875016,1.1307117,1.1854751,1.0846499,1.0425727,0.82688135,0.84303266,0.8097143,0.063747965,0.18334132,0.19028229,0.452311,0.50859374,0.41047436,0.03149747,0.039758828,0.0757101,-0.000789908,0.02342537,0.033790622,1.9500029,1.682598,1.5697362,-1.0306615,-0.9901368,-0.81964844,1.1355455,1.0783193,1.1571252,-0.4156101,-0.8747559,-1.118577,0.21893433,0.1874138,0.22218071,-2.4192836,-2.1930628,-1.7793993,-0.06921749,-0.12065576,-0.11090037,-0.49059,-0.31795442,-0.38339514,0.13135381,0.064576395,0.124473274,0.036333054,-0.06152354,-0.039138023,-2.1482167,-2.036499,-1.8837723,0.4855857,0.4227306,0.43308493,-1.1780627,-1.1790583,-1.26092,-0.149197,-0.18750812,-0.15669301,0.65083545,0.6026691,0.4816307,-0.1306688,-0.113439165,-0.0390839,-0.11194364,-0.23221914,0.0029677404,-0.2197974,-0.26174447,0.07937193,0.042346332,-0.023551768,-0.0946569,0.36669254,0.38145053,0.2437312,0.42966834,0.6939938,0.45349497,0.13283743,-0.0009727009,-0.0071544647,-5.4627514,-5.521183,-5.4202204,-0.0750403,0.012712583,0.0064982325,-0.37237498,-0.3420355,-0.28939974,-0.38750818,-0.3904779,-0.20657133,-0.3316768,-0.3890479,-0.2604056,-0.15834159,-0.37113726,-0.7513021,-0.28323445,-0.35899606,-0.25178158,-0.22424322,-0.29449993,-0.34259272,0.043985147,-0.11505827,-0.1258494,-0.086164504,0.019640297,-0.059819397,2.1570408,2.2031255,2.183058,-0.91172856,-0.95243776,-0.8261749,-0.22281672,-0.25088647,-0.22776069,0.34840325,0.3784076,0.60279644,0.38039196,0.20604272,0.26509175,-0.6435171,-1.3838594,-1.7282807,-0.07717751,0.035590425,0.039437905,-1.0686034,-1.0694156,-1.3983157,0.33214268,0.45003316,0.369487,0.016406424,-0.08778868,-0.072572276,-2.449145,-2.9491992,-3.1266894,-1.5499552,-1.5874541,-1.4484885,-3.5455585,-3.0492609,-2.5498364,-0.4368008,-0.320874,-0.40319866,-0.56727356,-0.6662207,-0.6494973,0.1221474,0.11929128,0.020512505,0.74428415,0.7226728,0.6440161,1.1126966,0.7997443,0.42519635,0.24286248,0.10787332,0.12105535,-0.25633597,0.11687175,0.06990862,0.31645057,0.37000126,0.35442725,3.4198942,3.5144432,3.5824103,-0.68481576,-0.44417962,-0.23951222,0.10486146,-0.03188014,0.017217819,0.65163827,0.5632446,0.70619655,1.2297783,1.1930848,1.2280692,1.2432077,1.1811633,1.2153041,0.8942863,0.78465325,0.7931996,0.68463916,0.62326485,0.7513613,0.52126414,0.44574562,0.40754437,0.0011530562,0.009252884,0.025809815,-0.013892392,0.037219673,-0.08345983,1.1842073,1.1239458,0.88479394,-0.51374644,-0.40810978,-0.43908226,1.1092952,1.1622488,1.2087562,-0.47354904,-0.44414538,-0.59477735,0.7768365,0.7339651,0.7259254,-0.7279312,-0.5712737,-0.37666687,0.025925921,0.032327723,-0.0076196613,0.0131130675,-0.10620507,-0.04652053,0.2389967,0.21026513,0.16251706,0.06721744,-0.028906744,0.043207247,-1.1332446,-1.0279386,-0.7670911,0.76887625,0.66756696,0.798484,0.06844782,0.14878549,0.034469403,-0.2412187,-0.19219117,-0.12228344,0.5993466,0.5000458,0.52852863,0.1225655,0.14295565,0.04820391,0.6801527,0.6477973,0.7356504,-0.087912045,0.13845877,0.2087444,-0.3143372,-0.41266653,-0.4287749,-0.6147605,-0.9273821,-0.8542124,0.28682372,0.4468652,0.4144359,-0.9014818,-0.9401143,-1.0032816,-0.27780133,-0.27797255,-0.3196984,0.14750963,0.17399897,0.1423239,0.6889305,0.8013039,0.7624492,1.1922066,1.2945802,1.2111477,1.1479495,1.2562755,1.243848,0.48982105,0.369652,0.6439374,-0.297637,-0.34118587,-0.2046496,1.0761125,1.0843146,1.1508712,-0.24562211,-0.2629645,-0.20674421,0.020378912,0.07338242,0.17409915,-0.71413165,-0.70301056,-0.57459486,0.9407744,0.88259286,0.88967615,1.2324371,1.0925324,1.0101393,0.39595652,0.5268668,0.39796883,-0.27314073,-0.2386477,-0.2297689,0.21361813,0.23861831,0.15814081,0.020887055,0.0041942894,-0.039117843,0.4885176,0.5435826,0.3975786,-0.3578684,-0.41434008,-0.3973971,0.13638298,-0.03459767,0.070759356,0.21319354,0.2823288,0.26252738,0.122029915,0.055858985,0.13757893,0.20087922,0.32505617,-0.0045718225,-0.026379006,-0.13124259,-0.12918696,0.90585876,0.7464658,0.5427083,-0.02676854,-0.064278916,-0.11612394,-0.03905276,-0.022919364,-0.13105902,-0.12660109,-0.013142342,-0.022223275,-0.037666455,-0.041646343,-0.002029242,-0.023518156,-0.3706593,-0.33424413,-0.03656548,-0.097063415,-0.07639536,0.1100276,-0.13972645,-0.10283699,-0.21276467,-0.059663653,-0.07735384,-0.09700694,-0.044368748,0.059193745,-0.112586394,-0.024004234,-0.09014334,-0.011943586,-0.057333753,-0.042026415,-0.091507934,0.059128806,-0.050000988,-0.049121268,-0.15670782,-0.017710118,0.013561442,-0.037717525,-0.1078798,0.033063035,-0.02757972,-0.097524926,0.010687586,-0.05160458,0.023990411,-0.046246685,0.0065784603,0.054146633,-0.071740516,-0.033320572,-0.060125664,-0.054798905,-0.07683467,-0.09273144,-0.116228074,0.008114957,-0.03993179,-0.045420617,-0.01779003,0.04002383,-0.10461359,-0.077396944,-0.008352937,-0.05897042,-0.06918665,-0.06628483,-0.05725159,0.08002548,-0.0767781,-0.13658494,-0.03304785,-0.15829635,-0.10183076,-0.075286046,-0.09895702,0.017469542,-0.060604773,-0.11019355,-0.019809037,0.03294173,-0.013531141,-0.0716444,0.05671692,0.02279152,-0.11933709,-0.00026744482,-0.0729831,-0.08822723,-0.09715769,-0.1120144,-0.11186465,-0.077639185,-0.016126119,-0.05536355,-0.061227802,0.06169946,0.034267433,0.041565564,0.096822225,0.07260059,-0.03034415,0.035993967,-0.040482227,0.06688622,0.009241088,-0.15504281,-0.18131025,-0.12910385,-0.050692514,-0.11286866,-0.05925998,-0.360265,-0.27237976,-0.29833105,-0.2762591,-0.22907838,-0.29144704,0.015752435,0.16732432,0.09758245,0.009166127,-0.04232934,-0.018472673,-0.14679983,-0.23723212,-0.13516212,-0.1304913,-0.2657933,-0.069985315,0.16577657,0.17964162,0.05442626,0.10242611,0.15703508,0.075418666,-0.12651418,-0.087014034,0.031861264,0.07353715,0.12628262,0.017710231,0.057456844,-0.022366717,-0.05522335,-0.2707456,-0.2986818,-0.17119959,-0.26898363,-0.28855926,-0.3218407,-0.18171197,-0.07900714,0.008852821,-0.32175365,-0.2285217,-0.31059417,-0.16471452,-0.29202592,-0.22071266,0.022270627,0.016765311,-0.037251174,0.02782543,0.08572717,-0.053337947,0.021536242,0.038986247,-0.11341388,-0.029276647,0.0929977,-0.004803177,0.004672223,-0.014383137,-0.038478106,-0.21331532,-0.21051729,-0.114831164,-0.590164,-0.6016396,-0.5482443,-0.24930607,-0.2035907,-0.17999856,0.07276406,0.16617845,0.044773202,-0.06953745,0.0067446595,0.029636044,0.034007847,-0.13923676,-0.123142004,0.00053126854,-0.089658365,-0.11483181,-0.12970784,-0.050006956,-0.073715165,-0.019065578,-0.11140735,-0.115987666,-0.03235824,-0.0458196,-0.006766612,-0.007255598,-0.11322055,0.0011972884,-0.11501409,-0.1459267,0.001603707,-0.14960724,-0.11293248,-0.0791207,-0.07464534,0.072142616,0.032658428,-0.14104043,0.00080555497,0.040114503,-0.046712182,0.08792406,-0.018284954,-0.017644092,-0.075445786,-0.011344582,-0.0476071,-0.058738552,-0.11949185,-0.12759566,-0.0015832703,-0.12720539,-0.050276347,-0.0249732,-0.07661798,-0.12543303,0.02975214,-0.08452482,-0.08250185,-0.006480679,0.084105596,-0.092861526,-0.12502919,-0.06922658,0.0112301195,-0.15787987,-0.049737696,-0.016360309,-0.015050212,-0.075747445,-0.016344018,-0.060714405,-0.05768058,-0.04181874,-0.056844104,-0.07395948,-0.071000196,-0.015264908,-0.20539619,-0.09060393,0.09856574,0.06576145,-0.109523505,0.026698474,-0.047979746,-0.02494609,-0.02617305,0.009791004,-0.0620929,-0.018042734,-0.13887124,-0.07192368,0.03157492,-0.0351433,0.011007413,-0.05472973,0.01652281,0.0011557189,0.01065095,-0.13682745,0.024979865,-0.10091349,-0.0860065,-0.12347226,-0.08229234,-0.14289273,0.045460675,0.021729223,-0.045649353,-0.0014884052,-0.018826189,-0.12165352,-0.22848642,-0.28051656,-0.030909004,-0.012344745,0.05603234,0.04155894,-0.19533679,-0.18674946,-0.10259842,-0.13248275,-0.25373968,-0.24926922,-0.2763715,-0.23867667,-0.24062786,-0.4242858,-0.45929414,-0.5057693,0.17055385,0.07490228,0.19832867,-0.11092974,-0.030895112,-0.1221736,-0.3704381,-0.1948845,-0.23130037,-0.3023886,-0.25534737,-0.26839468,-0.04137443,-0.033646714,0.04224215,0.18474852,0.13198055,0.05376929,-0.40055373,-0.5413791,-0.53654975,0.14471088,-0.0029925513,0.101145454,-0.01289361,0.023844514,0.0047686347,-0.1473015,-0.056776162,-0.2057094,-0.40311962,-0.32211939,-0.41229284,0.048408758,0.1847679,0.19937722,-0.5428954,-0.52212936,-0.6056653,-0.15379941,-0.18809377,2.7498447e-05,-0.2160924,-0.26349407,-0.10988582,0.03885069,-0.03193679,0.0016383427,-0.03570666,-0.051843915,-0.020203767,0.09812907,0.0992167,0.031068373,0.16992348,0.109048925,0.15083519,-0.237729,-0.2072103,-0.10149067,-0.8692299,-0.87018234,-0.94602907,-0.43287885,-0.41944227,-0.28900594,-0.10188229,-0.2935107,-0.10278957,-0.029134363,0.00040610312,-0.13169986,-0.06332752,-0.04782616,-0.13707905,-0.06342713,-0.02392166,-0.08359322,-0.18303047,-0.05946248,-0.15264003,-0.15311235,-0.11291023,-0.053542092,-0.048501484,0.0140135605,-0.019122468,0.023026366,0.07485651,0.07178097,-0.077416055,-0.12921128,-0.091017276,-0.43650785,-0.16916956,-0.105682395,-0.002599731,0.09639524,-0.022168681,-0.15852915,-0.017175442,0.041646313,0.035841346,-0.030679874,-0.020930089,0.035550743,0.0667101,0.05886507,-0.082642466,-0.10487869,-0.007442727,-0.09870546,-0.07977021,0.07058136,-0.09157408,-0.087894864,-0.13007751,0.00949356,-0.15953879,0.02551433,-0.06401652,0.024295479,-0.09391758,-0.06748943,-0.12699834,-0.13500766,0.0037841462,-0.14339532,-0.044053115,0.03403526,0.026357174,-0.040236052,-0.094645135,-0.09956228,0.10008835,-0.09750003,-0.15725037,-0.18694851,-0.17926778,-0.086960174,-0.09208288,0.09210837,-0.09358945,0.01974012,0.018780738,-0.08132064,-0.031330116,-0.11253606,0.023894776,-0.0057118265,0.030610021,-0.06259179,0.007101607,0.028837964,-0.072706856,-0.06993292,-0.08758884,0.036908917,0.005586536,-0.054857112,-0.034897186,0.026248172,-0.13571407,0.03622586,-0.031310797,-0.1420471,-0.081189394,-0.14391579,0.03253379,0.059998266,-0.03403668,-0.20462342,-0.20060544,-0.17794804,-0.52272224,0.7441573,1.2803305,-0.14611068,-0.16691516,-0.12711737,-0.74765956,-1.0699209,-1.3759959,1.0191149,1.1245706,0.9687687,-3.8511477,-4.069043,-4.537791,-0.37777665,-0.39868176,-0.4040905,0.00337216,-0.119849674,-0.013954979,-0.32865185,-0.17984669,-0.33410653,-0.69051844,-0.7058863,-0.6860205,-0.92630935,-0.81352925,-0.9059379,-0.1765422,-0.17574053,-0.22556573,0.16627146,0.16757712,0.29112032,-0.5981176,-0.5651602,-0.591125,-0.04512649,-0.08093456,-0.1370085,-0.006696476,0.026054926,0.024645174,-2.896816,-2.248228,-1.8160548,-0.009046624,0.15603366,-0.015310533,-0.921004,-0.9002605,-0.7687146,1.3654859,1.6598582,1.9206034,-2.2083702,-2.3232002,-2.4476824,-0.13526846,-0.46215838,-0.7661848,-0.033800744,-0.03185661,0.0673923,-0.32557553,-0.24234915,-0.22291568,-0.10639834,-0.19092219,-0.27073264,0.03246273,-0.08252733,0.0023244033,-0.6191463,-0.9801734,-1.1097217,-0.2472567,-0.3345175,-0.23341095,0.6351262,0.62174535,0.79035825,0.051871907,-0.0026319884,0.105267674,-0.3848559,-0.27532366,-0.19918744,-0.05636976,-0.05714947,-0.01233966,0.6942556,0.66785794,0.56297696,-0.96597546,-1.0612944,-1.1821464,0.18850242,0.2093853,0.15978386,-0.13066486,0.04062025,0.13626473,0.6356426,0.7820294,0.72450125,3.5593102,3.5838256,3.773197,0.03601543,0.13623038,0.29054776,0.09296897,0.08872238,0.07060206,0.7519771,0.57793903,0.6466529,1.2494094,1.1733861,1.1630006,1.1041566,1.2719655,1.1213467,0.9622314,0.9778088,0.93924415,0.6246397,0.6525545,0.50890183,0.46651605,0.4538482,0.51195866,0.115749,0.012630058,0.12681825,0.010474125,-0.09099238,-0.06535866,-0.026150446,-0.23841491,-0.20681766,0.5294858,0.5839497,0.785697,1.1544434,1.2419913,1.2282608,-0.7528427,-1.0034251,-1.036587,0.8328301,0.79340667,0.8692412,-0.52443826,-0.22728194,0.06939949,0.0461178,-0.028346958,-0.069131754,0.014149729,-0.021515345,-0.14805248,0.10587923,0.26409936,0.10127681,-0.078014955,0.072549656,0.07984468,-0.95282423,-0.6231538,-0.45612404,0.5935392,0.591458,0.443558,-0.090009935,-0.16918875,-0.27442166,-0.031941123,-0.026503501,-0.074085444,0.53812605,0.62466455,0.57569593,0.08928451,0.034870848,0.11601908,-0.024067832,-0.098271646,-0.14342622,0.12522733,0.18678996,0.14708571,0.14123704,0.22855145,0.16045831,-0.43206063,-0.27386996,-0.19771023,-0.24676745,-0.31231377,-0.27555475,-0.5611406,-0.5172213,-0.5115491,-0.9146058,-0.8855943,-0.8432958,0.15033364,0.082403034,0.08636964,-0.020069038,0.027430464,-0.08795639,0.46102417,0.4229629,0.48886395,0.47753707,0.4193235,0.48557094,0.015864383,0.09693674,0.04917993,0.08663671,0.122630574,0.19963495,-0.28268626,-0.35099563,-0.28896248,-0.012460124,0.118620835,0.06311028,-0.015170331,-0.036726885,-0.06360515,-0.58387655,-0.615385,-0.6698659,-0.67963696,-0.5982581,-0.5915872,0.55352134,0.60986197,0.44203067,-1.003264,-0.861485,-0.941543,0.5613856,0.61361635,0.59383875,-0.820981,-0.8649401,-0.8013926,-0.0058247973,-0.07189388,-0.044264577,-0.20034122,-0.1998524,-0.20414804,-0.05327095,-0.05710992,0.117268965,-0.096986495,-0.021687038,-0.0048592794,-1.2498014,-1.2531534,-1.1700817,-0.6001458,-0.70133656,-0.60159826,-0.66453606,-0.5928554,-0.6257583,-0.09320095,-0.09533838,-0.07905265,-0.17168392,-0.16956802,-0.16340515,-0.08108309,-0.07868028,-0.076581635,-0.075902894,-0.020093009,0.09817456,-0.09209909,-0.5302316,-0.4015755,-0.1641065,-0.016425416,0.0646864,-0.13611028,-0.23018344,-0.15557389,-0.30668762,-0.26005515,-0.22793233,-0.0421889,-0.18489316,-0.10651124,-0.02311936,-0.17017095,-0.1256881,-0.011057079,-0.060429193,-0.06717416,-0.35225227,-0.23166929,-0.391212,-0.40641862,-0.2470291,-0.31190473,-0.36573923,-0.35563672,-0.31551188,-0.4099125,-0.4054792,-0.34849697,0.03663461,0.05997178,0.028405681,0.035430685,-0.0427317,-0.010131188,-0.09108534,-0.19984865,0.065021604,0.033556983,-0.035728373,0.00037963688,-0.12873659,-0.2139121,-0.36947137,-0.002232559,0.055167243,-0.09118229,-0.2161385,-0.28534013,-0.2573045,-0.28130284,-0.22691591,-0.34905076,-0.20213544,-0.24455245,-0.19748382,-0.12805422,-0.12062042,-0.18309897,0.0011910498,-0.06154841,0.031238094,-0.28115088,-0.4686211,-0.5595265,-0.21436007,-0.14719597,-0.098392606,-0.09232898,-0.051270165,0.08097829,0.04271114,-0.20546556,-0.23682576,0.052129745,-0.026999548,-0.042866968,-0.33783707,-0.27024794,-0.4067612,-0.032819524,-0.055207957,0.04625711,-0.4036936,-0.3678583,-0.29074696,0.002765064,0.033230986,0.0684491,0.1713622,0.023680612,0.15856083,-0.22689041,0.41841283,0.85609293,0.03734682,-0.0328269,0.062338803,-0.5963036,-0.74951524,-1.0366416,0.8344839,0.8499049,0.78032315,-1.7474815,-1.7346616,-2.0731716,-0.849327,-0.9236514,-0.9664042,-0.041963674,-0.16124158,-0.032704506,0.15716834,0.12471592,0.15129553,-0.84830964,-0.72580624,-0.84020776,-0.8665653,-0.81763446,-0.8197002,-0.09663764,-0.055589862,0.045002982,-0.058185697,-0.057910632,0.008965511,-0.11378207,-0.036277276,-0.15484613,0.07010337,0.04152489,0.09806421,0.04553825,-0.089456335,-0.014590521,-2.37845,-1.983676,-1.7984194,1.0906126,0.86595994,0.9010201,-0.87517166,-0.71463656,-0.694922,1.1103516,1.289673,1.4355682,-1.4730978,-1.5925164,-1.6258094,-0.8902063,-1.1916202,-1.686545,0.08314359,0.12713702,0.088340774,0.24639945,0.2197655,0.24486914,-0.14015056,-0.06850859,-0.13580355,-0.013318009,0.029565698,-0.0004629708,-1.8360097,-1.9394315,-2.2482483,0.14570484,0.04059704,0.04145296,0.44861528,0.5222235,0.4875834,0.12359629,0.024268134,0.020298302,0.14113586,0.19121836,0.23014052,-0.048023872,-0.11733523,-0.13945983,-0.07737162,-0.030876767,-0.030958712,-0.28336874,-0.37484807,-0.4770229,-0.061307933,-0.15838411,-0.11716509,-0.2623082,-0.2306669,-0.2110423,-0.12356245,-0.0026080578,-0.08881804,0.47311327,0.39935914,-0.3549193,-0.17273219,-0.3857954,-0.4350878,0.013917327,-0.1004496,0.051320676,-0.13298866,-0.06915443,-0.14513302,-0.025477692,0.01489947,0.06903851,-0.049792275,0.062871724,-0.01675626,-0.075713016,-0.28944477,-0.32022563,-0.15227395,-0.060397737,-0.044283494,-0.048796345,0.033419203,-0.10732893,-0.10466665,-0.030334482,-0.016071701,-0.02749946,-0.020491786,0.029163625,-0.3276071,-0.4269946,-0.49216846,-0.08098748,-0.07382464,0.07807761,-0.060030792,0.099417984,-0.06750934,-0.2210627,-0.23097499,-0.38550186,-0.030081563,-0.038268395,-0.11996552,-0.46560416,-0.4516718,-0.32403314,-0.11888497,-0.1278826,-0.033208508,-0.031186149,-0.06621438,0.03847304,-0.24636425,-0.23114431,-0.22782315,0.076307505,0.018081304,0.048673265,-0.39641136,-0.35224494,-0.4917964,-0.055024944,0.02205392,-0.0056622764,-0.19289076,-0.2880604,-0.21427007,-0.047781434,-0.13181485,-0.063538,-0.18806742,-0.1867334,-0.15836841,-0.09367077,-0.09759813,-0.04229478,-0.115008354,-0.09121015,-0.12144238,-0.14488496,-0.1576006,-0.10700002,-0.14464813,-0.010367287,-0.03571136,-0.112387516,-0.14742868,-0.17325218,-0.14113607,-0.05799846,-0.0013113628,-0.0957728,-0.096718945,-0.13226636,-0.10602758,-0.093354695,-0.04726252,0.018427722,0.077451214,-0.077983424,-0.09038526,-0.052897513,-0.105413705,-0.039247848,0.037932664,0.07212044,0.100862205,0.0018277243,0.01578971,-0.055014208,-0.075764276,-0.052632067,-0.15168035,-0.015212921,-0.088084646,-0.14416684,-0.09029439,-0.1289937,-0.14418513,-0.03916897,-0.042833157,-0.0037811846,-0.057550956,0.08243102,-0.103783175,-0.049046442,-0.011849453,-0.16083765,0.0426223,-0.029840164,-0.02302156,0.029183503,-0.038145337,-0.13832743,0.013682298,-0.048412636,-0.09330534,-0.11192278,-0.025165597,-0.14276965,-0.013439479,-0.020458221,0.04021159,-0.012811586,-0.046466526,-0.12037862,-0.024996413,-0.012851452,-0.07490195,-0.08858925,-0.10100986,-0.21508981,-0.35024628,-0.04084142,-0.057164915,0.012210369,-0.08329886,-0.06628006,0.033686623,-0.08874843,-0.027600644,-0.11597882,-0.09022658,-0.19409375,-0.2155328,-0.31755272,-0.18330649,-0.21170133,-0.15883438,0.03831405,-0.023095286,-0.124786176,-0.04815864,-0.12869823,-0.1335288,-0.115458824,-0.076324396,-0.043331876,-0.123294964,0.0022734944,-0.004084926,-0.06145476,-0.11991676,-0.04635299,-0.15706316,-0.033049848,-0.06771418,0.051407006,-0.012018482,-0.12968053,-0.32479694,-0.15242207,-0.10103417,0.081924796,-0.092995375,-0.05588889,-0.14582202,0.0054529323,-0.1531331,-0.049062654,0.030766293,-0.081914365,0.020882301,0.0033140182,-0.079047345,-0.15637867,-0.053091962,-0.082724854,0.02274622,-0.030316396,-0.08167512,0.029038375,0.040493883,-0.107601754,-0.03514232,-0.15134335,-0.01662766,-0.070540726,-0.04181531,0.009099923,-0.03968579,-0.15934595,0.010600201,0.0014643363,-0.10463591,-0.04278208,0.031667862,0.0045030117,0.041180342,-0.045163866,0.028242629,-0.11015724,-0.033998117,-0.02571885,-0.088256344,-0.035464298,-0.112526655,-0.034665026,0.02795498,-0.072029784,-0.026634797,-0.14406754,-0.1017226,0.03347313,-0.022635102,-0.07257712,-0.11501024,-0.018304553,0.0024138244,-0.096448846,0.07161866,-0.07143128,0.08786914,0.026815787,0.04256557,-0.0039997175,-0.015238316,-0.04023287,0.021769552,-0.14396024,-0.090993084,-0.04600807,-0.090731554,-0.02736314,-0.04042594,-0.0068414314,-0.07261982,-0.11605983,-0.030721452,-0.06628982,-0.14215285,-0.0377101,-0.1372992,-0.095625974,-0.1420914,-0.049755465,0.018235564,-0.05811964,-0.034925096,-0.04441808,0.021126142,-0.1026912,-0.056475468,0.013611257,-0.016092934,-0.007974356,-0.10977341,-0.14533845,-0.058168165,0.011895437,-0.07004599,-0.14339863,-0.01847429,0.036619756,0.044784974,-0.0025770855,-0.08501112,-0.08661737,-0.043704662,-0.1277195,-0.016821606,-0.068482004,-0.0067229355,-0.0873315,-0.008843558,-0.044489738,0.03646854,-0.114347346,-0.053342853,-0.086949825,-0.120469645,-0.10280156,0.016583761,0.020258106,-0.034712914,-0.13840014,-0.052390892,-0.065526016,-0.057821676,-0.036477394,-0.00218831,-0.087463245,0.023757964,-0.028738402,-0.0448104,-0.11717103,0.010198809,-0.12355049,0.014706522,-0.09504321,-0.13778481,-0.15149498,-0.14696845,-0.12193865,-0.00039180368,-0.069567345,-0.085739166,-0.018023647,-0.12968014,0.039974812,-0.080495104,-0.14762804,-0.035334196,-0.032588333,-0.033056095,0.007770866,-0.13216996,0.035385247,-0.11472882,-0.11150167,0.012207157,-0.002741636,0.040890787,0.029043958,-0.11925557,-0.21893817,-0.2095872,-0.2738745,-0.11434767,-0.03154934,-0.07837138,0.009869373,-0.084477834,0.05144336,0.60205275,0.63125086,0.55328673,-0.8895053,-1.0080923,-0.94544137,0.24804486,0.17965475,0.25584742,-0.124617994,-0.016399551,0.036527842,0.7674642,0.7266283,0.77869904,2.8166602,2.9512937,3.01391,-0.12797534,0.092784554,0.2411989,0.02791205,0.12577492,0.072016306,0.56865,0.6819691,0.69600606,1.1989204,1.140624,1.2071623,1.1589997,1.1421685,1.2720778,0.95128405,0.80069804,0.790063,0.51967597,0.5186518,0.6160105,0.51442987,0.4187965,0.48324934,0.13872537,0.048567507,0.13038848,-0.018792087,-0.008032797,-0.0305585,-0.2765288,-0.21623142,-0.25465468,0.5210514,0.7118378,0.73108774,1.2784423,1.1366735,1.0852445,-0.8404658,-1.1109748,-1.2041488,0.70147,0.83810997,0.8458695,-0.2781276,-0.10044833,0.21853967,-0.0976122,-0.12139859,0.00026606277,0.05613626,-0.087556034,-0.12205876,0.25805572,0.18670201,0.19516335,-0.06308859,0.016741876,-0.043446887,-1.0866103,-0.8514202,-0.58277714,0.6070581,0.65318006,0.61256,-0.029951584,-0.17669,-0.17505577,-0.14942998,-0.1509602,-0.18982859,0.55928975,0.5060734,0.47592393,0.023695473,0.077380426,0.06656441,0.6746173,0.6424465,0.6447452,0.04251115,0.033129245,0.26888376,-0.2605882,-0.2553914,-0.25595355,-0.39395565,-0.2587696,-0.23254593,0.5523358,0.5101842,0.5050409,-0.084353276,-0.07025888,-0.089010514,-0.4771299,-0.39410186,-0.29843006,0.06024739,0.15680547,0.059404626,0.6912365,0.78363794,0.7957508,1.2198111,1.0749012,1.0719197,1.094719,1.2020059,1.2460147,0.53384817,0.40037403,0.44213837,-0.28823474,-0.15897506,-0.22832763,1.060471,1.0541371,1.1268792,-0.13342993,-0.11563197,-0.1453756,0.116000384,0.017563455,0.13242017,-1.2237209,-1.089421,-1.2173345,1.0752228,1.034981,1.060469,1.1514764,1.2218822,1.0427214,0.7108031,0.7106535,0.5279169,-0.27590305,-0.18296993,-0.23960727,0.0028269896,-0.03891722,-0.014651852,-0.06188621,0.14019276,0.047104046,0.41540495,0.35141328,0.35706013,-0.4602574,-0.5395394,-0.6372822,-0.006374005,-0.034572687,-0.039589196,0.03953457,0.14252797,0.102022685,0.11608149,0.18875512,0.15653719,0.35045388,0.34863687,0.34024513,0.010779033,-0.04052648,-0.1432417,0.528894,0.5534034,0.5233729,0.20248212,0.01590712,0.13449477,0.62300617,0.75938034,0.7273227,2.462354,1.9529026,1.5148518,0.21446604,0.22138761,0.081407025,-0.072113164,-0.028823793,0.30358607,-0.47116682,-0.44383952,-0.31293,-3.9769158,-3.8557463,-3.6577334,0.011150275,-0.03576173,0.28818163,0.15919998,-0.004271759,0.027311465,0.7351865,0.74150264,0.658424,1.077679,1.1655363,0.9972913,1.0078856,1.0568571,1.0832913,0.7234787,0.80540836,0.7890515,0.3460824,0.3954799,0.40172392,0.37788144,0.42378306,0.42431405,0.0145920785,0.11942196,0.13643502,0.06699022,-0.017892709,-0.042273074,1.2977494,1.1185198,0.97512376,-1.5727504,-1.4232317,-1.1954988,1.095714,1.0108931,1.125307,-1.0643955,-1.3449918,-1.8124149,-0.45000097,-0.45825115,-0.48278573,-1.7851737,-1.4095695,-1.350841,-0.030651344,-0.050540924,-0.049133044,-0.41040713,-0.42650524,-0.3262624,0.14883466,0.11102996,0.052031636,0.017644115,-0.031299982,-0.027827352,-1.8789246,-1.730132,-1.7079244,-0.04359252,0.10548879,-0.12340041,-2.3427634,-2.5717978,-2.6446033,-0.18410474,-0.15699396,-0.11758318,0.69070935,0.65360624,0.69498986,-0.09943122,0.013376054,-0.085945725,-0.13443346,-0.019959407,-0.15575784,-0.12709002,-0.094162345,-0.003802837,-0.10194833,-0.10047566,-0.028593538,-0.1305228,-0.0010632754,-0.057140954,-0.069679596,-0.060490258,0.07174428,-0.06322847,-0.14152999,-0.08209133,-0.10124043,-0.11273759,-0.048779845,-0.094010524,0.04105246,0.095414594,-0.15562493,0.019685782,-0.033900812,-0.032259367,0.07712035,0.09578194,-0.038534716,0.0019140616,-0.035480157,-0.017320221,-0.060716588,0.0030147196,0.046528697,-0.024950542,-0.017627388,-0.035085898,-0.024375318,-0.0006380608,0.02052515,-0.05252007,-0.11633614,-0.06067945,0.08795294,0.07112466,-0.06969173,-0.0077547035,-0.15722138,-0.06596774,-0.019288788,-0.017468076,0.005690379,-0.011996844,-0.15171073,0.04747869,-0.037591577,-0.08482154,-0.06681955,-0.047000326,-0.06021882,0.0083486885,-0.03423644,-0.03352034,0.036638066,0.022301733,0.03017363,-0.09143042,-0.02182509,-0.098820284,-0.061518326,-0.09144864,0.032239012,-0.009640513,-0.12265865,-0.14517218,0.021128424,-0.0192919,-0.00054883957,0.021279216,0.047917247,-0.0025048405,-0.055123504,-0.08836827,-0.14935794,0.01256704,-0.11463268,-0.13256407,-0.22477414,-0.22558424,-0.150237,0.08786005,0.0052255914,-0.15689866,-0.03798051,0.0049343184,-0.073869646,-0.23296641,-0.18086633,-0.2454372,-0.024740547,-0.1732481,-0.110548586,-0.21032928,-0.22164553,-0.11607822,-0.0010524759,0.024714813,-0.13880967,0.0038907155,-0.03721481,0.019097902,-0.121711604,-0.13304177,-0.17194267,0.0071719754,-0.1664077,-0.05042595,-0.083351344,-0.06456071,-0.036110908,-0.0122419745,-0.025818244,-0.0472742,-0.1505926,-0.009087909,-0.02549159,-0.1732954,-0.045720898,-0.09655942,-0.06647565,0.01693768,-0.0485723,-0.077200145,-0.12918341,0.003425069,0.0037429575,-0.12815915,-0.09480078,-0.04280005,0.027574852,-0.06408526,-0.088365175,-0.06367034,0.0018241704,-0.081482746,-0.17196004,-0.09469097,-0.17182104,-0.027295472,-0.17242658,-0.003960827,-0.0013463123,-0.16604248,-0.013099499,-0.034564964,-0.038139246,-0.15799208,-0.2588588,-0.22521625,-0.06501541,0.013910495,-0.032924652,-0.11556951,-0.10351621,0.01248784,0.114131354,0.07114131,-0.07158578,-0.09672362,-0.065260574,0.09077561,-0.04220862,0.027505418,-0.09634293,0.008852642,0.002683954,-0.04948108,-0.08362598,0.051555485,-0.029462496,-0.06484024,0.027697038,-0.17253952,-0.17336315,-0.1336169,-0.16707923,-0.035816036,-0.078000925,-0.0757428,0.045146428,-0.016619502,-0.10856668,-0.0059022503,-0.07874776,-0.113869965,0.009538873,-0.05048967,-0.024807723,-0.12001658,-0.121570736,-0.04919063,-0.014534562,-0.057034846,-0.11996372,0.019119905,-0.14269613,-0.044910073,-0.16713631,-0.11401352,-0.17163078,0.0037331895,-0.12231976,-0.103222296,-0.039116018,-0.074516594,-0.10406887,-0.10689534,-0.02454281,-0.14872016,-0.11453079,0.0314475,0.009769145,-0.01973306,-0.042652167,-0.08636799,-0.11138541,-0.09464968,-0.02183575,-0.12514135,-0.16413422,-0.049064044,-0.0019814598,-0.112785906,-0.015314999,0.029804358,0.07459103,-0.038684122,-0.08401998,-0.056195058,-0.08439979,0.06902128,-0.018078981,-0.051309858,0.032701015,0.08845787,-0.031283483,-0.043747924,0.06547893,-0.053114835,-0.10035638,-0.17110837,-0.0017034253,0.05347782,-0.10736907,0.0048726513,0.009357035,0.06650581,0.050866768,0.05518452,-0.017819192,0.015412776,-0.0868944,0.044307735,-0.0788984,0.036297858,-0.04424332,-0.034489915,-0.07590259,0.039114475,-0.043988958,-0.16983196,-0.012359189,-0.031170053,-0.061253462,-0.12419023,-0.113156974,-0.04428102,0.048857193,-0.09143235,-0.1129257,0.0009612132,-0.06978035,-0.038417205,-0.0920891,-0.019064873,-0.22856405,-0.11877067,-0.11564943,-0.11662297,-0.11436107,-0.146873,0.015430008,0.041004688,0.05827767,-0.274185,-0.23080821,-0.25248984,-0.10646266,-0.11738095,0.0073788483,0.017041342,-0.02906475,0.0044755107,-0.13089335,-0.41398987,-0.27059752,-0.02526928,0.030982058,0.032094527,0.00470383,-0.06861299,0.08754828,-0.00044112653,-0.094909735,-0.035164043,0.1169572,0.059656166,0.027401159,-0.05654558,-0.025010014,0.0014976368,-0.0023566256,-0.06024241,-0.04534029,0.0020950243,0.05918731,-0.07935622,0.022292022,0.012382963,-0.040611036,-0.035721622,-0.064181365,-0.026488135,-0.28612125,-0.2246496,-0.21446343,-0.092411146,-0.025328847,0.00035042566,0.03912875,-0.082204655,-0.06942429,-0.06764148,-0.10355232,-0.08516969,-0.078176446,0.015762558,-0.08735444,-0.017833963,-0.105881095,-0.077260286,0.06552004,-0.08607993,-0.03022723,0.025724454,-0.097663745,-0.1078842,-0.11762006,-0.08795394,-0.12768373,-0.12243266,0.049354117,-0.03988142,-0.50208175,-0.48848152,-0.3695617,-0.01995916,-0.053246453,-0.12883776,-0.09188285,-0.116138585,-0.0021272728,-0.031457383,0.043650027,-0.14361833,-0.08111573,-0.12111799,-0.09714206,-0.07610948,0.010047431,0.10053869,0.4180951,0.32989714,0.283087,-0.19749135,-0.21129134,-0.1709897,-0.23540124,-0.0800225,-0.19955453,-1.1048833,-1.3093773,-1.5718224,0.7071974,0.8517122,0.66865003,-2.6210656,-2.6169634,-2.7994797,-0.42601836,-0.4138284,-0.49853098,0.019710256,-0.14285617,0.024942663,0.33415982,0.43834823,0.3791445,-0.24656604,-0.106395766,-0.18288454,-0.3272937,-0.24146467,-0.23621808,0.41024074,0.43415037,0.43309635,-0.17960757,-0.12171055,-0.16579966,0.054774977,-0.22115818,0.0457854,-0.18671264,-0.02729676,-0.011359146,0.04738598,0.049911607,0.044390455,-0.6928538,-0.49739063,-0.23428327,0.4077695,0.07943109,-0.007940203,-0.16116987,-0.15899846,-0.11157692,0.072239526,0.20615414,0.22035809,-2.1139681,-2.2076035,-2.293646,-0.82265806,-0.88788545,-0.86917037,-0.008872909,0.068524264,-0.059780017,0.13739279,0.21693161,0.2440208,-0.088653356,-0.09768396,-0.11151743,0.09670255,0.01081117,-0.021051493,-0.5670722,-0.8036235,-0.82924014,-0.18429644,-0.33383238,-0.30461788,0.24563085,0.17801087,0.05449415,-0.043525252,-0.019601652,-0.034924965,0.284896,0.3072517,0.24633512,0.098125555,-0.087172545,0.027307747,-0.061216976,-0.02631864,-0.18252812,-0.1806936,-0.2724957,-0.37758806,-0.14723912,-0.16265449,-0.19294631,-0.08849558,-0.15617156,-0.3116568,-0.08709502,-0.13636246,-0.09318346,-0.027695559,-0.029819287,-0.12015663,-0.052764487,-0.19455299,-0.021166444,-0.076677084,-0.07293859,0.07160993,-0.06993089,-0.084509894,-0.027862865,0.053128585,-0.023395024,-0.032581106,-0.038216718,0.07569638,0.059140205,-0.20812312,-0.0429933,-0.12242248,-0.09672203,0.038025487,-0.07162666,0.042108938,-0.100528345,-0.14687078,-0.04401288,-0.059741702,-0.2060039,-0.059623048,-0.06916736,0.0617359,-0.18579611,-0.10245904,-0.057879973,-0.1710111,-0.13988078,-0.1122652,-0.00092592835,0.08603631,-0.07315308,0.028323105,-0.05187268,0.07023376,-0.052899,-0.023191266,-0.05851078,-0.2949755,-0.095850915,-0.13379388,-0.060070056,-0.0034019947,0.07396905,-0.116207086,-0.19532542,-0.20295398,-0.038180258,-0.2985188,-0.28391847,0.06325431,-0.13669999,-0.08300631,-0.20591195,-0.056282796,-0.027434375,0.0073918886,-0.050564405,0.024856478,-0.19131078,-0.06363489,-0.168048,-0.091743946,-0.1039833,-0.02805618,0.24027203,0.015467413,-0.40838525,-0.016114347,-0.07370436,-0.07799551,-0.06947186,-0.08812611,-0.029064598,-0.08144385,-0.024486734,-0.075437985,-0.10461864,-0.09335252,-0.14354075,-0.09928332,-0.010258383,-0.017471986,0.07506992,-0.028319918,-0.075164095,-0.001655361,-0.096461385,-0.18286866,-0.08280383,-0.18114214,-0.234936,0.045475706,0.08620922,0.041084155,0.007074075,0.032190647,-0.036500916,0.06618884,-0.029903784,-0.005706921,0.05551724,-0.037823185,0.03247705,-0.13580224,-0.14056823,0.007577658,-0.061938234,-0.045680918,0.017578483,-0.083559856,-0.01158736,0.011401486,0.009488623,-0.049450602,0.011812683,0.033438355,0.032692,-0.09126398,-0.19012262,-0.1843037,0.0093615195,0.029414656,-0.11980058,0.00016475015,-0.07129369,-0.09609158,0.014549735,0.01135812,-0.025154121,-0.034241132,-0.06877585,-0.059140813,-0.12717356,-0.060522687,-0.174468,-0.08243912,0.0333312,-0.07442336,0.09719172,-0.24023984,-0.17224199,-0.05532533,-0.003159333,-0.0038984825,-0.13721792,-0.044954106,0.03195498,0.0023780297,-0.06113972,-0.13982873,-0.09796524,-0.018635355,0.003920421,0.06962359,-0.12976448,0.029099341,-0.16086757,-0.13001183,-0.146656,-0.049696695,-0.15188839,-0.01922995,-0.038356684,0.020906173,-0.095842436,9.6127624e-05,-0.6571028,-0.6564537,-0.63091236,0.5484845,0.6608911,0.7411233,-0.15698901,-0.21796755,-0.036746718,0.79031473,0.7870602,0.51935714,0.44158134,0.36727786,0.42464352,0.7463126,0.7918365,0.79657954,-3.8099616,-4.0206575,-4.036062,0.027136788,-0.029788807,-0.07283752,-0.2466026,-0.10803821,-0.20089653,-0.2173259,-0.24263777,-0.2756737,-0.32314837,-0.2640994,-0.323069,-0.78397286,-0.80442786,-0.7259673,-0.11159385,-0.019195221,-0.047503743,-0.17859825,-0.09272492,-0.023927448,0.033032376,0.028451558,-0.003293898,0.09803741,-0.07921199,0.08648385,1.933351,1.9168812,1.9563295,2.0591054,1.9086549,1.901012,-0.464591,-0.29582223,-0.43857488,-0.02370219,0.012436439,0.1781645,0.883177,0.88221776,0.7839943,1.2173094,0.9206624,1.0109777,0.09438501,-0.10088489,-0.052057926,-0.22198755,-0.12840441,-0.31734833,0.27829123,0.29475376,0.29152137,0.5110327,0.5525398,0.2865457,0.055198714,-0.074458025,-0.24899106,-0.9082727,-0.85709596,-0.8104493,-3.961322,-4.0034585,-3.8362093,-0.2593826,-0.14389199,-0.13472475,-0.26103207,-0.31199923,-0.59642774,0.1551131,-0.010326875,0.077473655,-0.27854505,-0.17237413,-0.2231921,0.02885534,0.7199975,0.95779884,0.0955939,0.12065664,0.05522029,-0.12993489,-0.34252453,-0.54280424,0.38149497,0.30536577,0.44168818,-2.7462459,-2.928875,-3.2783895,-0.05777893,-0.2502009,-0.3621417,-0.041601993,-0.137687,-0.11023742,-0.17685692,-0.149185,-0.1069506,-1.0969372,-1.1530477,-1.131676,-1.0635501,-1.1332705,-1.0507953,-0.4011434,-0.37331522,-0.21905969,0.34907866,0.3550032,0.24232955,-0.50976944,-0.4473736,-0.53575903,-0.024106612,0.07083469,0.1180166,0.07278495,-0.009992863,-0.083150186,-0.7523065,-0.45432663,-0.0644076,1.191519,1.1816543,0.99267846,-1.085535,-0.9646483,-1.1112406,1.3514231,1.4412663,1.7464979,-1.6323155,-1.6508822,-1.7177488,0.14691268,-0.20392866,-0.43443224,-0.06910643,0.07321236,0.024747252,0.1324427,0.10857894,0.2379816,-0.054493107,-0.1290036,-0.18553855,0.11114459,0.057116926,0.07780177,0.44548377,0.1823581,-0.23234865,0.41667873,0.37519762,0.2627196,0.08365185,0.2035969,0.21052401,0.1663804,0.30785158,0.25803456,-0.1160802,-0.08006259,-0.18099175,0.016409013,-0.064824134,0.049192227,0.010370711,-0.07770886,-0.03825789,-0.04046478,-0.09792036,-0.023219325,-0.004211013,-0.14391425,-0.014900744,-0.05531005,-0.039062656,-0.25154477,-0.11266113,-0.018562801,-0.04147669,-0.00603763,-0.101332836,0.0199842,-0.13284168,-0.02812454,-0.10075391,-0.01456245,-0.07776645,-0.04096218,0.030821927,-0.07134221,-0.07942662,0.023382664,0.031767815,-0.060055286,0.046334326,-0.015993118,-0.057722274,0.2073212,0.065310694,-0.41385165,0.028925048,-0.045635648,-0.14023256,0.034347996,-0.06348925,-0.093801476,-0.090140015,-0.12883528,0.008989023,0.06983973,0.10072233,0.010000944,-0.013268766,-0.008315781,-0.1531277,-0.013750106,-0.0465382,-0.013293169,0.05207704,0.10078968,0.041961417,-0.043593016,0.04346873,0.028090382,-0.1593222,-0.23742172,-0.16582717,-0.13466659,-0.059991576,-0.11837939,0.07223135,0.07204153,0.056468993,0.009806135,-0.027848732,-0.03651594,-0.038692545,0.008912138,-0.13225976,-0.092985764,0.087221295,0.052836806,-0.11765812,-0.018064436,-0.0083204415,0.041327193,-0.100788556,-0.03241147,-0.043815613,-0.06506025,-0.15194501,-0.042974498,-0.14955008,-0.08765578,-0.03120755,-0.1213911,0.016387781,0.041047394,-0.073943116,-0.010529026,-0.11016815,-0.14520037,0.24891421,-0.09044062,-0.25998586,-0.27984133,-0.1497257,0.0077629676,-0.045636863,0.022144351,-0.097139254,-0.0028672873,-0.089930005,-0.05258117,0.059192672,-0.23296088,-0.03536117,-0.049137548,-0.14908673,-0.0706056,-0.149418,-0.06568586,-0.101647034,0.029869542,0.012715412,-0.057554197,-0.017931692,-0.058883652,0.097512096,0.004511103,-0.04159037,-0.034561194,0.09356587,-0.110026896,-0.1424225,-0.0067992634,-0.0014000759,0.040351257,0.096860975,-0.07435793,-0.0056572314,0.00082258106,-0.14694038,-0.018152425,-0.0018176588,0.038846582,-0.06983978,0.038814098,-0.17939246,0.011944623,0.039242465,-0.0042562485,-0.06737778,-0.010350907,-0.07853403,-0.0660259,-0.095075935,-0.01799266,-0.0637043,0.06437336,-0.015820388,-0.059373774,-0.118550315,-0.09179287,-0.18461545,-0.06963402,0.076941594,0.040509805,-0.08931824,-0.09687869,0.032220706,-0.08977268,-0.021401988,-0.13499935,-0.12117346,-0.015154211,-0.04007606,-0.122292705,-0.009782672,0.039636552,0.018184543,0.09879531,0.036472455,0.043575227,0.0096493615,-0.14397891,0.0334011,-0.044706788,-0.027255183,-0.08764215,-0.095232196,-0.121158734,-0.03194624,-0.06323549,-0.02673751,-0.007525652,-0.38278225,-0.3843427,-0.34473675,-0.48714685,-0.47836435,-0.6271296,-0.054273035,-0.1203179,-0.082851626,-0.36963183,-0.22518563,-0.24649926,0.2807017,0.13718708,0.24851269,-0.30329582,-0.33478403,-0.32973385,-0.64391774,-0.57279,-0.56048155,0.0039394572,-0.07004972,0.10191415,-0.4047541,-0.44259652,-0.4894199,0.26709956,0.263696,0.36284328,0.25047034,0.34497783,0.27517316,-0.46922052,-0.48108122,-0.39907297,-0.09004314,-0.11268994,-0.00010817242,0.0064175613,-0.19177628,-0.13413242,-0.085698724,-0.21788843,-0.12908792,0.040409967,0.057912275,-0.10132442,-0.42054054,-0.31299177,-0.34736943,0.023209445,-0.13243406,-0.016980596,0.32247916,0.29646197,0.17664742,0.055384863,0.013078242,0.024912355,-0.38311678,-0.405498,-0.3665472,-0.034476258,-0.03808,-0.12421721,0.0912316,0.08499503,-0.05666305,-0.38220567,-0.3459319,-0.24772882,-0.23755808,-0.27185243,-0.3284535,0.06791886,0.09913051,0.18687339,0.08553049,-0.050623227,0.07630269,0.693037,0.74898607,0.7507364,-0.055707533,-0.07146672,-0.08466553,-0.1284326,-0.06338561,0.0049423957,-0.27447346,-0.17665152,-0.24698499,-0.05935711,-0.14223176,0.029027421,-0.19591089,-0.047648698,-0.040199094,-0.17837177,-0.10512062,-0.09168603,-0.16318345,-0.07013942,-0.046038076,-0.11740179,-0.18077597,-0.13738322,-0.17140411,-0.10762612,-0.045298506,-0.1296736,-0.1822525,-0.1425154,-0.28080457,-0.20069529,-0.15217727,-0.07733327,-0.018153481,-0.092425145,-0.18963067,-0.06800441,-0.16152115,-0.10247442,-0.11384716,-0.109366365,-0.064114146,-0.10139758,-0.18019232,-0.116760194,-0.10408584,-0.11853759,-0.07176114,0.035580207,-0.012218781,-0.04265777,-0.0018041481,-0.10516174,-0.16687764,-0.15192002,-0.044296756,0.079736635,0.018939756,