#ifndef WEIGHT_H
#define WEIGHT_H
#include "ap_fixed.h"
typedef ap_fixed<32, 12> data_t;
const data_t conv_block_0_weight[] = {-0.39594787,-0.37068415,-0.30043644,-0.3525358,-0.34400254,-0.27037624,-0.36637095,0.7688379,0.7388638,0.7725951,0.89600486,0.8920149,1.0003814,1.0440407,0.5370348,0.5095136,0.5323556,0.5044272,0.5696087,0.6370793,0.5596383,-0.98246485,-0.51172775,-0.3596768,-0.3706077,-0.3684429,-0.3621713,-0.3515123,0.12166813,0.08180667,0.030100303,-0.16755308,-0.28333986,-0.4574775,-0.3980485,1.3795943,0.68170726,0.22691463,-0.03525061,-0.28711027,-0.30103093,-0.06821669,-0.0075364243,-0.11174375,-0.0648504,-0.03217813,-0.11584723,-0.014246482,-0.07036309,0.054331493,0.06393379,-0.022612624,-0.3095775,-0.5224459,-0.660859,-1.0555338,-0.15578,-0.1082945,-0.03166566,-0.13266303,-0.0141166095,-0.055977207,-0.03478401,-0.3641088,-0.47561568,-0.36471936,-0.3705029,-0.5354836,-0.60703707,-0.7758549,-0.30155343,-0.35059977,-0.3909099,-0.33536628,-0.387885,-0.38703468,-0.28190914,0.82840115,0.92844963,0.9323707,0.8938776,0.93811977,0.8905531,0.85726666,0.62900466,0.591805,0.5730246,0.5637244,0.6002726,0.49883872,0.50512195,-0.83695555,-0.8417351,-0.8294638,-0.8539062,-0.8200866,-0.7952433,-0.8905149,0.17848124,0.18673295,0.18689115,0.16193224,0.17189945,0.05332294,0.104065,1.2148358,1.2690368,1.2138951,1.2480233,1.2166847,1.322715,1.2582246,-0.03487556,-0.1261468,-0.12884368,-0.09474375,-0.07770004,-0.12660979,-0.08090485,-0.07919039,-0.121857375,-0.0593505,-0.123805106,-0.05160172,-0.14696468,-0.17762607,-0.094910026,-0.0018973481,-0.047284268,-0.059537247,-0.10319715,-0.07424009,-0.045787185,-0.9776805,-0.9867556,-0.9448496,-0.98430026,-0.9781706,-0.98197854,-0.9435187,-0.26288146,-0.37838507,-0.3261308,-0.36543295,-0.26193887,-0.3310981,-0.35986206,-0.10813977,-0.14024521,-0.12867053,-0.1278272,-0.23252723,-0.12846428,-0.23334548,1.0378895,0.9789292,1.0189928,0.9383949,0.9232644,0.93318486,0.96789944,0.10321471,0.09419175,0.15378419,0.071693785,0.10954556,0.089284346,0.17868316,0.036572997,-0.02616053,0.08026914,0.088647604,0.06655131,-0.013036626,0.07820037,-0.48042804,-0.43293482,-0.52324426,-0.532649,-0.4454565,-0.44364247,-0.48035863,-0.18991414,-0.27859402,-0.24141917,-0.18142849,-0.18727934,-0.17492293,-0.26772335,-0.06351836,0.008361797,-0.042761907,-0.007803359,-0.0012631863,-0.06967698,-0.04276103,0.453996,0.38447553,0.39118135,0.36231908,0.4777446,0.38652653,0.4171339,0.7166757,0.72155184,0.7804482,0.67817914,0.65711915,0.7736664,0.76322997,-0.3194145,-0.30594435,-0.33158636,-0.3642649,-0.32027766,-0.2915786,-0.28967372,0.34710604,0.34078738,0.37588373,0.40009227,0.48804548,0.4759359,0.48016432,-0.4372804,-0.49943557,-0.41535652,-0.52836573,-0.46218294,-0.538404,-0.46614325,-0.87157005,-0.825612,-0.6173436,-0.39191952,-0.43375173,-0.54713494,-0.7328016,-0.7944556,-0.596365,-0.3645034,-0.18867438,-0.16871278,0.053023223,0.30203554,0.13441521,-0.22276677,-0.5460662,-0.65614545,-0.6859036,-0.7781993,-0.96818215,0.105748,0.14363168,0.10743804,0.15163122,0.054518364,0.078059666,0.17432874,0.00856869,-0.07592637,-0.1599533,0.04189779,-0.02348083,-0.03582672,-0.20681408,-0.1392738,-0.09235059,-0.081376895,-0.12481675,-0.04716319,-0.06560387,-0.16773301,-0.1934944,-0.22917941,-0.30162415,-0.4308918,-0.5823497,-0.7345893,-0.7999161,-0.3126782,-0.28828618,-0.3661065,-0.31260023,-0.33882394,-0.37872028,-0.32099128,0.2817232,0.37800226,0.38736945,0.3386816,0.29696292,0.28647396,0.35868457,-0.38592052,-0.41811222,-0.5144543,-0.5055893,-0.44612908,-0.4311815,-0.4817189,-1.053301,-1.1012852,-1.1271584,-1.166929,-1.1083649,-1.1027645,-1.1195158,-0.5673525,-0.5220702,-0.46261618,-0.5743631,-0.5632343,-0.50499725,-0.5819594,-0.14971325,-0.15967463,-0.20802154,-0.2340444,-0.22799599,-0.24942143,-0.2004702,0.14493649,0.16669045,0.10205659,0.1953586,0.12022773,0.18513677,0.07402961,0.1299605,0.12679422,0.15251258,0.14082603,0.0669442,0.05038531,0.038189545,-0.1249607,-0.09511974,-0.044881962,-0.05493068,-0.043771658,-0.11484979,-0.04205325,-0.5631986,-0.5398873,-0.5476123,-0.5089623,-0.58441645,-0.586965,-0.6147743,-1.2371753,-1.1894438,-1.2422309,-1.2916417,-1.1754882,-1.1888942,-1.2668748,2.068293,2.0626402,2.0736904,2.0019445,1.9473743,2.0568504,1.9427696,0.5446781,0.5497707,0.60459465,0.4797138,0.56901693,0.57683915,0.5089452,1.1449692,1.0819763,1.0947875,1.085828,1.1261617,1.1883004,1.0802681,-2.0382097,-2.0517347,-2.0549438,-2.0874438,-2.138107,-2.0299652,-2.1269925,-0.72197914,-0.72467124,-0.69163233,-0.65555847,-0.6413776,-0.65951085,-0.7059207,0.58956045,0.62836236,0.6528858,0.6500478,0.5793763,0.5587282,0.57554424,-0.39159155,-0.42444915,-0.41724092,-0.3493872,-0.3594016,-0.4203819,-0.4068581,1.0741976,1.0764694,1.1164372,1.0885142,1.0426549,1.0232561,0.98915726,0.17844918,0.18019031,0.1774669,0.14920764,0.14252062,0.20290829,0.14860886,-1.1644925,-1.0719053,-1.1166978,-1.1375908,-1.1675355,-1.198047,-1.1268822,-0.5468355,-0.65953493,-0.64805925,-0.73828936,-0.70390284,-0.7924902,-0.8600084,-0.045549344,-0.0013217711,0.09143418,-0.0081578065,0.06738635,-0.040302377,-0.06422835,1.0325797,0.78260535,0.60085225,0.35309815,0.19117193,0.082703926,-0.0705607,0.040152803,0.28839433,0.49648783,0.32686037,0.17775564,0.023981994,0.007702843,-1.2186651,-1.1422668,-1.040983,-0.92393947,-0.8905373,-1.0165498,-1.2541999,0.08298599,0.14434747,0.081654236,0.047949515,0.041266553,0.03422611,0.021093197,0.19524509,0.047726035,0.057956543,0.13656352,0.035472028,0.068338156,0.11020067,0.19584645,0.23801926,0.34244615,0.24578208,0.23148458,0.31063873,0.23044492,0.069464885,0.056630258,-0.08990725,-0.12911317,-0.34734803,-0.39726904,-0.34699965,-1.1616174,-1.1480769,-1.1408507,-1.206563,-1.184056,-1.176164,-1.1021608,-0.7936144,-0.81361103,-0.74999774,-0.7464091,-0.78673565,-0.8034855,-0.7614912,-0.06484341,0.00235071,0.035482515,0.04422963,0.053162545,0.068837285,0.010892165,0.12196371,0.21340466,0.22752486,0.15629186,0.20650513,0.12202026,0.12104342,-0.12391005,-0.16495588,-0.14204533,-0.17333582,-0.1224013,-0.11584335,-0.17515747,-1.4699143,-1.5601963,-1.5311722,-1.4831548,-1.5501125,-1.547371,-1.4654405,-0.01218424,0.10916106,0.03653313,0.035127033,-0.015195315,0.0054752235,0.053184472,0.17091227,0.15710112,0.12291103,0.18494684,0.15387297,0.14683335,0.19262221,0.31602594,0.23992755,0.29840478,0.29992452,0.22083361,0.2764274,0.32428584,0.026386771,-0.006911759,0.020486413,-0.032523014,-0.014662849,-0.00022193302,-0.00043008782,0.30140513,0.28082433,0.27305183,0.20203538,0.261347,0.20207421,0.27785718,-1.2310822,-1.2347051,-1.1932703,-1.1945628,-1.1762055,-1.1618313,-1.143791,0.4487227,0.45182297,0.5295261,0.44243702,0.5174473,0.47341615,0.47501817,0.11359247,0.07699433,0.09632772,0.096009046,0.09790789,0.026212888,0.029732956,-0.20478958,-0.12513152,-0.13644554,-0.09976364,-0.22831205,-0.18000898,-0.13278423,0.41179705,0.35777342,0.48342624,0.42640114,0.40337622,0.42708278,0.38401988,-0.23634778,-0.2678919,-0.2466024,-0.26776415,-0.15676478,-0.20680216,-0.17144169,-0.24289267,-0.16310911,-0.25715715,-0.22141339,-0.20646752,-0.22956906,-0.2638251,0.14127173,0.14886059,0.018428843,0.1225351,0.097363636,0.04984183,0.031393737,0.25989303,0.22910386,0.22647004,0.23889117,0.19467804,0.19543606,0.31813717,1.165648,1.1656244,1.2144729,1.1569556,1.1386958,1.1689183,1.2107824,0.7383279,0.73890597,0.68588877,0.71551543,0.64904654,0.5618854,0.6467594,0.12914291,0.10626795,0.02558003,0.09987095,0.086448886,0.15024625,0.1145339,-0.5723554,-0.48563173,-0.4027555,-0.43622604,-0.3217538,-0.32743087,-0.08701951,0.8677543,0.3828609,0.13650846,-0.09027691,-0.16174445,-0.33825293,-0.50214463,-0.4630865,-0.37271744,-0.26821408,-0.11029779,-0.0684868,0.08975874,0.21128644,-0.10081623,-0.04560326,-0.120478116,-0.033600055,-0.10458742,-0.04140373,-0.11399054,-0.20284687,-0.20367761,-0.20882154,-0.20751053,-0.07542536,-0.25713354,-0.23794113,-0.23336162,-0.19721025,-0.1440629,-0.15216984,-0.12979937,-0.14771466,-0.14818059,0.6061436,0.5406159,0.56313294,0.45243856,0.40738583,0.318848,0.23074995,1.2971718,1.3419688,1.2552984,1.2746446,1.3241118,1.3134092,1.2248441,0.71662354,0.6670136,0.7504964,0.7041823,0.8004773,0.71596307,0.79894966,0.08190943,0.03713922,0.08670829,0.11753771,0.14179045,0.06485071,0.08794044,-0.27513218,-0.3147139,-0.27686253,-0.38893157,-0.29841608,-0.38646385,-0.32641944,-0.08924648,-0.12893547,-0.10398267,-0.11857674,-0.09939844,-0.13004102,-0.06781059,0.0145760635,-0.032886457,-0.012869929,0.009898526,-0.050366685,0.035100333,0.020854082,-0.052981414,-0.046878424,-0.09153836,-0.059311554,-0.12535407,-0.108504035,-0.036602188,-0.123087466,-0.09916129,-0.19411951,-0.09458432,-0.11784807,-0.16699868,-0.13912024,-0.23490892,-0.19294326,-0.18127461,-0.16281916,-0.1343538,-0.20068532,-0.23907824,0.16664292,0.28229868,0.24824838,0.1757421,0.23315729,0.2687543,0.20369124,-0.16561599,-0.23422645,-0.23287486,-0.22074668,-0.12528694,-0.1861885,-0.15987758,-0.4673486,-0.45604125,-0.49704093,-0.44493636,-0.54886967,-0.4997398,-0.51324946,-0.21116605,-0.2159824,-0.19101644,-0.22752361,-0.14877906,-0.2771381,-0.16738802,-0.4959979,-0.549046,-0.4641085,-0.5005923,-0.504915,-0.5564413,-0.53729296,0.30980408,0.3184216,0.43971363,0.33314663,0.38987884,0.3822971,0.38300133,0.90706,0.9356164,0.8780891,0.9413314,0.8647683,0.8663104,0.84175056,-0.14915802,-0.19757675,-0.17175195,-0.1769624,-0.18642542,-0.12737733,-0.12018637,0.09898799,0.05344851,0.14920953,0.088015504,0.06463529,0.038157623,0.13644138,-0.67667407,-0.7556098,-0.689854,-0.6760186,-0.7008676,-0.69864,-0.7516124,0.3417723,0.27595618,0.24013565,0.3387471,0.30859184,0.35572177,0.24832615,0.73733443,0.7541358,0.71234626,0.69614255,0.7115712,0.7467135,0.74036574,-0.7243493,-0.6440913,-0.7168514,-0.5663624,-0.6718481,-0.5515883,-0.5389244,-1.1844351,-1.1891099,-1.1917515,-1.1670604,-1.1554189,-1.1036067,-1.0832522,0.4888125,0.43485618,0.45528722,0.49673268,0.43144202,0.54361755,0.66594833,0.9307473,0.7626272,0.6765721,0.590771,0.53729486,0.60738295,0.69904345,-0.17693473,-0.14196286,-0.023090096,-0.02719147,0.062322382,0.074827895,0.24042533,0.07636284,0.009782007,-0.004371161,0.022380123,0.10786898,0.017622953,0.082587905,-0.4377779,-0.14361006,-0.06779414,0.20480724,0.031102221,0.0963164,0.1335737,0.31593975,0.29220226,0.33547926,0.34547716,0.23034355,0.32813662,0.26586825,-0.13233872,-0.2543588,-0.32542163,-0.29049993,-0.22094351,-0.15077944,-0.13969748,0.78126353,0.7995267,0.7655371,0.6905474,0.73961747,0.7561463,0.7036346,-0.6698904,-0.60854137,-0.62679476,-0.64216465,-0.7000416,-0.59937245,-0.6088858,-1.0893458,-1.0027076,-1.0506916,-1.1224902,-1.1349709,-1.1302199,-1.0941793,0.5941942,0.57069606,0.63101244,0.58170867,0.64285654,0.6277919,0.563524,0.6419702,0.64316154,0.563478,0.67026633,0.601096,0.5479297,0.5633835,-0.1444131,-0.18097936,-0.1440658,-0.15472424,-0.08483469,-0.12409276,-0.1708189,0.029549722,0.08081047,0.10440948,-0.0024848315,0.029838871,0.008259282,0.12346942,0.103608504,0.1487224,0.221758,0.15463622,0.20876619,0.17356129,0.2263626,0.30534583,0.37129405,0.28099,0.29671726,0.31088516,0.35902336,0.3736914,0.058201592,0.05851579,0.1307249,0.11085329,0.12749304,0.15434383,0.0609988,1.1563878,1.144299,1.1632011,1.0832503,1.0900688,1.147261,1.0986601,-0.0050775665,0.061623123,0.06660934,0.10620146,0.119830266,0.08480113,0.04596942,-0.322852,-0.35250652,-0.29445958,-0.4233087,-0.4232917,-0.32427895,-0.36431605,0.40779725,0.4168164,0.33588415,0.3633318,0.4247138,0.42740968,0.3649236,-0.14445335,-0.19184823,-0.18454425,-0.17475405,-0.13751565,-0.17112063,-0.18377337,-0.15924056,-0.073740795,-0.17799918,-0.11644062,-0.048029922,-0.050342966,-0.097341076,0.65478766,0.6464382,0.6349269,0.6680687,0.7187676,0.72389287,0.6342306,-0.077191785,-0.16482832,-0.143639,-0.18795261,-0.1731898,-0.067341164,-0.19700849,1.4346455,1.3727678,1.380413,1.3527743,1.3539356,1.3726646,1.3455827,-0.2818638,-0.3229217,-0.3301785,-0.2733804,-0.3499558,-0.37789476,-0.26898545,0.63866955,0.6000383,0.6708693,0.64779824,0.73436797,0.70221186,0.730098,0.71936256,0.61533976,0.65359765,0.67172354,0.6915354,0.65523034,0.68556136,0.3744199,0.3530303,0.36275014,0.307813,0.30377114,0.24399865,0.29150605,0.5620929,0.5337012,0.41565615,0.18734859,0.082007505,0.14846578,0.46967992,0.41374815,0.09385679,0.08064502,0.3820269,0.7525271,1.1715794,1.4264766,-0.7819953,-0.33230537,-0.01675669,0.29408672,0.47477114,0.65032995,0.8392631,0.017350612,0.006662083,0.07187264,0.10502351,0.06518024,0.08183341,0.06273542,-0.15783204,-0.19272767,-0.19174638,-0.15737562,-0.103768736,-0.12220774,-0.057394233,-0.48414826,-0.41835785,-0.48108277,-0.44968665,-0.5079621,-0.41343835,-0.41928747,-0.28677806,-0.43670586,-0.4874877,-0.400758,-0.32558644,-0.21315376,-0.36703753,0.6779359,0.5851737,0.67460907,0.60883623,0.67250305,0.5793296,0.6242718,0.6100684,0.6092836,0.6020562,0.7107755,0.6812349,0.60441124,0.66651607,0.27210093,0.29782143,0.3456353,0.30551592,0.23805068,0.28200188,0.34665582,0.44616872,0.37338313,0.4393304,0.38123745,0.4969626,0.40269408,0.4462457,0.7155546,0.80609983,0.8118446,0.6900867,0.7337538,0.80023336,0.81079453,-0.4744812,-0.4660918,-0.46755695,-0.36796883,-0.4360956,-0.42223093,-0.4220075,0.13491485,0.06300024,0.12767799,0.09078746,0.051145416,0.07990284,0.09169625,-0.014589612,-0.084756956,-0.13868931,-0.12082535,-0.077595875,-0.08641521,-0.08299437,-0.5401091,-0.46859396,-0.534688,-0.47404596,-0.48059127,-0.5516356,-0.5085568,-0.16269924,-0.22490679,-0.201332,-0.1614377,-0.13584508,-0.21211943,-0.21780081,1.5409505,1.5662776,1.4596362,1.5172536,1.4603894,1.5568963,1.4980766,-0.31086516,-0.3237969,-0.2636485,-0.3420702,-0.23035547,-0.2267406,-0.29521412,2.3423266,2.3499346,2.3416405,2.3858454,2.4664814,2.4139748,2.4284916,-0.011347254,0.014236165,0.06993758,0.007253798,0.030395579,0.038131125,-0.028453859,0.020801632,-0.057344936,0.010161102,0.022039192,0.05082496,0.020289017,0.009781473,-1.29065,-1.3305256,-1.4033892,-1.3299087,-1.3810052,-1.2966738,-1.3720708,-0.8854823,-0.9007509,-0.8108353,-0.875262,-0.79684794,-0.8919026,-0.8606911,0.030446947,-0.033572316,-0.036687996,0.05075856,-0.026440114,0.015113506,0.014223468,2.444896,2.4643493,2.5136154,2.5165734,2.463953,2.5265808,2.464433,0.09791015,0.061201476,0.03661976,0.06494289,0.064123556,0.15361331,0.12935121,-0.88169086,-0.93957204,-0.82750744,-0.81545824,-0.7963713,-0.8422827,-0.89005625,0.78203356,0.77915645,0.7885061,0.80024076,0.7388744,0.819786,0.8607888,0.42436883,0.36233693,0.3309334,0.31083965,0.28699145,0.33385178,0.29951137,0.19303355,0.26718485,0.23557457,0.08596486,-0.057890803,-0.07769528,0.06776028,0.063346565,0.01787178,0.018616293,-0.01650967,-0.08861046,-0.12692097,-0.23806635,1.4210832,0.8106153,0.47410113,0.07271065,-0.31259015,-0.7047858,-1.1986303,0.020826465,0.0361028,0.0016440311,-0.014151455,0.037168138,0.12798971,0.15119754,0.19447793,0.17522144,-0.007151299,-0.007018,0.21389155,0.11567396,-0.020674096,-0.17547607,-0.17987163,-0.14674291,-0.15994138,-0.16248092,-0.2189686,-0.23027772,-0.15945607,-0.22160378,-0.29495838,-0.32602254,-0.2544702,-0.2537489,-0.11706075,-0.98554754,-0.9250464,-0.9804522,-0.92113364,-0.87773085,-0.907846,-0.936948,0.8320369,0.8435133,0.86352986,0.8639909,0.78727716,0.8429103,0.7401394,0.4087293,0.3133293,0.3472756,0.4197871,0.40053046,0.411281,0.36199063,0.20002009,0.22782373,0.22156247,0.2006539,0.20034672,0.15144631,0.14128293,-0.27485886,-0.31900325,-0.33514977,-0.27349502,-0.26052326,-0.26177675,-0.32118347,0.07530417,0.10649738,0.005968798,0.059353728,0.00744348,0.11054829,0.10961036,0.12101515,0.08807295,0.09137145,0.04761706,0.04292337,0.026398834,0.10626379,-0.056842748,-0.053651493,-0.008139616,0.0059212674,-0.0361991,-0.006869037,0.011688728,-0.22786123,-0.19103436,-0.19029044,-0.14792454,-0.14714326,-0.1593373,-0.18983898,-0.12510677,-0.055821594,-0.022557156,0.0014289843,-0.0012629861,-0.09069338,-0.02214257,0.17748985,0.1354481,0.14321718,0.2053931,0.15998688,0.21568532,0.16510335,0.76756567,0.64100957,0.6943987,0.6750511,0.76801,0.76123965,0.71706295,1.0242234,1.0299857,1.0109528,1.0473473,0.9852608,0.994194,1.063636,-0.045017287,-0.008591582,-0.014222786,0.039112844,-0.029120944,-0.039614033,-0.028639397,0.6042943,0.6193634,0.6495768,0.58567214,0.6399133,0.6666149,0.57304233,0.08439541,0.031146584,0.0858409,0.010478366,0.06965876,0.122993946,0.04332984,0.66604173,0.79904306,0.71129274,0.76297134,0.70743585,0.7109151,0.6929799,-0.2010179,-0.15015697,-0.21220748,-0.10523126,-0.194665,-0.13748668,-0.23018469,1.4028246,1.3939036,1.4372597,1.4887706,1.4838668,1.5241017,1.4099181,-0.5979181,-0.6019104,-0.55637974,-0.56803113,-0.5734901,-0.6354138,-0.65394473,-0.08428668,-0.06889597,-0.13851012,-0.12513137,-0.13590352,-0.14102201,-0.11653109,-0.75650775,-0.70930094,-0.7966546,-0.8248701,-0.8376192,-0.8681997,-0.9313696,0.78236717,0.77752453,0.87764704,0.88734543,0.8429625,0.748528,0.7736482,0.5185893,0.61046684,0.63255626,0.8795546,0.8701008,0.88136494,0.5171691,-1.4166812,-0.7156982,-0.3619935,-0.16013938,0.09329604,0.47099212,1.0941296,-1.3708024,-0.6660094,-0.050315447,0.5866057,1.0469711,1.4690824,1.8071935,0.09755732,0.06522289,0.018907884,0.08990125,0.042350315,-0.049698588,-0.024327297,-0.38383827,-0.21566464,-0.028438928,0.1114599,0.15014018,0.03426206,0.1221123,0.096427076,0.059201963,0.047361556,0.022385914,0.005793271,-0.010045674,0.030012976,-0.14282688,-0.2504606,-0.30069175,-0.2519647,-0.4907491,-0.6864739,-0.80698365,-0.2087575,-0.09586048,-0.12208034,-0.2046393,-0.11315131,-0.19240679,-0.11566225,-0.8094281,-0.77000695,-0.7780725,-0.72967386,-0.74703014,-0.7892577,-0.79084605,0.916529,0.84785545,0.8013777,0.8644218,0.85600436,0.826048,0.80657923,-0.0326586,-0.048921835,-0.04279904,-0.048475213,-0.084179565,-0.02962177,-0.07269408,0.4291446,0.35425895,0.34370968,0.4733327,0.40208283,0.37649512,0.4040603,-0.29125226,-0.39546993,-0.2768977,-0.2854527,-0.2910047,-0.38010904,-0.3017576,-0.052634303,-0.025591943,-0.0015792628,0.022006785,-0.059206747,-0.005894823,-0.041213617,0.21242899,0.2216465,0.2313087,0.14381085,0.16917305,0.25349608,0.1852163,0.10553801,0.06251733,0.06250601,0.027802035,0.03675482,0.052941497,0.113115646,-0.696745,-0.7282065,-0.78127664,-0.6825247,-0.78473735,-0.7276278,-0.7970536,-2.6976688,-2.7330556,-2.6382015,-2.759261,-2.6896415,-2.6382322,-2.7120397,-1.51988,-1.5186776,-1.4567667,-1.4570386,-1.4398398,-1.4867129,-1.4153085,-0.9174933,-0.9257074,-0.9634068,-0.9722181,-0.90267617,-1.001694,-0.8958184,-1.9490112,-2.0000913,-1.894741,-1.9447476,-1.9924018,-1.9823327,-1.957654,0.40361542,0.45792148,0.48424447,0.43892747,0.42527613,0.44925576,0.4261081,0.3602765,0.30107185,0.26861948,0.25136173,0.34613445,0.29158452,0.2969808,0.55681854,0.52619237,0.4445487,0.4682962,0.5417809,0.46830752,0.5421455,-0.017359149,-0.03223971,-0.057384577,-0.036614418,-0.03442386,-0.023937533,0.024368685,-1.306495,-1.4417126,-1.4421961,-1.3089975,-1.3643181,-1.3838677,-1.351915,0.85928994,0.8016656,0.88665766,0.8238688,0.81933683,0.7701928,0.8068429,-2.111245,-2.1122506,-2.0505416,-2.127265,-2.1357086,-2.1941273,-2.210106,-0.6657573,-0.7184668,-0.6362211,-0.66459686,-0.65524274,-0.66317743,-0.69144607,-0.29268202,-0.27326903,-0.3346056,-0.35817018,-0.3563572,-0.3354787,-0.2478374,0.5981596,0.1380814,-0.08450588,-0.32996944,-0.48614347,-0.63536704,-0.74743044,-0.3115343,-0.24095799,-0.09139799,0.15932344,0.4215549,0.7997283,1.1492188,-0.57262516,-0.3493746,-0.2511718,-0.16752996,0.086126626,0.25016072,0.579265,0.033327334,0.09836109,0.035022702,0.045571744,0.1567611,0.096181735,0.20804493,0.32262605,-0.05474659,-0.046364572,0.08815457,0.11296712,-0.011289529,-0.2656886,0.22291555,0.2622072,0.25414014,0.26657024,0.28126442,0.18542475,0.2863856,-0.4522134,-0.2163926,-0.07943789,0.08693402,0.1697276,0.30450317,0.5543125,-2.2259395,-2.0954578,-2.139464,-2.1657631,-2.1639924,-2.211478,-2.1410422,-0.7186236,-0.7613662,-0.7660225,-0.67044634,-0.6696902,-0.68660134,-0.7097587,-0.32150406,-0.31479907,-0.28179017,-0.3577209,-0.3488786,-0.30614457,-0.34556156,0.10303692,0.13394721,0.1940471,0.1414163,0.18099312,0.09040075,0.18914658,0.34246963,0.28921112,0.36662844,0.35893625,0.3868629,0.31634033,0.32660934,0.3182558,0.26912987,0.30348852,0.2767647,0.30220374,0.34690657,0.31625846,0.11786598,0.081300616,0.07365074,0.12389361,0.0728692,0.16278964,0.13287106,0.21763076,0.2657699,0.18344802,0.19104294,0.22390954,0.2270745,0.16719511,0.22124436,0.21285033,0.23453061,0.16711214,0.2315621,0.19113596,0.20245218,0.2794241,0.26146752,0.22990176,0.22283286,0.21472785,0.2920931,0.26386228,-1.8160536,-1.7314035,-1.8474207,-1.818478,-1.7327392,-1.7896636,-1.733579,-0.31459934,-0.25667867,-0.336501,-0.3450551,-0.353974,-0.23096503,-0.35260513,-0.26177248,-0.1934839,-0.26718605,-0.30595416,-0.22665566,-0.2565896,-0.28274646,-0.34776938,-0.3054872,-0.28022814,-0.25490913,-0.37536538,-0.33980474,-0.35632515,-0.46475723,-0.43264055,-0.48221168,-0.4760292,-0.43108845,-0.47980753,-0.46229804,-1.4016486,-1.3633695,-1.346242,-1.4294441,-1.3957125,-1.3438151,-1.3445475,0.30036956,0.38153183,0.25400773,0.28352466,0.37310362,0.3229045,0.30062875,-0.026695412,-0.020807078,0.013619667,-0.082202785,0.008635722,-0.022348432,0.012277578,0.6595194,0.69627184,0.6927543,0.7135244,0.72805065,0.7156463,0.6543774,0.52084154,0.53548735,0.43981117,0.53916556,0.4506303,0.46612704,0.5348555,0.88061243,0.7547537,0.8075001,0.80404395,0.856907,0.8389218,0.8167284,-0.86861855,-0.9713811,-0.9657931,-1.0234147,-1.0715158,-1.0821377,-1.1127541,0.057543244,0.0935455,0.05785482,0.07367798,0.08793533,0.11039372,0.051465336,0.03641344,-0.15051876,-0.18570927,-0.155569,-0.31179515,-0.6765671,-1.367248,-0.06476442,-0.06496663,-0.019892028,-0.07833355,-0.12112866,-0.18054976,-0.2530525,-1.6607122,-1.1325629,-0.72937125,-0.3163656,-0.05943566,0.23500009,0.5963572,0.058822934,-0.012003944,-0.011550232,0.010206484,0.05900732,0.040409647,0.027908985,-0.36521778,-0.38747168,-0.17109625,-0.07331302,-0.03874789,-0.058782518,0.029095158,0.10645915,0.04212336,0.102388926,0.048865993,0.122524075,0.028677879,0.031744692,0.21907553,0.004431559,-0.20545943,-0.3037588,-0.47477555,-0.605779,-0.7546083,0.75944287,0.7108359,0.8272128,0.74467117,0.8098528,0.8265965,0.8129626,-0.89357483,-0.9506063,-0.98494476,-0.9672672,-0.8860633,-1.0091875,-1.0081567,0.03407459,0.09621725,7.906464e-05,0.08188996,0.018541172,0.031489894,0.041252278,-0.8367537,-0.7536491,-0.80771744,-0.7361758,-0.86461306,-0.8004768,-0.84565073,-0.30188704,-0.23616736,-0.26837003,-0.3097018,-0.31844518,-0.22802162,-0.2307132,-0.5594327,-0.6099992,-0.63201976,-0.5134387,-0.55871177,-0.51208377,-0.63844144,0.04674609,-0.04820157,-0.038730588,0.055619664,-0.012375821,0.021120548,0.06794656,0.03968473,-0.010287419,0.04551539,-0.016528346,0.06923705,0.012148236,0.021826722,0.018300036,-0.01702794,0.028141472,0.020124687,0.06454744,0.017764436,0.09538601,-0.17356761,-0.2009007,-0.20965949,-0.16759983,-0.23162301,-0.29419288,-0.16288236,-1.1702405,-1.2332575,-1.1536014,-1.1913139,-1.1787901,-1.2239484,-1.2591116,-0.09550279,-0.19896376,-0.09754409,-0.20412302,-0.114889435,-0.12136087,-0.20134024,-0.7061586,-0.6741198,-0.6238842,-0.70824677,-0.6920498,-0.7282729,-0.686122,-0.007949267,0.038730588,0.038556814,0.046553686,-0.0110428445,0.029669838,0.076859735,-0.25853544,-0.32022932,-0.29179284,-0.20982572,-0.26571578,-0.25400007,-0.31870356,0.32209948,0.2941492,0.3902609,0.35288,0.290348,0.29884097,0.32186252,0.6390549,0.6566752,0.60233,0.62653536,0.60594994,0.63373953,0.6128109,-0.09338006,-0.07305967,-0.053916518,-0.14445522,-0.15838209,-0.051075112,-0.11112151,-0.15043713,-0.17398478,-0.16250837,-0.16126171,-0.09756156,-0.06392085,-0.11079604,0.95225394,0.9674608,0.8755206,0.8818897,0.9866577,0.9407056,0.99247164,0.975395,0.97101974,0.923861,0.9918044,0.9592095,0.9803813,1.0378295,-0.14462693,-0.16892242,-0.09469113,-0.09706324,-0.06953098,-0.06850022,-0.08239423,0.07233925,0.02167554,0.06301693,-0.030524196,-0.030130893,-0.018367143,0.0059913644,0.13721408,0.21965282,0.28888324,0.43719223,0.4678725,0.6489408,0.9008102,-0.3615533,-0.29421985,-0.34913468,-0.11935678,0.0017121846,0.23329298,0.38201728,-0.21387258,-0.13404945,0.12635414,0.19896866,0.3856657,0.5218771,0.6778501,-0.033014048,-0.03565673,0.0160241,0.06135928,0.0633578,0.05623709,0.030417686,-0.122467205,-0.1093262,-0.030175991,-0.10733816,0.06498474,-0.041882068,0.0742083,-0.18147138,-0.11146518,-0.12435672,-0.109810024,-0.12201009,-0.18881291,-0.14191596,0.13265434,0.14749873,0.08867339,0.24594146,0.23365976,0.32213503,0.26384223,0.9461981,0.99033034,0.8989889,0.90842736,1.0020405,0.99568594,0.951706,-0.10928366,-0.13175835,-0.17734896,-0.06921333,-0.1593763,-0.04797881,-0.1210449,0.020494923,0.016486669,0.057776853,0.0847082,0.07457844,0.08738754,0.08976202,0.85335654,0.78750926,0.8344706,0.83364,0.8432741,0.8425802,0.85312253,0.023595229,-0.010164005,0.018036306,0.020991627,0.048149895,-0.04499923,0.008316573,0.21797447,0.24471894,0.3255462,0.32570454,0.3246989,0.21703742,0.25462657,0.06724744,0.004808704,-0.018774377,-0.03666742,0.010017355,0.032773,0.07260386,-0.4385453,-0.40187138,-0.4430837,-0.3183392,-0.43223926,-0.3454456,-0.40015185,-0.12303294,-0.12725209,-0.11386319,-0.21941769,-0.1720543,-0.21264383,-0.1655962,0.08609353,0.12984246,0.17809817,0.13619198,0.1612645,0.15314516,0.17531957,1.5847844,1.5503819,1.547234,1.4773499,1.5346779,1.5139697,1.5701959,1.3391116,1.3845236,1.3694936,1.3415796,1.3121523,1.2735082,1.344685,2.0317402,2.0272245,1.9570259,1.9510229,1.9600048,1.9956666,1.966918,0.33792418,0.32825175,0.39304513,0.43393838,0.35807475,0.40427533,0.3900543,-0.6452166,-0.68496996,-0.5737887,-0.5636934,-0.6515453,-0.6282899,-0.6176446,0.19692722,0.21567206,0.24806756,0.22661631,0.111797735,0.20454329,0.13920996,-2.0589652,-2.160376,-2.0337396,-2.083132,-2.0802112,-2.0939648,-2.0753877,-0.3459722,-0.30406836,-0.32437468,-0.25702813,-0.32963744,-0.2686221,-0.29320934,1.4861532,1.449301,1.414044,1.4276149,1.390241,1.4913278,1.4124885,-0.5462236,-0.525445,-0.5065108,-0.60293734,-0.56549364,-0.51551634,-0.52346224,-0.23527674,-0.25273374,-0.30895403,-0.31245944,-0.20275013,-0.23853828,-0.32280457,1.0042838,0.94912297,1.0640626,1.1004688,1.0468199,1.0184834,1.1648879,0.39741927,0.38027614,0.43218663,0.30087852,0.28188807,0.37937006,0.30093074,-0.4265667,0.09521709,0.540149,0.741319,0.90188617,1.1403584,1.2581835,-0.9292052,-0.71845925,-0.4475502,0.02087814,0.46516147,0.93310285,1.3987374,1.1256313,0.4996846,-0.026827663,-0.38577873,-0.5891842,-0.7984441,-1.1175723,-0.21198422,-0.12930815,-0.121025495,-0.19197236,-0.20442167,-0.13880214,-0.14881384,0.040730204,0.13327943,0.047899503,-0.010826078,0.010311745,0.04669232,0.06579454,0.20460118,0.19501245,0.11949972,0.11837817,0.21294244,0.16321856,0.26978973,-0.40718216,-0.31582496,-0.1400861,-0.13306664,-0.2943841,-0.25147897,-0.25103816,-0.27091157,-0.27664655,-0.28310493,-0.20830673,-0.19550079,-0.23878318,-0.25906432,1.112787,1.0243318,1.1100217,1.0354112,1.0163338,1.0968513,0.9963694,0.45563045,0.3507385,0.3583752,0.4333404,0.41274306,0.3473295,0.3465585,0.2931922,0.34545714,0.3155999,0.28899586,0.39882347,0.3820944,0.37197036,0.04769652,0.076032706,0.11824792,0.047042113,0.046709184,0.019650556,0.08735683,0.15596302,0.18151186,0.11463214,0.22775471,0.13863361,0.20829028,0.13162382,-0.20966923,-0.21138963,-0.1419035,-0.13562714,-0.11653215,-0.17259634,-0.105241165,0.054352395,0.03747051,-0.033975113,0.009062019,0.01611906,0.072176695,-0.050976004,0.20907338,0.1998821,0.27089456,0.21473937,0.19162217,0.25073552,0.27606744,-0.24850105,-0.15018788,-0.22394443,-0.15881911,-0.23937248,-0.20843932,-0.23989247,-1.2655491,-1.2013183,-1.1718272,-1.2721982,-1.241875,-1.1434447,-1.2002655,0.24311997,0.22745442,0.33728647,0.34615165,0.23846185,0.25088358,0.2585733,1.1440059,1.1976444,1.1850953,1.1966653,1.0896696,1.15763,1.1338317,-0.12121317,-0.035658434,-0.1321897,-0.10250922,-0.02961253,-0.108886465,-0.025205001,-0.28323787,-0.2503536,-0.20943983,-0.19556633,-0.25287032,-0.264277,-0.27620766,-0.050274916,-0.045625545,-0.030777963,-0.08770578,0.035569124,-0.015013165,0.04752869,-2.067503,-2.0884376,-2.1524265,-2.1374452,-2.1162527,-2.0834873,-2.0803404,-0.1584465,-0.11606752,-0.11902711,-0.1011075,-0.16183966,-0.16979355,-0.1487281,0.8859526,0.85166305,0.8729274,0.8921733,0.9555686,0.8357405,0.85118717,-0.022325186,-0.02266238,0.03262174,-0.017527495,0.07823997,-0.03303594,-0.023409726,0.72207934,0.70898485,0.7366748,0.6231524,0.6854695,0.6480287,0.68275964,-1.2394931,-1.1576283,-1.1810718,-1.2347071,-1.1706417,-1.2535889,-1.1864786,-0.11921709,-0.110527106,-0.08815288,-0.13782687,-0.094742514,-0.07602818,-0.15520066,0.49378887,0.46049955,0.24985512,0.18511753,-0.02949632,-0.3300379,-0.54236615,-0.18867758,-0.16975926,-0.21811537,-0.3390182,-0.24323408,-0.07485698,0.29583248,0.024637684,0.25974652,0.33104888,0.46121585,0.5431038,0.67005336,1.0858563,0.08024641,0.048807576,0.037296303,0.1467673,0.083621755,0.12358746,0.030057302,-0.3862081,-0.2321937,-0.12613378,-0.015051571,-0.07434523,-0.30877864,-0.3368956,-0.11618569,-0.18167058,-0.08937372,-0.18941468,-0.060124308,-0.1720437,-0.20719434,0.08155081,0.14242065,0.07902062,0.18632819,0.3443823,0.44784036,0.5451107,0.7121496,0.6793815,0.641854,0.6935077,0.6768335,0.6233682,0.6993961,-1.3360951,-1.3411297,-1.3269987,-1.3369423,-1.3191804,-1.2463157,-1.3001984,-0.20521978,-0.18787315,-0.19830248,-0.09057566,-0.15092236,-0.19014826,-0.13319458,0.19964963,0.25926295,0.22318326,0.21702185,0.27498415,0.19481936,0.25420657,0.30334726,0.3360876,0.24385461,0.28784633,0.31228682,0.3385583,0.33195367,1.1353295,1.1431153,1.116252,1.1921532,1.1021329,1.1046313,1.1031084,0.10599394,0.07804402,0.113000736,0.1536529,0.08968276,0.08056924,0.119697295,-0.12414532,-0.13708094,-0.14164647,-0.15170257,-0.14500025,-0.12688816,-0.22416967,-0.11383816,-0.09741534,-0.10135332,-0.10842123,-0.20465495,-0.07577817,-0.1033021,0.41610712,0.4373004,0.3639033,0.40564382,0.46227217,0.3561931,0.35703894,0.25101167,0.18200476,0.16049972,0.23509263,0.17344931,0.16639927,0.21905346,0.7646907,0.69933933,0.7590601,0.75459874,0.63411736,0.76591724,0.70507216,0.3662557,0.35501805,0.28587782,0.34533483,0.38121778,0.37323835,0.39215666,0.57107484,0.6261478,0.61507565,0.63183314,0.5221625,0.6259965,0.5472406,-0.2942444,-0.35608485,-0.36012718,-0.3777664,-0.3426862,-0.33941364,-0.3221193,0.1354962,0.13470519,0.022267297,0.017763088,0.12121016,0.13303575,0.034122553,-0.30438808,-0.32562742,-0.2543849,-0.26648787,-0.21129288,-0.22033605,-0.26800492,0.0025614873,-0.02083257,0.08292691,-0.023255311,0.08094057,0.018578108,-0.037191663,-0.03227504,-0.019680489,-0.04909006,-0.091710046,0.006693154,-0.035170022,-0.045386992,0.19525693,0.3213978,0.31879956,0.22856407,0.19387981,0.28759146,0.23074041,0.23055296,0.13461141,0.19074461,0.22427645,0.27896804,0.27273366,0.19850451,0.8324713,0.7626005,0.76939553,0.7907685,0.78749543,0.7889004,0.8002861,-1.172661,-1.1578766,-1.2340275,-1.1171327,-1.1611769,-1.1917648,-1.1633512,0.30367902,0.27570206,0.19348013,0.16134156,0.3912288,0.54142,0.7398446,-0.17687713,-0.20343718,-0.36408585,-0.42183146,-0.51169324,-0.77566755,-1.0568895,1.5513499,0.88267934,0.3441937,-0.008412311,-0.37658736,-0.7294497,-1.1865742,0.036069497,-0.033763025,0.06011523,0.06379786,0.06683349,0.0016517332,0.009861262,-0.60331887,-0.55609393,-0.28952506,-0.21392533,-0.123264655,-0.16775435,-0.05855061,-0.014269705,0.07122484,0.014710101,-0.00304029,0.0129166525,0.053894494,0.016864067,-0.26112488,0.037063356,0.18104622,0.31122023,0.3828081,0.5223611,0.7461877,0.18560746,0.19059841,0.20835714,0.24583703,0.20415157,0.14735515,0.19502231,0.7033477,0.8181125,0.73399603,0.8174029,0.8099931,0.7346557,0.71216625,-1.1470706,-1.1206224,-1.1948906,-1.1638491,-1.1753938,-1.2232988,-1.1512945,0.19156161,0.25144178,0.28694814,0.2861624,0.19938426,0.22770886,0.28010857,-0.07851643,-0.055181574,-0.09890268,-0.038294055,0.00720689,-0.04967074,-0.06041991,0.31020796,0.3115433,0.31065914,0.34217346,0.340375,0.2911338,0.2377716,0.06473261,0.07376382,0.10192027,-0.01013568,0.066038966,0.082244694,0.06653343,-0.11667315,-0.13140716,-0.053780854,-0.007924339,-0.088525794,-0.0029160471,-0.08592667,0.06008506,0.06695997,0.016131176,-0.04099069,-0.04475187,0.0027739692,0.020314554,-0.09838645,-0.008671043,-0.013827615,-0.12257673,-0.072309226,-0.0046408237,-0.06995094,0.2490123,0.24620149,0.19551212,0.24184918,0.2770956,0.2733302,0.26348227,0.8196528,0.8211808,0.8151381,0.7289062,0.7758612,0.7743662,0.7747274,-0.022536082,-0.069672525,-0.13062365,-0.043354463,-0.035587884,-0.087545894,-0.020156423,1.2363685,1.2924726,1.2453752,1.2113917,1.3076477,1.2184385,1.2160109,0.110974796,0.119843945,0.06664711,0.075878486,-0.00026470964,0.008155359,0.029080318,0.2895985,0.249565,0.34907448,0.38039115,0.31544334,0.27744073,0.3149879,0.5564664,0.5651864,0.52960557,0.5379525,0.5333104,0.54977167,0.6099769,-0.12414835,-0.11653347,-0.16820638,-0.15597855,-0.11556037,-0.08798182,-0.12399209,0.3126562,0.34807587,0.32915992,0.2557963,0.3060866,0.26856878,0.37155804,-0.25661385,-0.29812813,-0.23632476,-0.31090444,-0.30668652,-0.22832303,-0.24814267,0.5586065,0.49992502,0.51294786,0.45918828,0.40740353,0.5167288,0.4115551,-0.942578,-0.8994429,-0.9437019,-0.9821675,-0.89281505,-0.9458399,-1.1122795,-0.7766762,-0.79045385,-0.8149207,-0.6795319,-0.76914823,-0.72264093,-0.7620982,-1.09746,-1.0615255,-1.0751354,-1.102198,-1.2287017,-1.1542403,-1.0913092,-1.0275958,-0.72099227,-0.71091753,-0.7591593,-1.0661975,-1.563992,-2.3547535,-0.7061239,-0.48846725,-0.3617859,-0.2385599,-0.14138341,-0.052251272,-0.22856663,0.109015666,0.03243221,0.0039310437,0.047301084,-0.0013991703,0.033031546,0.051114548,-0.6812177,-0.5854021,-0.20865752,0.08053942,0.04781697,0.035665106,-0.04344262,0.21895316,0.20916444,0.26793066,0.306239,0.26233026,0.35934496,0.30051523,0.018997673,-0.2357413,-0.32463187,-0.33801416,-0.29887938,-0.15975362,0.013999544,0.5152343,0.56852907,0.59695643,0.5206659,0.51618207,0.48221353,0.57202244,-1.0257648,-0.9835406,-1.0341058,-0.9931719,-1.0077543,-0.9189775,-0.95999634,-0.74001265,-0.8209437,-0.808127,-0.74222076,-0.7941022,-0.79862356,-0.7617839,-0.8730829,-0.84111637,-0.855832,-0.84721065,-0.76458925,-0.79418766,-0.79605234,-1.2454839,-1.2143694,-1.1941882,-1.171495,-1.2373881,-1.1677374,-1.2428827,-0.36045805,-0.31349587,-0.37548837,-0.39635998,-0.33325708,-0.37240365,-0.36798498,0.055106387,0.07637005,0.018529784,0.02668689,0.07967519,0.102142505,0.09682968,0.294308,0.2504177,0.22057015,0.23752809,0.21522954,0.18239896,0.29620042,0.20302705,0.25208622,0.32262915,0.22684452,0.2819258,0.22444966,0.2773406,0.4334062,0.42649448,0.39042565,0.38720298,0.39153123,0.41329786,0.46632108,-0.55990636,-0.5835148,-0.52564424,-0.5391884,-0.55952305,-0.5787684,-0.58716065,-0.39476243,-0.33885384,-0.40340453,-0.33929247,-0.36561936,-0.42601675,-0.37878928,-1.4371923,-1.464305,-1.3924707,-1.3891345,-1.3972415,-1.3993998,-1.4812461,-1.0385598,-0.9888909,-1.0399703,-1.0572504,-0.9691876,-1.0076942,-1.008052,0.12755023,0.18978313,0.2373435,0.14709266,0.17761444,0.15860589,0.14647605,-0.42681432,-0.5279297,-0.44370732,-0.46549478,-0.45756504,-0.4357725,-0.47950837,0.7520679,0.77081925,0.7485304,0.79605395,0.71930397,0.6759383,0.6687695,-0.07617583,-0.08097824,-0.08940354,-0.15790473,-0.16267788,-0.08361961,-0.03361899,-1.50073,-1.4793363,-1.4355326,-1.4008421,-1.4116404,-1.3709012,-1.4393837,0.35488096,0.2448216,0.25154054,0.24068739,0.31572762,0.2528039,0.30589956,-0.1320759,-0.05053153,-0.033766598,0.055400427,0.044704966,0.022730604,-0.07909093,0.06972792,0.0012149411,0.030732576,0.06701746,0.05063167,0.10698366,0.029733704,-0.0020777285,-0.0853176,-0.10340908,-0.020820834,-0.034210715,0.0010101045,-0.022211969,-0.54640144,-0.27105662,-0.093425296,0.05697008,0.21224344,0.30289546,0.4960063,-0.049795244,-0.283454,-0.32558635,-0.13784438,-0.040074646,0.11675324,-0.09371752,0.26971242,0.24715246,0.08948644,-0.1121237,-0.2421224,-0.29743308,-0.37255672,0.16486886,0.21108228,0.1566816,0.23921849,0.17723757,0.24217288,0.2379291,0.14459303,0.07016912,0.013787962,-0.14353627,-0.043642133,0.018828347,-0.006309125,-0.56744033,-0.61469924,-0.56444764,-0.54376674,-0.51446646,-0.619774,-0.5985797,-0.30427077,-0.095086046,-0.05935764,0.1226676,0.18769345,0.115287594,0.06467759,-0.098663755,-0.053084876,-0.065744676,-0.112743616,-0.02697463,-0.040761217,-0.12162883,0.11428385,0.105175026,0.20429257,0.22541495,0.10576445,0.21487077,0.19113319,-0.02518372,-0.13493688,-0.12322306,-0.13815883,-0.13300514,-0.12398246,-0.06856448,-0.07289588,-0.04983923,-0.066688165,-0.11394331,-0.072051845,-0.021569923,-0.03938722,0.0992081,0.034785356,0.02576349,0.032608304,0.08227063,0.03782818,0.112672165,0.022229116,-0.05189734,0.033408444,-0.0018330102,-0.040382866,0.0058519877,0.04596937,0.26219803,0.21384244,0.28197682,0.1934851,0.2475151,0.27971116,0.3019555,-0.14581919,-0.04052386,-0.08978124,-0.11206278,-0.06382981,-0.043351043,-0.04752921,-0.524312,-0.6204058,-0.56510526,-0.6124542,-0.64663523,-0.6425085,-0.61359054,-0.08431547,-0.110353224,-0.07219478,-0.12208763,-0.097109854,-0.10257655,-0.12655172,0.88669467,0.90591395,0.93184465,0.8903468,0.9340149,0.8949292,0.94939417,-0.45616156,-0.47028527,-0.5520257,-0.46853736,-0.545694,-0.49691966,-0.5038865,-0.2593018,-0.16868678,-0.20930034,-0.1735622,-0.1977977,-0.2741731,-0.25657117,-0.18800378,-0.25252214,-0.17246695,-0.24312253,-0.17357466,-0.21729827,-0.21723913,0.5126743,0.61994725,0.5914585,0.50908,0.57621765,0.55457157,0.5948959,-0.18865158,-0.2094872,-0.13735273,-0.15325175,-0.10403069,-0.117794916,-0.13354217,-1.3435143,-1.2577707,-1.3605294,-1.2668743,-1.3889701,-1.3047942,-1.263139,-0.19466183,-0.2043066,-0.0928537,-0.14060305,-0.10536016,-0.14712073,-0.17526457,0.47809547,0.39413956,0.51313835,0.41336933,0.43427065,0.49553242,0.46520054,0.28018808,0.27416354,0.25905687,0.27003783,0.21567513,0.20053513,0.21037585,-0.2623082,-0.24153401,-0.22219141,-0.17347169,-0.21411744,-0.25623766,-0.22515742,-0.03630457,-0.10657963,-0.0556015,-0.033538427,-0.017418269,-0.039847575,-0.10857485,-0.32923684,-0.320817,-0.3227343,-0.30935782,-0.34810275,-0.3515669,-0.29134303,1.0299585,0.7033153,0.49554658,0.1719419,0.070986584,-0.12804873,-0.05328314,0.90670085,0.7109191,0.5199991,0.34100387,0.15175328,-0.20538498,-0.5608728,0.9105921,0.6467864,0.4557303,0.14030896,-0.317437,-0.71917486,-1.3845549,0.16449296,0.07874889,0.19554228,0.18483107,0.14403489,0.1440314,0.18926667,0.049001824,-0.019012466,0.0687859,-0.08766757,0.053273786,0.07150964,-0.005797898,-0.2630162,-0.22605847,-0.24140334,-0.1887472,-0.211679,-0.2949765,-0.26706868,-1.1660935,-0.9210525,-0.74568325,-0.64564455,-0.2626484,-0.05499893,0.3638634,-0.28764585,-0.28071344,-0.26385427,-0.28984943,-0.31185374,-0.3438211,-0.24307476,-0.065425195,-0.13475175,-0.018272426,-0.124794945,-0.02245499,-0.13851173,-0.059622586,-0.3094026,-0.38261798,-0.33823353,-0.28971094,-0.3598084,-0.28103697,-0.32664183,0.73098934,0.76754,0.7910045,0.7398465,0.79002845,0.70061845,0.71055055,0.04063251,-0.029248258,0.025324158,0.048899688,0.013442097,0.084068716,0.072070345,-0.741489,-0.65438765,-0.68923086,-0.7021042,-0.6642778,-0.7055637,-0.64324343,0.20967476,0.15327445,0.22932355,0.22414938,0.20500676,0.11587119,0.22308537,-0.23160031,-0.16201063,-0.2152045,-0.19324383,-0.14994515,-0.22586581,-0.2489304,-0.2434273,-0.3227866,-0.28357187,-0.23392259,-0.21704428,-0.27658653,-0.33659792,-0.08568797,-0.0844553,0.025316263,-0.031922247,-0.05571711,0.009636576,0.010352464,-0.1764864,-0.15501775,-0.1384593,-0.07478177,-0.17279838,-0.08399067,-0.07896986,0.53125566,0.5006041,0.47971347,0.54886264,0.5409102,0.5441804,0.5674419,0.36329475,0.2709749,0.38254902,0.3487794,0.36712357,0.28138763,0.38874006,0.24099714,0.1890175,0.16183507,0.15501054,0.21978877,0.16621727,0.14016844,-0.25394037,-0.26960012,-0.24896066,-0.3177459,-0.30059284,-0.27999553,-0.3728447,-0.5393244,-0.5416061,-0.4898627,-0.4730825,-0.4849668,-0.54904336,-0.4851648,-4.257122,-4.2466397,-4.244816,-4.291438,-4.2882586,-4.313011,-4.3081527,-0.016758531,-0.027892081,0.016247429,-0.001088452,0.0016522885,-0.04828608,-0.057445955,2.175663,2.2020183,2.147744,2.2072725,2.1240954,2.1296532,2.1142285,0.007897179,0.046733875,0.045924075,0.025663784,0.10380927,0.092057884,0.05358175,-0.4079297,-0.28209502,-0.18750465,-0.21698096,-0.06991473,-0.11530418,-0.10373777,0.6519793,0.5951517,0.712071,0.7074411,0.70480424,0.6363824,0.6502233,0.9560288,0.7427108,0.6718532,0.61526674,0.53494173,0.573098,0.5101625,0.1080909,-0.08163553,-0.11628165,-0.06609235,0.06812515,0.3976382,0.5963513,0.8874408,0.488656,0.24484338,0.19923581,0.23756114,0.038704086,-0.22383161,0.011861381,0.025370818,-0.046673656,-0.0646867,-0.18468484,-0.2796157,-0.4598031,-0.33040696,-0.27256522,-0.29026902,-0.2516952,-0.22098637,-0.24949491,-0.24800207,0.13584898,0.14390875,0.024664097,0.01702255,-0.016215894,-0.06996006,-0.28443736,0.49333468,0.51340425,0.43366566,0.48207635,0.4275431,0.39863053,0.4835218,-0.17368001,-0.13020551,-0.21493797,-0.21324356,-0.15482473,-0.044653367,-0.008152184,-0.1123616,-0.14592956,-0.16774113,-0.2252983,-0.18832836,-0.17980056,-0.1679226,0.8333106,0.8346599,0.8217368,0.82258266,0.82671225,0.88999957,0.8051612,0.6771531,0.72554505,0.6891588,0.73540115,0.7411343,0.6513499,0.76340264,0.5787225,0.54211855,0.56272596,0.6569308,0.6104255,0.542343,0.59480894,0.88234794,0.87747973,0.8476937,0.873291,0.781325,0.7955316,0.89544404,-0.5476688,-0.58649504,-0.5482568,-0.60963,-0.59091395,-0.5658508,-0.62567544,-0.29740834,-0.26400697,-0.33867735,-0.29576474,-0.31431276,-0.34510618,-0.32862133,-0.08324481,0.017234726,-0.054847043,-0.061004188,-0.056397695,-0.03994714,-0.07625764,0.4961116,0.47543186,0.47658578,0.43062463,0.5119402,0.5105541,0.4391569,-0.05157023,-0.010973633,0.07216737,0.07471062,-0.047787458,-0.034425206,-0.015210189,1.620547,1.609228,1.6670612,1.6236408,1.725671,1.6741611,1.7299168,-0.25758198,-0.31881624,-0.29932484,-0.25217,-0.27006367,-0.25562233,-0.23445064,1.245858,1.2330219,1.1971529,1.2318952,1.2437333,1.3083601,1.2688746,-0.92592704,-0.9251096,-0.9864707,-0.9941877,-0.9448935,-1.0337517,-1.0223808,1.3288429,1.2559532,1.2583932,1.3157142,1.2300055,1.2822506,1.3006908,0.32257688,0.3027084,0.31039143,0.27119204,0.33502424,0.28890663,0.38886246,0.5945602,0.60563636,0.58443993,0.61665225,0.6205681,0.5150344,0.54485744,-0.0020176063,0.027364371,0.005677012,-0.084668756,-0.037114527,0.041122448,-0.056819227,1.1213517,1.187758,1.1626037,1.114761,1.0986954,1.0532614,1.0629606,-0.056432094,-0.051398963,-0.11415446,-0.15979736,-0.06253633,-0.10275062,-0.14317653,-0.19817287,-0.09893901,-0.0454135,-0.10242592,-0.11282051,-0.11517338,-0.14540057,0.74379,0.67762625,0.76275885,0.69569767,0.7203832,0.7248648,0.7314333,0.4782471,0.4686022,0.4138776,0.44535014,0.44102472,0.39372003,0.3765399,-0.33329844,-0.043344345,0.023360677,0.0985292,0.19050129,0.25812963,0.40726456,0.27746063,0.22222033,0.15919678,0.36743563,0.45820466,0.51105464,0.42599222,0.24926956,0.14393288,0.046826914,-0.12872873,-0.1899221,-0.36354977,-0.6495439,0.022738136,-0.006360086,0.028815452,0.10627146,0.031703193,0.14505766,0.12284002,0.32795045,0.11491744,-0.04594057,-0.008639333,0.037856102,0.098538235,0.20751578,-0.2637137,-0.3430732,-0.29474062,-0.39528498,-0.38992196,-0.42808944,-0.3529161,-0.10904396,-0.22266662,-0.2718841,-0.33302283,-0.46985808,-0.48431534,-0.64709157,-0.20478418,-0.1482363,-0.12810385,-0.103319824,-0.16811337,-0.123132065,-0.20750055,0.83032125,0.8320957,0.760535,0.78675276,0.8309924,0.8507897,0.81182474,0.52512974,0.5397033,0.44515243,0.49155837,0.53391564,0.48675165,0.4364716,0.41477504,0.31860864,0.31263518,0.3296258,0.3878177,0.37528843,0.31693444,0.4472435,0.44384933,0.49253413,0.437749,0.5294622,0.48651853,0.56475,-0.28892434,-0.22308007,-0.19474253,-0.25230932,-0.2611891,-0.22203551,-0.23220865,0.11066988,0.13650085,0.040013734,0.030842977,0.028406724,0.06360454,0.094350174,0.22819132,0.26449126,0.24097888,0.23083973,0.27406707,0.21892516,0.17927614,-0.32065192,-0.3018428,-0.37864053,-0.29339886,-0.4130508,-0.3999033,-0.34209394,-0.40286398,-0.49934113,-0.4462704,-0.4715451,-0.4137003,-0.44561476,-0.49372825,-1.1163216,-1.2285031,-1.1127021,-1.2281107,-1.2075421,-1.144484,-1.1535268,0.30551165,0.33672953,0.3078577,0.28165796,0.27679583,0.27909267,0.35124528,0.0054719434,-0.07180968,-0.015705105,0.03802817,-0.075560644,-0.05177206,-0.01227877,-0.33048713,-0.22493431,-0.2640416,-0.34023356,-0.26476178,-0.24045703,-0.2347419,0.8138499,0.7562025,0.7949833,0.81879586,0.7749128,0.78025347,0.7523182,0.13231947,0.15413576,0.1627529,0.12455128,0.2467214,0.114872076,0.23138334,0.87376755,0.83684367,0.7965231,0.8104152,0.8913687,0.8775013,0.8346192,-0.091302425,-0.06873385,-0.117856205,-0.068530574,-0.12845989,-0.11061944,-0.18345986,0.6820411,0.78852993,0.68724114,0.6970299,0.6973303,0.7350692,0.7263125,0.43943217,0.4946984,0.44274232,0.45326936,0.51806325,0.50528014,0.44888088,-0.3875703,-0.39530823,-0.34838116,-0.2691223,-0.3172057,-0.31825575,-0.28896087,0.5859096,0.5049917,0.5088645,0.52493745,0.56135887,0.6571012,0.752558,-0.24550636,-0.24895766,-0.23634897,-0.24541311,-0.27431136,-0.33810455,-0.31335002,0.11419857,0.2706676,0.24477534,0.2970504,0.47144458,0.5854073,0.8445938,0.7049673,0.35221854,0.014597394,0.0024332665,-0.15245195,-0.21150777,-0.23922208,1.7235202,1.2637287,0.8067093,0.510737,0.1494692,-0.0019077746,-0.21686256,0.13349074,0.123663306,0.13598736,0.024070075,0.03472984,0.059344795,0.17799304,0.1483204,0.145807,0.24667056,0.14979991,0.14159708,0.017142244,0.14005816,-0.08388812,-0.16395506,-0.1812841,-0.19480766,-0.07790589,-0.17038725,-0.12933034,0.42397928,0.349301,0.13095693,0.006612122,-0.11952438,-0.233439,-0.3559101,-0.34922513,-0.388132,-0.33250725,-0.30030182,-0.38783622,-0.26856318,-0.31093064,0.7818952,0.7639106,0.7262057,0.7850325,0.6881662,0.66727656,0.75255877,-0.3101366,-0.32781154,-0.32642403,-0.3006264,-0.31273463,-0.24039909,-0.2950531,0.13402426,0.12483006,0.18705605,0.18732621,0.1240471,0.13246818,0.22917372,0.013189881,-0.01632924,-0.028887162,0.09516479,0.00774787,0.0560706,0.10695016,0.94146883,1.029238,1.0368487,0.9940713,1.0399817,0.9414297,0.95266396,0.118844025,0.15239942,0.15911634,0.1300803,0.090652384,0.045644365,0.13205896,0.4166304,0.46849248,0.49814308,0.46839374,0.469243,0.5069955,0.50005263,-0.056849826,-0.12480806,-0.083658986,-0.15395154,-0.052953683,-0.11748318,-0.05830532,0.013510375,0.017413687,0.0034945796,0.09135573,-0.023438158,0.083125286,0.038524814,-0.7457429,-0.6808951,-0.6953454,-0.7307456,-0.7441895,-0.6888049,-0.7015,-1.375807,-1.4184796,-1.4392307,-1.4108343,-1.4656686,-1.4507661,-1.367243,-0.35669085,-0.3040972,-0.35264847,-0.3380561,-0.29937044,-0.25636032,-0.28174075,-0.34296805,-0.36555973,-0.33587134,-0.23121709,-0.36771515,-0.26264283,-0.23173234,0.649105,0.6369502,0.6512624,0.6501954,0.55596995,0.6214666,0.65070784,-1.5252061,-1.4650985,-1.4311372,-1.4978719,-1.4395695,-1.4601803,-1.4711102,0.45009977,0.5639124,0.5580954,0.48999763,0.44720176,0.55991733,0.44444123,-0.25899032,-0.24858144,-0.2180434,-0.2254954,-0.29817134,-0.20353396,-0.32012656,-0.87219393,-0.74867254,-0.75119615,-0.7685889,-0.86126864,-0.8188389,-0.8427019,0.62491167,0.6313391,0.7535775,0.63199306,0.6254279,0.7058743,0.7268608,0.30609694,0.32864752,0.23926724,0.26138374,0.2156816,0.22945608,0.31704918,0.4817076,0.46077278,0.53259224,0.4006583,0.38784137,0.4438978,0.4005385,0.25079194,0.2959038,0.3544309,0.37011242,0.28450903,0.35695797,0.3575575,-0.2916927,-0.35487014,-0.25398,-0.22477861,-0.023410639,0.24308984,0.39922377,-1.1226349,-0.7312569,-0.3838299,-0.12542711,0.1619415,0.5617118,0.8348843,1.1391729,0.8764887,0.562283,0.24359639,-0.16087721,-0.38562822,-0.84807426,-0.32540208,-0.22271091,-0.32129171,-0.32840577,-0.28433973,-0.24423192,-0.37118626,-0.24245203,-0.1386357,-0.024288958,0.0624455,0.015528316,-0.02280834,-0.02374882,0.6130828,0.5051601,0.51906645,0.5171288,0.57656467,0.64404094,0.6607795,-0.7898837,-0.52584946,-0.20823637,-0.11174552,0.029875556,0.14235967,0.25944075,0.27245134,0.23111401,0.34854618,0.36015165,0.30540082,0.3056374,0.24976182,0.42117494,0.49546316,0.40687463,0.48715833,0.53023785,0.45181003,0.5163669,0.4220392,0.3285143,0.43504927,0.34078088,0.3857315,0.37860376,0.32897323,-0.15841778,-0.11041122,-0.05318765,-0.11225098,-0.12655291,-0.16190179,-0.10532797,0.24787486,0.23110498,0.20415542,0.22602645,0.19300576,0.2235331,0.16954193,-0.025452828,0.027798682,0.012656749,-0.0806156,0.0246848,-0.04874005,-0.07506536,-0.35213083,-0.31678298,-0.32517838,-0.25926733,-0.29095465,-0.29869866,-0.32307607,-0.16005957,-0.12075054,-0.12951624,-0.19567037,-0.19213884,-0.11925173,-0.21152228,0.63889956,0.580936,0.68125564,0.5768471,0.67493445,0.58257055,0.578607,-0.34912968,-0.2811648,-0.29204366,-0.31779718,-0.31426942,-0.26592588,-0.35167548,-0.6419047,-0.6055039,-0.6235139,-0.55133814,-0.5786075,-0.6345778,-0.5648373,0.09966783,0.15326296,0.15604573,0.12727955,0.084422074,0.06682827,0.12585656,0.47686854,0.4783453,0.53900385,0.485229,0.44790542,0.53553206,0.43536386,0.014027909,-0.002063311,0.124641635,0.025088664,0.06722139,0.1205369,0.025522389,0.48279494,0.48578838,0.4931973,0.4311933,0.444281,0.4869306,0.4266731,0.17375416,0.183689,0.21322231,0.25429982,0.28939256,0.24571215,0.25550395,-0.36698276,-0.42956004,-0.36287796,-0.4420627,-0.36146823,-0.38203672,-0.4428414,-0.18828173,-0.22885875,-0.17209554,-0.12769602,-0.12555774,-0.23692366,-0.1618519,-0.58879024,-0.58807105,-0.56085336,-0.5828633,-0.48330846,-0.50848037,-0.47496623,-0.25497222,-0.2938993,-0.21266179,-0.16574913,-0.16230586,-0.21810745,-0.16155975,0.6094387,0.5908365,0.5682815,0.6431795,0.56147766,0.61236805,0.67109716,-0.9400634,-0.90775275,-0.94554406,-0.88023585,-0.9061212,-0.8605736,-0.87855417,-0.09876559,-0.14309633,-0.15334095,-0.12875813,-0.19585669,-0.17981267,-0.15210567,0.11894908,0.031927582,-0.026840053,-0.08693683,-0.11050496,-0.23633063,-0.41775402,-0.1463963,-0.15645897,-0.3730879,-0.40507603,-0.4673387,-0.59210086,-0.6652523,-0.7477688,-0.2998299,-0.022582792,0.34272072,0.57801956,0.67806023,0.9836013,0.080001146,0.1214968,0.07772506,0.16180578,0.124922454,0.19508457,0.2477029,-0.110941544,0.014840259,0.040248968,0.034824908,-0.006525929,0.027707832,-0.0300147,-0.37451845,-0.4034516,-0.38592273,-0.28561276,-0.29659453,-0.35788473,-0.3519662,-0.24023329,-0.21016227,-0.27383152,-0.33572388,-0.32471958,-0.2839465,-0.36089686,0.5679443,0.5805487,0.49141946,0.48687747,0.47370562,0.57030976,0.53845185,-0.89308697,-0.9430423,-0.8955908,-0.8259599,-0.9371655,-0.9374484,-0.9186121,-0.17680852,-0.12693048,-0.10203297,-0.1038638,-0.11151849,-0.19087885,-0.20929952,0.2664607,0.36520165,0.2740907,0.33816856,0.2768553,0.30716568,0.26327518,-0.5828625,-0.52825534,-0.56567305,-0.59764224,-0.61802614,-0.5364191,-0.54025537,0.4396927,0.4127724,0.44876888,0.4672067,0.36983088,0.40558773,0.4137538,0.17453825,0.14174098,0.21642911,0.19776377,0.25230742,0.15464313,0.248981,-0.104810014,-0.10514692,-0.10892965,-0.08342914,-0.06791752,-0.07046832,-0.10377742,-0.30019847,-0.36306,-0.41468948,-0.2841132,-0.31928262,-0.30702677,-0.32577837,-0.5446819,-0.43224525,-0.49873406,-0.4882819,-0.5486416,-0.50588,-0.44589874,0.33327326,0.3242887,0.30300733,0.39056984,0.35031268,0.39019376,0.3135149,0.18689735,0.22244716,0.114150845,0.10826105,0.19259854,0.16667956,0.19384655,-0.05172167,-0.07391298,-0.07547474,-0.05004374,-0.067516,-0.1605051,-0.11357382,0.21722284,0.18573698,0.2421098,0.1835617,0.1312052,0.18233684,0.23618826,-0.34597954,-0.39768535,-0.3727506,-0.29992923,-0.35358652,-0.4096594,-0.34545708,0.40816313,0.35681623,0.36855075,0.2993693,0.3664536,0.31841692,0.36986667,0.5038038,0.5218519,0.44312057,0.44458488,0.47081676,0.4623888,0.4724366,-0.034195114,-0.050489962,0.012097102,-0.09038831,-0.028335795,0.011532106,-0.039265677,-0.19513176,-0.19561666,-0.19832486,-0.1865173,-0.14715908,-0.20148276,-0.17197572,0.47057766,0.4414027,0.5272307,0.505646,0.4550397,0.42834187,0.5552366,-0.5667677,-0.5008648,-0.42894357,-0.46730083,-0.484346,-0.42232406,-0.5276375,0.67049533,0.6218609,0.6842304,0.62033355,0.6144626,0.6717246,0.5937544,0.57094157,0.45245585,0.5208253,0.4829339,0.55356365,0.5496466,0.47134772,0.24871095,0.11797932,-0.06281913,-0.13783526,-0.39194542,-0.43960723,-0.58697647,-0.37146404,-0.43240997,-0.4217459,-0.15315866,0.02800936,0.18324609,0.1144793,0.6031938,0.5119334,0.26817614,0.11393941,-0.08264058,-0.34682757,-0.5684894,0.08424276,0.12902243,0.15975368,0.18584919,0.2390613,0.23806791,0.27827463,0.29915872,0.051742442,-0.16737801,0.06138722,0.1121471,0.06275607,-0.09876395,-0.6436658,-0.70282865,-0.69356394,-0.62702966,-0.6589453,-0.6917085,-0.6165865,0.036575295,-0.023160478,0.06280854,8.571878e-05,0.08061633,-0.019918662,0.09086028,-0.6530719,-0.63900995,-0.6347228,-0.6568327,-0.6466601,-0.57835376,-0.5584848,0.7062801,0.692925,0.70224446,0.70811325,0.632527,0.70711696,0.61567324,0.5529935,0.4436362,0.429865,0.5386139,0.48647177,0.43329725,0.5479837,-0.06726406,-0.03105791,-0.039203506,-0.039291635,-0.078129604,-0.08473957,-0.07007327,-0.1466019,-0.16127028,-0.17483932,-0.20712963,-0.1591614,-0.088096514,-0.1709295,-0.3009143,-0.22057973,-0.2575089,-0.28714445,-0.26340863,-0.23060589,-0.33572572,0.17620999,0.22318812,0.26142457,0.17047738,0.20341678,0.15608107,0.2056521,0.23002008,0.26997337,0.32932195,0.27116722,0.23900731,0.20481901,0.22629513,-0.74860317,-0.7091431,-0.62742484,-0.7450062,-0.7306322,-0.7165615,-0.6999279,-0.2334953,-0.15297578,-0.10519451,-0.21710317,-0.17240994,-0.22342053,-0.1143652,-0.45842272,-0.4929528,-0.49727944,-0.44687656,-0.46861655,-0.43390816,-0.47143322,0.6343927,0.6777362,0.73604965,0.64693564,0.73094064,0.697971,0.6591668,-0.5685477,-0.4872362,-0.5519625,-0.54995257,-0.5400355,-0.49685895,-0.55636466,0.30952775,0.3532478,0.26220903,0.3089556,0.30664173,0.27419814,0.33405817,-0.53953785,-0.6032203,-0.6123431,-0.5096482,-0.55244774,-0.56300336,-0.5518274,0.48864585,0.439407,0.41163504,0.48778027,0.5282496,0.40755838,0.40934455,-0.17620488,-0.118750714,-0.14253373,-0.17721547,-0.066964984,-0.11833471,-0.07814832,-0.051040944,-0.05800755,-0.14914896,-0.14797017,-0.12669319,-0.1010324,-0.115966015,-0.23449749,-0.31241477,-0.25945792,-0.31515452,-0.36642298,-0.24227667,-0.2687639,0.0006950034,-0.08761979,-0.02786529,-0.026313461,-0.06148751,-0.0015863949,-0.073061265,0.53566664,0.5099497,0.46571723,0.5160707,0.44526204,0.42428413,0.48634896,0.03378941,0.017233247,0.064392015,-0.0062492145,0.033833683,0.0009685523,0.016474206,0.09517659,0.20584396,0.20169139,0.17176664,0.26443195,0.2640476,0.24893087,-0.4516476,-0.28280663,-0.089462735,0.05048368,0.14718875,0.18970042,0.19267176,0.0038958087,0.1630931,0.1353458,0.19052598,0.47725603,0.7905433,1.2523371,-1.0829753,-0.80598015,-0.6490503,-0.46461084,-0.141925,0.34276316,0.81986356,-0.15233569,-0.15708312,-0.07512475,-0.10991661,-0.13636464,-0.112986565,-0.16371271,-0.050596915,-0.032781582,0.0123359775,-0.013893498,0.017168095,0.014667849,0.19905475,0.059663832,0.13026847,0.10918437,0.058582455,0.14644384,0.16692021,0.13447705,0.46833825,0.5353605,0.52616054,0.61357975,0.55322844,0.5929809,0.6296441,0.5577243,0.5795563,0.52286005,0.56687033,0.52668905,0.556272,0.6111604,-0.0059581227,0.0264477,0.0931958,0.047618277,0.06739932,-0.0038548363,0.04624944,0.2983412,0.18346764,0.2517626,0.24389201,0.17108549,0.2242064,0.24971487,-0.3043224,-0.26105434,-0.19365902,-0.22437045,-0.22871934,-0.2671496,-0.24839291,0.7428483,0.7596032,0.83517534,0.8099443,0.78211015,0.8047028,0.7588294,-0.047630046,-0.086348504,-0.016768359,-0.13348465,-0.05588348,-0.114779696,-0.015951402,-0.10714424,-0.1619402,-0.088491976,-0.17973419,-0.08727865,-0.09212332,-0.20246218,0.15740465,0.20148514,0.2306116,0.12733112,0.17379844,0.11542619,0.218572,0.19450012,0.15780467,0.07718443,0.08632543,0.11210196,0.13156454,0.18871167,0.3562856,0.41360644,0.40028653,0.44168067,0.41200885,0.43308747,0.3399774,-1.086264,-1.0678389,-1.1067861,-1.0253133,-1.1151472,-1.038154,-1.030866,-1.7318892,-1.8107185,-1.7903275,-1.830681,-1.7017379,-1.7271508,-1.7834038,-0.9005901,-0.95050883,-0.9556323,-0.89466786,-0.93658185,-0.98447096,-0.9769254,1.4011079,1.4160975,1.413981,1.4032979,1.4246814,1.3985224,1.480268,-0.0346477,-0.0988165,-0.035652187,-0.092325844,-0.02023964,-0.09754367,-0.026931971,-0.86427516,-0.92164236,-0.86099845,-0.89992416,-0.9314638,-0.9260179,-0.8402603,-0.09705519,-0.07319132,-0.039895743,-0.13056101,-0.0909747,-0.114910245,-0.04315306,-0.14111458,-0.21041264,-0.21788202,-0.20886046,-0.25944385,-0.19173826,-0.22483256,-2.4658697,-2.348526,-2.354883,-2.402159,-2.3397622,-2.3588474,-2.4317255,0.29230776,0.28721195,0.33166814,0.37318096,0.37987715,0.34691265,0.3243627,0.5764491,0.5797374,0.5267621,0.48593053,0.611393,0.6115848,0.60384965,-0.058568574,-0.10904997,-0.012291433,-0.062116437,0.043314636,0.02382474,-0.061147604,0.6374138,0.6731125,0.6393226,0.7056709,0.63590556,0.6618698,0.73181015,-0.12589687,0.05403443,0.29375625,0.5075496,0.61145085,0.6958566,0.77502626,-1.0779946,-1.0209644,-0.8691502,-0.7510992,-0.6261665,-0.39664525,-0.19608827,0.9277492,0.7735919,0.8454302,0.7976664,0.8186553,0.8049349,0.968709,-0.12967196,-0.0707726,-0.1391528,-0.121824175,-0.07819611,-0.18524392,-0.09234502,-0.09865402,-0.10565513,-0.10621754,-0.121514805,-0.17963503,-0.24706686,-0.23834948,0.15813293,0.18730132,0.17776309,0.26705763,0.13982174,0.20371626,0.2227169,-0.048347812,0.12845552,0.26011547,0.2398287,0.27936107,0.21867089,0.005800396,0.556213,0.48900113,0.49153313,0.56062573,0.52908236,0.5537261,0.53198624,-0.0009100789,-0.071812235,0.016634634,0.034060776,-0.026739597,-0.06369839,0.022794293,0.6764325,0.71245795,0.67572063,0.646917,0.6516083,0.7536835,0.7521472,-0.06865444,0.008589643,-0.042897876,-0.090663336,-0.08035652,-0.095286906,0.027945206,-0.81284934,-0.8913654,-0.9038834,-0.8508074,-0.8113501,-0.8684601,-0.8282381,1.3466456,1.3421408,1.4389422,1.3928626,1.3288126,1.3293713,1.3808577,-0.19001345,-0.12319319,-0.18573022,-0.10743537,-0.13100405,-0.08824947,-0.18862814,0.19783361,0.22606976,0.20553492,0.2690252,0.2737951,0.2192307,0.18463433,0.24974935,0.16246144,0.21958335,0.2544521,0.28159285,0.28103334,0.15431495,-0.45712158,-0.3811251,-0.45026198,-0.45536903,-0.39280635,-0.35450226,-0.4739644,-3.6830451,-3.607587,-3.651765,-3.6277313,-3.6696134,-3.631379,-3.617714,0.24654049,0.265417,0.29786637,0.321428,0.2501975,0.2956792,0.29827163,0.5209957,0.5026947,0.5127399,0.4844867,0.43297538,0.5005744,0.4692461,-1.9534425,-1.9152969,-1.8824104,-1.9843,-1.9835441,-1.9196486,-1.9365871,-3.2972848,-3.4084759,-3.3220127,-3.4195454,-3.427093,-3.3001592,-3.4251971,-2.563354,-2.5563555,-2.5675888,-2.474829,-2.5509849,-2.554532,-2.5122406,-0.07458164,-0.10140724,-0.015868235,-0.082872145,-0.04086926,-0.10022251,-0.04318978,-0.20356025,-0.17370613,-0.13846952,-0.18190537,-0.17722717,-0.16675058,-0.13516334,-2.5149305,-2.469454,-2.393039,-2.436608,-2.4258106,-2.526535,-2.4677103,-0.9787944,-0.94025147,-1.025629,-0.9340852,-0.9505014,-0.9905575,-0.9003455,0.7830957,0.73802656,0.8001445,0.7105052,0.8260011,0.8803021,0.82377,-1.0698391,-1.1459306,-1.0979991,-1.1495662,-1.2398036,-1.2389753,-1.2743927,0.0695125,0.0488615,0.045587707,0.13399862,0.005592315,0.009084705,0.023398492,-0.90684354,-0.6391981,-0.5007544,-0.40150428,-0.34850335,-0.44656104,-0.61511296,0.8657675,0.39319882,0.09396092,-0.08096879,0.059268076,0.16701281,0.40439397,-1.807603,-1.0634257,-0.5498939,-0.1444297,0.079061195,0.44556528,0.94000727,0.0780526,0.07537253,0.061190464,0.09096729,0.092891924,0.10996719,0.08782912,-0.1043364,-0.04202721,0.070342846,0.002890884,0.013240262,0.042014636,-0.10429394,-0.009802792,-0.069897786,-0.14774485,-0.048684325,-0.16670524,-0.11768214,-0.14205553,-0.37277454,-0.42758745,-0.44189963,-0.47302577,-0.55090356,-0.57049394,-0.62662446,0.78637123,0.76972383,0.7317679,0.7509198,0.81976306,0.71557754,0.81002027,-1.151301,-1.1071491,-1.0288157,-1.1425982,-1.1108187,-1.0853393,-1.0850241,0.06043205,0.036108,0.08484553,0.13503185,0.057012394,0.15358,0.10528059,-0.54082805,-0.5250644,-0.6107802,-0.550069,-0.57820755,-0.5320469,-0.56806886,-0.53900033,-0.4287989,-0.5164686,-0.42457953,-0.4831433,-0.528944,-0.4360431,-0.0907827,-0.005979848,-0.039513018,-0.08249197,-0.03969569,-0.072334096,0.008569968,0.045583554,0.033056784,0.01089595,0.12198973,0.014196959,0.031658437,0.078916885,-0.0047798585,-0.109560385,-0.06592719,-0.004814668,-0.05582188,-0.014489272,-0.10151322,-0.14138149,-0.14097525,-0.106271,-0.067843296,-0.12037426,-0.061385743,-0.06381517,-0.36280698,-0.2858779,-0.37980545,-0.33505613,-0.31502405,-0.38203406,-0.40746436,-1.2452183,-1.324354,-1.2448251,-1.3431246,-1.3365682,-1.3337868,-1.2606816,-1.1226777,-1.1356034,-1.0686004,-1.047541,-1.1451843,-1.0360405,-1.1488533,-0.3063019,-0.2749683,-0.24918395,-0.25694612,-0.21935123,-0.29323006,-0.22434235,-0.13195844,-0.13229105,-0.25721943,-0.1429299,-0.17997207,-0.19603813,-0.14364219,0.17847532,0.10975263,0.20993386,0.11315373,0.14186396,0.16692807,0.21249166,-1.487985,-1.4832834,-1.5993704,-1.5412618,-1.510299,-1.5434017,-1.4736246,0.7583163,0.7022473,0.71381265,0.7343806,0.7296999,0.79257673,0.7065745,-0.023984177,-0.012760944,-0.10881759,-0.052807644,0.0017396492,-0.03310215,0.023435667,0.28365862,0.28186873,0.22591823,0.2941242,0.22587277,0.23943588,0.29751378,0.1294987,0.04565615,0.100475945,0.036153886,0.1085838,0.01780043,0.028766725,-0.47087008,-0.40530586,-0.31497833,-0.42992097,-0.43131554,-0.34834108,-0.4116114,0.029327555,0.010216993,0.034430828,0.046390958,-0.108910635,-0.03424347,-0.2026546,0.37069514,0.4018638,0.45397884,0.42802384,0.48674938,0.5362987,0.5143231,-1.0402344,-0.83238596,-0.6126663,-0.6022559,-0.49341425,-0.45242637,-0.56190294,-0.44270545,-0.29487768,-0.06833024,0.08788274,0.27613226,0.61050636,0.90430695,-0.23078045,0.102951705,0.16770169,0.34616578,0.3131241,0.25076783,0.22906438,0.03295815,0.11308433,0.10434899,0.068424396,0.036001287,0.08627883,0.094484836,-0.02544343,-0.014920782,-0.054305144,-0.4084824,-0.23787957,-0.17573796,-0.13426435,-0.1743249,-0.20243618,-0.15293361,-0.19615416,-0.1994828,-0.099105485,-0.13724184,0.21432345,0.12973574,0.11530602,0.14849524,0.21175912,0.17379534,0.17175472,-0.47058293,-0.52503115,-0.5450028,-0.45753795,-0.5698809,-0.5656908,-0.58211315,-0.060442872,-0.112252526,-0.042427342,-0.05633182,-0.09779521,0.013880261,-0.116308816,0.3802878,0.495093,0.45211282,0.41209456,0.47129455,0.4659824,0.40868807,-0.81769305,-0.8062522,-0.88353115,-0.7529375,-0.77730674,-0.8020918,-0.85083574,0.62371325,0.67982936,0.66322,0.6538445,0.64756197,0.59251994,0.6935784,-0.70408964,-0.66635925,-0.71177876,-0.719435,-0.62979513,-0.7290125,-0.6179024,0.097472854,0.04751093,0.10559834,0.029348817,0.106548056,0.107478335,0.12436307,-0.19308251,-0.16411737,-0.18235423,-0.13200344,-0.1768762,-0.16061325,-0.17560036,-0.10172665,-0.18488234,-0.2268019,-0.19871958,-0.12020085,-0.12924618,-0.2146169,-0.029848356,-0.051789775,0.03959608,-0.018889014,0.08095175,-0.010696319,0.0154714845,0.39964566,0.449679,0.42251822,0.40306875,0.35453162,0.3385875,0.45111096,0.023703786,0.0858942,0.01866215,0.09419454,0.03455399,0.10907119,0.06376606,-0.81698143,-0.7969771,-0.8158277,-0.70838565,-0.7882085,-0.7198887,-0.78173655,0.25148502,0.17851448,0.19938833,0.19988526,0.25157806,0.19992991,0.24676679,-0.3104846,-0.2556389,-0.24235176,-0.24142489,-0.29062927,-0.31041434,-0.21147734,0.016909888,0.118501216,-0.002927703,-0.0034973128,0.09042925,-0.006754205,-0.003148894,-0.20483485,-0.20969148,-0.22636026,-0.22315593,-0.252443,-0.15970604,-0.19515775,0.006137595,0.011024688,0.11205989,0.09012093,0.085598156,0.0060741357,0.088080406,-0.28229532,-0.29130435,-0.27241093,-0.3677102,-0.38331136,-0.25764915,-0.30864874,-0.18245816,-0.16467719,-0.1556808,-0.2410588,-0.25300282,-0.16781911,-0.17064138,-1.1564726,-1.1458579,-1.1664197,-1.1576681,-1.1618192,-1.0983318,-1.0848639,-0.5455152,-0.5351959,-0.54715586,-0.5301298,-0.53793156,-0.59988856,-0.54912233,0.4039131,0.45212016,0.44793501,0.426817,0.50969356,0.55339754,0.4321102,0.66884464,0.46126798,0.38193098,0.32550034,0.18355593,-0.180775,-0.57064366,-1.9426342,-0.9278994,-0.31141132,-0.017088942,0.15509303,0.46839243,0.9752089,0.46072578,0.31959543,0.29437482,0.23127927,0.14187136,0.070790015,-0.023465654,-0.007918418,-0.07434702,-0.05312183,-0.053046852,-0.020191701,-0.090900786,-0.11649962,-0.1065437,-0.084526494,0.057816394,0.0015952069,-0.035152704,0.022564096,0.12232817,0.36787325,0.3696859,0.40696532,0.519413,0.47109708,0.45554748,0.39302084,-0.41120413,-0.23835927,0.014495418,0.1436418,0.12079952,0.059157193,0.14248772,-1.1551472,-1.2146909,-1.1134905,-1.114589,-1.2251967,-1.1505162,-1.1446464,-0.715225,-0.7105936,-0.5937226,-0.67970407,-0.70560676,-0.6614723,-0.62730926,0.4121435,0.53280413,0.39985323,0.4741373,0.40838143,0.43360838,0.53280014,-0.25423554,-0.3503579,-0.34316665,-0.25023904,-0.29027745,-0.27855042,-0.36537862,-0.39045745,-0.44118774,-0.37946522,-0.48574355,-0.414984,-0.3796795,-0.40251434,0.082799524,0.08537142,0.09509211,0.09236057,-0.004774483,0.072395936,0.0024654383,-0.08480299,0.02536012,-0.103404365,0.02332651,-0.076440856,-0.018294508,-0.024076663,0.061033025,0.006284648,-0.017638514,0.050599396,0.058040466,-0.039906494,0.03097583,0.44524518,0.35950407,0.38641897,0.42134884,0.36000144,0.4023493,0.42957872,-0.25544778,-0.28987908,-0.3053487,-0.20867318,-0.20761101,-0.28344035,-0.23228088,-0.40151918,-0.3571295,-0.286429,-0.39624327,-0.39351392,-0.33045992,-0.35016772,0.1049208,0.08009879,0.09103874,0.04993923,0.07246887,0.08145663,0.13823381,-1.0773076,-1.1150728,-1.0144361,-1.1239344,-1.0595944,-1.0866468,-0.9873712,-0.19727713,-0.3136423,-0.29997164,-0.25278503,-0.27985314,-0.3224456,-0.22990027,-0.17975032,-0.20477833,-0.14268133,-0.13329457,-0.25554627,-0.14443411,-0.19679129,-0.06054858,-0.10909226,-0.062838264,-0.058995318,-0.06513943,-0.06414318,-0.05902483,0.019781357,0.011830915,-0.069569856,-0.08110544,-0.09518992,-0.09616445,-0.10223243,-0.0051430715,-0.024829665,-0.101238005,-0.07991494,0.03203923,-0.031357136,-0.05037227,-0.7278059,-0.7153897,-0.6876624,-0.61893237,-0.62030256,-0.6909533,-0.68422115,-0.14354916,-0.07865222,-0.123833284,-0.08431977,-0.0617724,-0.09043034,-0.10888336,0.137802,0.20861968,0.16526207,0.19381571,0.24138011,0.21802355,0.11020003,-0.64293575,-0.680191,-0.5734645,-0.5832984,-0.58817,-0.60753787,-0.49726868,-0.35945392,-0.37032828,-0.33312127,-0.41834486,-0.40616065,-0.4168227,-0.349147,0.8535484,0.6665275,0.30133453,0.046895973,-0.26802978,-0.4565034,-0.51860553,1.3082824,1.108199,0.7785437,0.3489971,-0.039871592,-0.5818867,-0.94214565,-0.4548167,-0.13868573,-0.023760991,0.06767387,0.38603073,0.7107687,0.96088845,0.15386885,0.1912113,0.14230017,0.096092,0.12454141,0.07634983,0.19896889,0.037752897,-0.04815344,0.042398896,0.029371487,-0.089850076,-0.037956584,0.03642587,-0.11627097,-0.019483091,-0.07247111,-0.12167996,-0.067557886,-0.044602547,-0.06208156,-0.100015685,-0.090490505,0.021396974,0.20670207,0.25739896,0.397944,0.45249426,0.099857956,0.15534796,0.15570444,0.12962705,0.19960041,0.09998411,0.101550154,-0.61670697,-0.655435,-0.6521351,-0.66133624,-0.6725917,-0.67548746,-0.6078686,-0.39062208,-0.4378988,-0.42613143,-0.43420085,-0.42677495,-0.38974902,-0.36277878,-0.039245706,-0.010254571,-0.06921183,0.019530306,-0.018384354,-0.085056424,0.021176543,0.14606048,0.17704128,0.19144484,0.09167799,0.17618178,0.1750597,0.1925152,0.25602517,0.38736886,0.28913382,0.29622862,0.38303897,0.38435125,0.33794707,0.21806616,0.18049757,0.09481661,0.16478345,0.14786744,0.22303359,0.14622359,0.15048787,0.07808166,0.18631403,0.07069382,0.13948031,0.09839133,0.107425116,-0.15228994,-0.11665987,-0.12021248,-0.067716666,-0.14442395,-0.11786543,-0.113970116,0.3784705,0.45430657,0.46632338,0.39212853,0.40535387,0.5032549,0.49793732,1.0481812,1.1131629,0.98666906,1.0748401,1.0880982,1.0586587,1.0755962,-0.98923784,-1.0790833,-1.0344912,-1.0204623,-1.0537204,-0.95598066,-1.0348786,-0.09615053,-0.06716783,-0.049390044,-0.14885798,-0.18145789,-0.10912021,-0.18084767,-0.48405176,-0.6002858,-0.49277374,-0.5881237,-0.5639678,-0.48335272,-0.61817014,0.06531329,0.0794844,0.017265672,0.015184827,0.081461355,0.014339047,0.058138948,0.001861587,-0.043311402,-0.03526204,-0.009283897,-0.01682787,-0.08650594,-0.10672935,-5.0145445,-4.944396,-4.9478493,-4.9229918,-5.0056643,-5.006977,-4.97226,-0.030270243,-0.1018569,-0.0846104,-0.117618635,-0.13491465,-0.03432838,-0.13114628,1.0423273,1.0666186,1.0435884,1.0367573,0.99879676,1.0389109,0.9990855,0.47464377,0.5065274,0.51961005,0.49059412,0.49824923,0.582929,0.5056795,0.48828346,0.5089021,0.31602618,0.3085889,0.1949315,0.27240852,0.23886177,-1.0500277,-1.0825247,-1.0943735,-1.2457479,-1.2512273,-1.3228287,-1.4397949,0.5770042,0.6054869,0.6478289,0.6440303,0.6660176,0.51658,0.5230963,0.032064807,0.0740336,0.1690597,0.06914607,0.08910071,-0.0903734,-0.3720598,-1.0126487,-0.6277174,-0.24950863,-0.1599911,-0.105593264,-0.09175286,-0.00013074164,-0.55394596,-0.29527664,0.016658055,0.21050899,0.4228752,0.6621965,0.81882304,-0.14748585,-0.10917506,-0.12649754,-0.2058063,-0.14480153,-0.081763394,-0.17914228,0.3119448,0.18247491,0.07962118,-0.08957373,-0.11400636,-0.3190186,-0.2696262,-0.16565593,-0.054322816,-0.005522333,-0.09288227,-0.04081059,0.042976066,-0.08830314,0.35094178,0.06484145,0.08335941,-0.031543095,0.016981924,-0.06577421,-0.005366751,0.4416587,0.4952788,0.456882,0.3840093,0.45156595,0.391335,0.4973623,-1.5086014,-1.4914335,-1.3968704,-1.4109691,-1.4929988,-1.42655,-1.4463165,0.53978425,0.6209143,0.60749155,0.5184738,0.5829974,0.5502693,0.5693188,-0.84579086,-0.862668,-0.83955777,-0.7833619,-0.8537637,-0.8735092,-0.90337336,-0.5847924,-0.6253293,-0.6665654,-0.64704436,-0.6225657,-0.5470223,-0.6735759,-0.18753208,-0.09950516,-0.102603644,-0.14203154,-0.20395583,-0.21679014,-0.14520532,-0.17329888,-0.107781895,-0.21637459,-0.19686584,-0.10968247,-0.18474194,-0.1516508,-0.11399974,-0.1303202,-0.03326737,-0.13229983,-0.10102656,-0.12835045,-0.10121753,-0.05491588,-0.11854591,-0.045889523,-0.08295929,0.0122962585,-0.037396103,-0.10859591,0.23127781,0.27142823,0.27041495,0.31567636,0.32168087,0.33414826,0.24178945,1.4310231,1.3662425,1.3122693,1.372154,1.3999913,1.3646783,1.324178,-1.6410006,-1.5333546,-1.574357,-1.5509723,-1.5446162,-1.6490768,-1.58628,2.235465,2.1305306,2.1293354,2.12821,2.234294,2.2445056,2.1990561,0.23339441,0.10434276,0.16975313,0.16894196,0.17586076,0.14299077,0.1886358,1.1416451,1.1615999,1.1798486,1.0912786,1.0902251,1.1014674,1.1538615,-0.81516236,-0.7969674,-0.8673015,-0.8560753,-0.8742998,-0.8775077,-0.8114864,-0.039777786,-0.032423478,0.022535738,-0.05703438,-0.047483385,-0.061867885,0.010141789,-0.07180101,-0.122940235,-0.08211528,-0.067630544,-0.13633274,-0.011471351,-0.08276734,2.2879853,2.3355205,2.3992705,2.4037774,2.3355918,2.3077638,2.3627687,0.9711831,0.9784141,0.96432775,1.0193527,0.9971453,1.020032,0.95515186,1.306825,1.3641428,1.3440598,1.3244289,1.3150498,1.3189688,1.2997872,0.05473514,0.013986568,0.029843414,0.12520699,0.21802838,0.19044727,0.16558427,-0.2858097,-0.2204458,-0.2737724,-0.26992184,-0.23821302,-0.19159487,-0.17983262,-0.14777273,-0.085355535,-0.028124971,0.010849129,0.09806928,0.072033346,0.10099177,0.17129846,0.03443957,-0.10172768,-0.23710603,-0.37307757,-0.50397563,-0.768156,-0.40193743,-0.2957758,-0.20711659,-0.20861486,-0.17083548,-0.029475255,0.084132336,0.01797228,0.012053762,-0.09286168,-0.0066884886,0.0017385853,-0.0053852103,-0.009700443,-0.00892882,0.0602457,0.092960216,0.14073776,0.09075741,0.05819616,-0.16031052,-0.20070453,-0.16166757,-0.10569533,-0.11479056,-0.06210891,-0.025562808,-0.08240671,-0.053075958,-0.08108792,0.032971274,-0.08536299,-0.034833726,-0.051806953,-0.13777652,1.3981471,1.4114176,1.4103603,1.3475554,1.3565453,1.3706018,1.3799577,0.1782234,0.05123287,0.16861808,0.09280411,0.1556311,0.17270464,0.159775,-0.28077945,-0.291067,-0.3268495,-0.30868608,-0.24625981,-0.2843426,-0.26679263,0.22645201,0.13316499,0.18525346,0.1930925,0.13510242,0.14704676,0.22142951,-0.025685845,-0.030195663,-0.10590655,-0.12475709,-0.06337342,-0.12322425,-0.025153574,0.021441812,-0.007963001,-0.04360153,0.053459737,0.053867802,-0.005496164,0.072326735,-0.023115661,-0.021027684,0.008669125,-0.038857095,0.00958127,0.037672997,0.0769056,-0.11862639,-0.016674003,-0.05656238,-0.06359425,-0.066423684,-0.04851241,-0.02873801,-0.11468931,-0.16152714,-0.12383661,-0.089991875,-0.17600739,-0.06835157,-0.10210444,-0.26038468,-0.22091667,-0.2707856,-0.30431923,-0.23339194,-0.23306212,-0.27265665,0.3437309,0.27309427,0.4013794,0.28982332,0.34043202,0.3304795,0.37044352,0.43903434,0.46116674,0.51985496,0.4802299,0.4589127,0.3954845,0.45511472,0.07621437,0.019913377,-0.043080404,0.089749135,-0.04657975,-0.041367255,0.06881315,-0.11973375,-0.06289704,-0.051935673,-0.03876252,-0.08741371,-0.022572486,-0.07886065,0.104941346,0.09022778,0.062310856,0.08519876,0.13844408,0.069089435,0.094459705,0.17441899,0.23776704,0.129146,0.14411195,0.1671749,0.21074277,0.21705946,0.6337146,0.579371,0.5658925,0.5189776,0.6064516,0.53004086,0.60125357,-0.28365445,-0.21691158,-0.27675426,-0.2346212,-0.29457653,-0.30500656,-0.21288352,0.27974808,0.2702186,0.254906,0.21417178,0.22428547,0.2718987,0.17840831,0.21555214,0.2060351,0.2172912,0.12927955,0.20725597,0.10610692,0.22800978,-0.8551155,-0.85594714,-0.75172794,-0.82191837,-0.77272,-0.8605768,-0.850808,0.8936874,0.9496419,1.0292705,1.0051612,0.9229313,1.0483792,0.97877276,0.7116242,0.74008286,0.6516281,0.6755406,0.7287509,0.76179487,0.7222008,-0.7154746,-0.4158003,-0.28608224,-0.3018293,-0.34765494,-0.3536693,-0.1383218,-0.9680408,-0.8873239,-0.549367,-0.27709755,0.04001986,0.28318533,0.53855056,0.809678,0.45780137,0.18642218,-0.13018692,-0.3908836,-0.6797349,-1.0863812,-0.009908175,-0.051417377,0.05945103,-0.031004615,0.003966707,0.08591383,0.08667845,0.09555695,-0.01634279,-0.29036203,-0.3373945,-0.14750575,0.02672911,-0.047299307,-0.2536078,-0.32128903,-0.31496364,-0.22943829,-0.2315996,-0.27652654,-0.25586182,0.10283796,0.14330415,0.21376023,0.15584229,0.10389839,0.034042142,-0.024151241,-0.92002374,-0.95777696,-0.9715182,-0.93832064,-0.86601907,-0.9114523,-0.99210835,0.9065471,0.95772845,0.94014645,0.9841996,0.96383685,0.9203572,0.9463062,0.6549506,0.7689375,0.7171373,0.64426327,0.6883602,0.747447,0.76539814,-0.8469333,-0.8465948,-0.8257393,-0.827651,-0.8434357,-0.7691358,-0.788323,-0.4122356,-0.40580836,-0.42871845,-0.41099975,-0.5100916,-0.41251776,-0.40724924,-0.60199505,-0.50682276,-0.516044,-0.4885392,-0.5694772,-0.49449354,-0.5313975,0.07695596,-0.01870747,-0.004895028,0.041556954,-0.010944507,0.02769236,0.0799548,-0.21883263,-0.10758249,-0.19490719,-0.18420126,-0.16013908,-0.12184611,-0.14488325,-0.26003566,-0.24696743,-0.34532103,-0.31730637,-0.3260702,-0.29222086,-0.31810412,-0.05163325,-0.084710345,-0.0307979,0.003512174,0.021023361,-0.06304059,0.0012894325,-0.9372386,-0.88967973,-0.92647934,-0.93468606,-0.91139674,-0.94653475,-0.9622448,0.1680236,0.16696125,0.14920378,0.18806951,0.19881992,0.14334632,0.15735492,-1.0229453,-1.1126164,-1.0728154,-1.0034093,-1.0316757,-1.008318,-1.0609409,0.3710313,0.34250632,0.37364626,0.39614683,0.33811316,0.2833202,0.359645,-0.2874956,-0.19770853,-0.21805418,-0.16856599,-0.1891516,-0.24808066,-0.26084962,0.33394527,0.37072617,0.29497197,0.308917,0.3314123,0.28601965,0.25695652,0.009150904,-0.026337959,0.036778145,0.079411775,0.01936447,-0.015521651,0.086361036,0.014938674,-0.043676823,-0.036168866,-0.06809712,0.047604926,0.024925115,-0.05429637,-1.4366157,-1.4001894,-1.4397284,-1.3918436,-1.4635578,-1.431592,-1.4578222,-0.9204377,-0.83158696,-0.8409037,-0.8465056,-0.8318501,-0.9382303,-0.8982675};
const data_t conv_block_0_bias[] = {0.12740329,-0.18572216,0.35754558,-0.06550996,0.19027863,-0.71647465,-0.33013648,0.18802848,0.24349336,-0.14654765,-0.1661799,0.5536871,-0.18021479,0.10163221,0.035138253,-0.91594756,-0.6306457,0.18388802,-0.5292868,-0.20866719,1.2453601,-0.63289374,-0.86040235,0.5354314,0.2774539,-0.1284577,0.0066175824,0.55637664,-0.5332156,-0.041294772,-0.35713843,-0.24094246};
const data_t conv_block_3_weight[] = {-0.44064808,-0.403223,-0.49002624,-0.092326656,-0.09245456,-0.10275632,0.10577641,0.08103742,0.00901354,0.17058015,0.23664467,0.18708831,0.21049199,0.31631687,0.3802141,0.51955,0.58692497,0.6060447,-0.17244516,-0.10071891,-0.11162723,-0.21008149,-0.12861994,-0.10265456,0.18809493,0.27949524,0.31963357,0.026236342,-0.026597727,0.03927506,0.6794408,0.751599,0.8131772,-0.00013594514,0.019297114,0.05654085,0.27514467,0.14683284,0.2813159,0.022202063,0.017720535,-0.00048051286,-0.29654354,-0.23434833,-0.2301569,0.038902875,-0.06996868,0.004770438,0.42331448,0.43732077,0.44582212,-0.10947325,-0.1916729,-0.18066317,-0.07477047,-0.08782345,-0.079222985,-0.25411597,-0.21780205,-0.20813581,-0.06766175,0.028186807,-0.09338199,0.26043966,0.20063527,0.25400338,0.0021584716,0.05594257,0.04138972,-0.19382687,-0.18532328,-0.22285908,0.5647788,0.53550535,0.43288988,0.19626169,0.077436246,0.114301406,0.003442256,0.06423844,-0.0849651,0.16562602,0.22387442,0.11797276,0.19612034,0.38529903,0.34993902,-0.02778648,-0.17788357,-0.14912297,0.7140172,0.81021607,0.7244091,-0.04292339,-0.01806151,-0.09024375,0.68413574,0.67553395,0.73503995,-0.0044698915,-0.008674415,-0.1426885,0.26142603,0.23026693,0.23229833,-0.029776363,-0.03754982,-0.00497756,0.061422933,0.06271013,0.04933571,-0.09874088,-0.13628091,-0.18705839,0.13419141,0.101946086,-0.031991094,-0.14071755,-0.09962461,-0.19777346,-0.20318982,-0.11505366,-0.15705214,-0.24638256,-0.1800249,-0.117064804,-0.21566741,-0.16956161,-0.21130893,-0.3852306,-0.3911534,-0.49778828,-0.26780397,-0.27781078,-0.21374774,0.08284302,0.16557416,0.16696382,-0.5942181,-0.64357203,-0.7045464,0.73838496,0.7374033,0.7730064,-0.95471907,-0.84097964,-1.043634,0.32771522,0.45045984,0.2471758,-0.010150388,0.08069084,-0.057508327,-0.1692611,-0.12814295,-0.12634492,0.6863309,0.6794519,0.6240837,-0.08775549,-0.027769899,-0.036640506,0.3409474,0.33315432,0.38592052,-0.016434403,0.041925676,0.14871247,-0.03021561,-0.040064,-0.07082242,-0.08376694,-0.06163332,-0.0120516885,0.07530405,0.098700464,0.12531854,0.10815165,0.11902162,0.123768985,-1.422993,-1.3951617,-1.4309809,-0.26822558,-0.23142731,-0.13027504,-0.016865056,-0.04157378,-0.045209393,0.12575342,0.19003592,0.20465899,0.9623412,0.90624106,0.8745268,0.20324896,0.14665188,0.24897401,0.110528775,-0.011870832,0.057942588,0.069533855,0.10211346,0.06595382,-1.1069736,-1.1205732,-1.2108046,-0.12331407,-0.07301263,-0.06827959,0.5937253,0.4641981,0.51085585,-1.5368631,-1.4441682,-1.4388973,0.10868326,-0.031079726,-0.07753559,-0.85607433,-0.8087311,-0.8009755,-0.20691803,-0.2214652,-0.24571693,0.72275805,0.7282946,0.6795765,-1.429171,-1.4269874,-1.4983219,0.1289946,0.15297398,0.1587834,-0.36830118,-0.31918982,-0.19975398,0.13037671,0.1241409,0.09974588,0.6037436,0.563059,0.6090337,-0.04960093,-0.079021946,-0.22305681,0.2825101,0.13692145,0.18293488,0.12206781,0.12423659,0.12556621,-1.0082105,-0.9451142,-1.1311132,-1.1578513,-1.2497329,-1.2297201,0.45429984,0.30952242,0.31045932,0.24350546,0.23377466,0.2889482,0.5323083,0.44895068,0.50191665,-2.2496123,-2.2411814,-2.3299632,-0.12698103,-0.122703165,-0.18230717,-0.8063592,-0.83765805,-0.80299175,0.1562931,0.16162075,0.12124753,-0.29667822,-0.32906044,-0.46597278,-0.10398493,-0.15570997,-0.11701989,0.5245294,0.61440647,0.5956291,0.09789344,0.030436793,-0.080009945,-0.16435562,-0.13360856,-0.15569545,-0.23589738,-0.22164087,-0.15596752,0.16970706,0.28787243,0.2738159,-1.2559284,-1.3168204,-1.3717884,0.1369594,0.08731814,0.22255759,0.39012703,0.44488534,0.4429681,0.10784178,0.050793972,0.05019581,-0.6709592,-0.56365496,-0.48566118,-0.064222686,-0.012825025,-0.023818748,0.39179948,0.4364158,0.28394145,0.17434137,0.3365211,0.43692946,0.046927236,0.12392039,0.07270363,0.1557866,0.1845393,0.20090584,-1.063832,-1.10103,-1.1705346,0.7693753,0.82281715,0.8097,0.50841707,0.5982874,0.64280325,0.606577,0.50771827,0.5714069,0.50012404,0.41763976,0.531928,-0.24866673,-0.20609485,-0.22666389,-0.05009717,-0.043556374,-0.22336546,0.2355474,0.13298486,0.18937045,0.7688551,0.7048804,0.6920497,0.024878174,0.0623839,0.13091432,-0.1321411,-0.06421918,-0.16668762,-0.0054825097,0.0905109,0.058256738,0.3814997,0.31259525,0.35561484,-0.020616602,-0.034909494,-0.043752927,-1.3652145,-1.1922696,-1.2368195,0.16101484,0.15085435,0.055155076,0.79662573,0.79343927,0.6384249,0.5392719,0.5241564,0.4716747,0.44857624,0.4213,0.24917331,0.10553499,0.079634674,0.094671085,-0.624874,-0.6196388,-0.6352646,0.10723437,0.0998748,0.18567151,-0.38159895,-0.33340272,-0.13321078,-0.16210581,-0.09630641,-0.16587532,-0.24820144,-0.22135161,-0.25503784,-0.21044847,-0.23136762,-0.32336003,-0.7036812,-0.8474027,-0.8598214,-1.2004313,-1.1317712,-1.1601573,0.074515656,0.035370998,0.13087174,0.850028,0.8177285,0.8756399,-0.057294536,-0.025525922,0.00881069,0.14476906,0.20667002,0.15094633,-0.29414153,-0.2931974,-0.3179857,-0.23957348,-0.25184065,-0.23979384,-0.24291816,-0.15953295,-0.2551625,0.29248092,0.26937717,0.35079134,-0.16186489,-0.10289631,-0.13174896,-0.17507032,-0.17888525,-0.17460293,3.7088861,3.5830698,3.6452742,-0.82269204,-0.8739991,-0.8778494,-0.38459152,-0.35355145,-0.41218638,0.34269512,0.4801358,0.5645197,2.1315904,2.1282597,2.1034064,-1.2103648,-1.1509229,-1.1875055,-0.25036004,-0.21670277,-0.33290917,-1.6364726,-1.5213816,-1.6558613,-1.3130139,-1.3666294,-1.412145,0.27350754,0.2016065,0.20996979,0.26655105,0.20224923,0.25144967,0.09774944,0.07861238,0.11494703,-0.609492,-0.69432634,-0.692807,0.5719431,0.5380608,0.5643137,0.18975703,0.18814617,0.2594754,-0.26702917,-0.17788498,-0.2624335,0.667109,0.7049274,0.66758215,-0.7010136,-0.70040905,-0.7566873,-0.78198224,-0.61548793,-0.7276172,-0.94769275,-1.075163,-0.93048143,-0.37713286,-0.25757277,-0.37315673,-0.08224828,-0.14444225,-0.15397565,-0.10314422,-0.015215842,0.007624706,0.052652404,0.12824853,0.2524331,0.18370268,0.2522822,0.3158226,0.67238367,0.5585001,0.5215251,0.9690276,0.8470278,0.9100656,-0.39151978,-0.4402746,-0.3941906,0.69480044,0.66407347,0.68170035,0.16469489,0.122508995,0.03453788,-1.6108348,-1.613222,-1.6090639,-0.083283246,-0.17748475,-0.10004808,0.8303446,0.7460147,0.73031455,-0.31579018,-0.42460644,-0.432678,-2.0904026,-2.135274,-2.1088135,-0.84044117,-0.8375266,-0.8139477,0.026155015,0.083821304,0.06494398,-0.18561985,-0.25002363,-0.19176982,-2.1719959,-2.21603,-2.2009418,0.06419677,0.11465627,0.25062928,0.13900253,0.10452334,0.19291458,-0.53390664,-0.48873553,-0.56094587,0.20096931,0.20708352,0.23812443,-1.5548127,-1.5606401,-1.4505656,-1.8758515,-1.8121989,-1.8511231,-0.23528375,-0.2714731,-0.19401333,0.33248326,0.31780478,0.3778785,-0.19134982,-0.13528946,-0.15971354,0.14225951,0.2191721,0.17943633,0.19169159,0.15850712,0.22302486,-0.5207902,-0.56190735,-0.5661496,0.47736573,0.4211401,0.4050988,0.718773,0.6341543,0.62765735,0.75536823,0.8446534,0.8807202,0.1058381,0.02797167,0.07395781,-2.6645665,-2.6639643,-2.6720092,0.7868177,0.7910426,0.85013896,-1.9424125,-1.8196084,-1.9412537,0.4209082,0.5064925,0.5734785,0.41571507,0.46055683,0.4640943,0.83708686,0.8151124,0.77865005,-0.72790515,-0.8173693,-0.8173716,0.060345385,0.029685618,0.00282482,-0.24149267,-0.29237014,-0.270721,-0.17466235,-0.1985817,-0.36292097,0.80616164,0.7422334,0.7372272,0.24425876,0.24979474,0.17339785,0.08056136,0.06537477,0.12648952,0.28896156,0.22985546,0.3043733,0.79235727,0.79554754,0.78367347,0.19367805,0.20443508,0.1966195,0.6203787,0.78398913,0.64435166,0.5029597,0.5133035,0.50786066,0.51711226,0.3133496,0.43380085,0.24672893,0.27985185,0.3267073,-0.20049442,-0.18272482,-0.21326567,-0.7925897,-0.7413078,-0.78415143,-0.46639648,-0.48513526,-0.43104297,0.028739158,0.08094691,0.0398701,-0.027297806,-0.015013395,0.012421615,-0.21248263,-0.2134568,-0.10025444,0.23096903,0.23641086,0.20920613,-0.048240382,-0.072793216,-0.16525646,0.22380942,0.18198122,0.15198632,-2.9660234,-2.8215516,-2.9483452,0.37103716,0.24102548,0.23362084,0.57106155,0.45734534,0.49101463,-0.7653284,-0.7912448,-0.9838898,0.71224016,0.66427124,0.6297855,-0.445666,-0.2792225,-0.25730008,-0.24311216,-0.2643518,-0.3084101,-0.22282715,-0.15192285,-0.2080318,-0.6530333,-0.7433642,-0.6590177,-0.45975173,-0.33272293,-0.31069565,-0.08245482,-0.042595126,-0.11257656,-0.36300912,-0.35020474,-0.32127404,0.84549665,0.88366467,0.86013913,0.28916502,0.3075574,0.20590162,-0.14323229,-0.19599451,-0.13767886,0.20251532,0.23926,0.32621574,0.18940754,0.13493642,0.1988478,0.37551817,0.25324166,0.2272586,0.052757807,0.052402485,0.10181633,0.18954,0.10003539,0.10642085,0.35236907,0.295306,0.20440347,-0.08048227,-0.10388789,-0.05703019,-0.49050733,-0.49689242,-0.46645454,-0.15027954,-0.087718196,-0.11260937,-0.29845157,-0.29807281,-0.38525376,0.41771394,0.40599766,0.27512774,0.3481964,0.30519557,0.37175372,-0.109808505,-0.1255607,-0.10269119,0.099346176,0.22061792,0.2170433,0.18378854,0.06783371,0.10426972,-0.34796327,-0.45079362,-0.35075703,0.052483987,0.07290241,0.009175638,0.16014634,0.14177015,0.13766849,0.08798039,0.169232,0.13865803,0.34492904,0.3855871,0.3786639,0.38844782,0.5019881,0.61864424,0.20119712,0.277809,0.2530351,0.3029358,0.24183728,0.116567664,-0.20148233,-0.2700914,-0.23752403,0.26954454,0.28546983,0.29366204,1.6017847,1.5577455,1.6516192,0.07081468,0.17018887,0.123767264,-0.13667381,-0.20059799,-0.016156537,-0.2219873,-0.14510836,-0.07561225,0.434094,0.37838387,0.4314721,-0.019333255,-0.044040136,-0.059540972,-0.33895525,-0.3133436,-0.31382954,0.033735823,0.0766452,0.028225627,0.07619858,0.09129156,0.07630597,0.092731945,0.053205084,0.091584,0.14671071,0.09557526,0.01619918,0.4093161,0.50843716,0.4533915,0.8268101,0.88990015,0.8285718,-0.1357755,-0.27839002,-0.23518483,-0.09808868,-0.015135555,0.0012022201,-0.58763903,-0.7090363,-0.62796664,0.4973274,0.44860783,0.4365662,-0.3782703,-0.43099725,-0.52427715,-0.20967974,-0.15761305,-0.13882028,0.4338725,0.5321206,0.45686993,0.4635777,0.45534354,0.4027903,0.45253852,0.46817127,0.55378586,-0.26997036,-0.2940875,-0.2989454,0.040208172,0.07602944,0.08735194,-1.6755317,-1.6978272,-1.7517546,0.40938577,0.22993144,0.35792226,0.42445874,0.35837033,0.42812386,0.01600361,0.065119796,0.06515279,0.1495885,0.11553356,0.1176972,-0.18947522,-0.09270454,-0.25066718,0.41434705,0.4372007,0.5506915,-0.1449077,-0.13094871,-0.30656606,-1.1822183,-1.20605,-1.258185,-0.057567157,0.08479752,0.12773901,-0.31036055,-0.31160447,-0.24380021,-0.24320045,-0.23403876,-0.24266195,1.2318428,1.1381073,1.3156713,0.2563996,0.32452294,0.21746399,-0.01850507,0.016489921,-0.033324197,0.22530982,0.16502608,0.28978756,0.39024752,0.40534386,0.41100767,0.2063071,0.33137712,0.25611824,0.0678493,0.05057242,0.01025416,0.0063902186,0.08663646,0.12406365,0.0428242,0.03867225,0.07423666,-0.24610493,-0.17343073,-0.21092099,0.30821317,0.30921283,0.1828876,0.25197804,0.2396672,0.17433608,-0.55106026,-0.6891107,-0.66555727,-0.119813755,-0.019063389,-0.14360869,0.1666529,0.1183278,0.15807018,0.30020145,0.37678188,0.3190665,-0.5001506,-0.44899788,-0.35482913,0.022807047,-0.04381938,0.069857,0.03561159,-0.040882073,-0.023062242,-0.14384516,-0.17943422,-0.16645265,-0.67643625,-0.6203763,-0.65618294,0.42595956,0.4316883,0.4195405,0.22142376,0.2315628,0.22157544,0.025207605,0.056841254,0.0076130754,0.34379548,0.36210063,0.25836504,0.24520746,0.16529576,0.34219137,0.1829973,0.22736298,0.39097652,0.04481617,0.17624834,0.25860336,0.56925946,0.62977475,0.66384864,-0.26134178,-0.17089842,-0.16109562,0.11485517,-0.0034433398,0.050316747,0.10857496,0.123829775,0.31201714,-1.8402231,-1.7435588,-1.7486539,0.35361063,0.26241922,0.28718075,0.12975438,0.18127185,0.12774502,0.15045199,0.26477426,0.31549066,-0.09190759,-0.15032241,-0.011684437,-0.16529973,-0.17967363,-0.25390655,-0.024259688,0.049838398,0.010006803,-0.21385509,-0.2381893,-0.25850865,0.4168374,0.46940437,0.47702393,-0.014127167,-0.06379512,0.10306783,0.091947496,0.112626314,0.23451741,-0.29143003,-0.29641283,-0.3135624,-1.227912,-1.194405,-1.2422221,0.10013055,0.025832225,0.048911765,0.24318178,0.2025049,0.29786298,0.09714751,0.019572543,0.050498318,0.670512,0.6776843,0.7093292,-0.11694171,0.0020813674,-0.14962558,-0.17397264,-0.24171853,-0.2779192,0.35112906,0.26619634,0.2826084,-0.20937121,-0.17258859,-0.21420385,0.28540805,0.20159559,0.09389573,0.19167598,0.06502756,0.07335651,0.16404657,0.25130066,0.18335779,-0.16671143,-0.20557828,-0.1697698,0.3207081,0.24034816,0.28647497,0.65403557,0.60364705,0.5397426,0.53150016,0.56872785,0.4923617,0.78076345,0.8350693,1.0142505,-0.87004066,-0.6644346,-0.5942295,-0.05589145,-0.07695319,-0.021806832,-0.2197614,-0.14691322,-0.12914649,-2.6418648,-2.7356958,-2.7466154,0.38448155,0.204568,0.27412596,-0.08464888,-0.1265442,-0.058427792,-0.55083114,-0.62374705,-0.69582444,0.35248,0.32885152,0.35414523,0.04695791,0.0031869435,-0.011969188,-0.0612495,-0.033571582,-0.030931592,0.40542135,0.35108605,0.39669198,1.4097995,1.2973908,1.4501833,-0.22970033,-0.30101943,-0.19803597,0.51961887,0.58180624,0.6769115,0.32253626,0.21702206,0.16936775,0.18116844,0.313231,0.44329292,0.104809225,0.04684796,-0.0065947874,-1.1454709,-1.030234,-1.0059057,0.3130903,0.3848465,0.37957993,0.60125834,0.4597047,0.49499366,0.3872575,0.4493951,0.40053633,0.13651642,0.22169027,0.18028624,-1.8210155,-1.8221991,-1.7350147,-0.8214632,-0.90122867,-0.9355397,-0.97578466,-1.000144,-1.0145706,0.22344008,0.12693918,0.19836988,-0.1389084,-0.1832159,-0.33787394,-0.17965554,-0.20161419,-0.13957156,0.08683046,-0.0061353985,-0.0051011434,-0.044263717,-0.077481896,0.09630646,0.6641522,0.68230057,0.70629746,0.4651781,0.34981367,0.38395128,0.71224755,0.6398337,0.5985715,0.30247837,0.28432804,0.19361784,0.13901395,0.17659757,0.088851765,0.14273176,0.12149866,0.16702756,-0.11219628,-0.12292915,-0.059473958,0.15610398,0.18949121,0.30399156,-0.1472654,-0.24282011,-0.2797977,-1.8158351,-1.7230463,-1.7545288,-0.47294042,-0.4894404,-0.4997672,-0.24896623,-0.2779473,-0.26903242,-1.5353602,-1.4434705,-1.5638174,-0.43739977,-0.47671577,-0.4305057,-0.06073019,-0.16084541,-0.13141273,0.51584524,0.62340796,0.5758059,-0.11241548,-0.025349882,-0.10596144,-0.037711278,-0.13916685,-0.19272177,0.44158196,0.40240765,0.38193506,-0.12537384,-0.18912606,-0.2798491,0.0046899104,0.044024237,0.013449677,0.27112085,0.2170881,0.2379454,-0.25171584,-0.23159736,-0.28883797,-1.1077359,-1.0873297,-1.1334106,-0.6813973,-0.6527798,-0.584539,0.22296736,0.09944382,0.20449622,-0.10673356,-0.16836706,-0.20390067,0.1377696,0.14571851,0.09083444,1.316521,1.2954652,1.3522357,-0.67928934,-0.78506124,-0.8138256,0.37808156,0.3210116,0.39316398,0.21277931,0.17743397,0.24135907,-0.5369941,-0.59389895,-0.6064291,-0.8975817,-0.9697262,-0.95377684,-0.47777638,-0.6358745,-0.74712175,-0.4190296,-0.3810261,-0.44280908,-0.040651403,-0.13205598,-0.09648973,1.712617,1.7150311,1.6897751,-1.512145,-1.5825683,-1.467873,-1.5528902,-1.5806035,-1.6478,0.468294,0.40473,0.50630033,0.60648173,0.5105169,0.3647898,-0.32641548,-0.31224978,-0.27570394,-0.5534658,-0.50705236,-0.59122044,-0.92742205,-0.92620474,-0.8650462,-0.4211318,-0.3168362,-0.3759119,0.11059661,0.07820794,0.00047576075,0.3117539,0.35064062,0.3541547,-0.70048565,-0.560145,-0.69759905,0.18257338,0.17164518,0.15069352,-0.18680498,-0.20354079,-0.267377,0.065298595,0.16355452,0.20718145,0.30650368,0.3022223,0.37098816,-0.046679534,-0.0032631664,0.05487528,0.39124525,0.38411266,0.52700824,0.10335268,0.048413616,0.047212854,-0.027634662,-0.012407041,0.034288667,-0.154821,-0.10136327,-0.03295398,-0.06868135,0.021318927,-0.09371152,0.002717421,0.097725414,-0.010860517,-0.72325873,-0.48882273,-0.6201847,0.0820242,0.1491338,0.16503796,-0.2841631,-0.3211411,-0.34971574,-0.41686606,-0.38376313,-0.13928863,-0.18814309,-0.10950218,-0.06369858,0.76887465,0.7884468,0.8678151,-0.7944891,-0.82382303,-0.8243162,0.107463256,0.1856501,0.13113675,0.113208055,0.21637855,0.14500612,0.027879747,0.020590773,0.036000017,-0.093404435,-0.00024231379,0.107273705,0.14411339,0.2147862,0.22171691,-0.023741018,-0.028362978,-0.11371275,0.22540835,0.2617881,0.3155196,0.51022464,0.3232398,0.2829086,0.102540396,0.15954427,0.1477132,0.09741786,0.15045717,0.20370445,-0.1467968,-0.07775666,0.03419497,0.13924953,0.17157961,0.29293936,0.0657626,0.0008257854,-0.013585954,-0.1255358,0.041486792,-0.002964194,0.07269481,-0.00029557044,0.024604965,-0.1208145,-0.07488967,-0.1227868,-0.08494717,-0.15635,-0.27021596,0.24014094,0.26518044,0.16435319,-0.17306933,-0.060414,-0.0058644433,0.4457351,0.5211349,0.6108573,-0.064256474,-0.038031325,0.00031259994,0.22185405,0.06316222,0.23466611,0.32107586,0.11456527,0.25223842,0.27776778,0.20904616,0.17492041,0.29330334,0.15637021,0.28731635,-0.15624881,-0.16903397,-0.12837046,-0.03983159,-0.062837824,-0.02262848,-0.36320835,-0.3530836,-0.403763,0.1862801,0.19741184,0.24951442,0.109252915,0.08889128,0.11388791,-0.51608163,-0.5176419,-0.56918126,-0.15150216,-0.1475559,-0.20547312,0.12256117,0.12187204,0.12607719,0.009465422,-0.03666328,0.022694727,-0.33408862,-0.2696555,-0.199325,0.015197048,-0.028014617,0.13732141,0.1109992,0.0877563,0.083738,0.18657298,0.0415242,0.0700689,0.5236998,0.5227462,0.49877748,0.12610474,0.23364119,0.21315658,0.17394304,0.17279181,0.28711227,-0.4600381,-0.40210053,-0.2587429,0.12839298,0.2639291,0.25569856,0.3064485,0.28594127,0.29721817,0.6781244,0.5897709,0.7022308,0.25872716,0.24881496,0.17357945,0.061582003,-0.030317005,-0.07993646,0.19001797,0.19937827,0.13546112,-0.6917574,-0.55781966,-0.5039108,-0.17117983,-0.0991029,-0.17423823,0.63833356,0.6621156,0.66683745,0.18259639,0.13524957,0.16038115,0.46864972,0.40730065,0.5020328,-0.52091366,-0.46353853,-0.56825185,-0.20667987,-0.29327452,-0.24284114,-0.13574731,-0.008105122,-0.17423001,0.41121796,0.371406,0.32398087,0.16969867,0.3037417,0.22321571,0.38439384,0.29486716,0.14978547,0.29296726,0.16149648,0.27624995,0.70135057,0.6908722,0.6159,-0.13938498,-0.11463523,-0.12573047,0.44806525,0.41482353,0.46228597,-0.31549406,-0.3898743,-0.26224905,-0.6334042,-0.51672435,-0.5261397,-0.04661191,0.027414033,-0.041617922,-1.1512985,-1.2419318,-1.1414909,0.6376979,0.62161225,0.5413956,-0.9371963,-0.90332687,-0.9709738,-0.25551388,-0.2631786,-0.20913403,-0.15616061,-0.12263781,-0.23388381,0.18598133,0.13427533,0.0611861,-0.64973986,-0.7161939,-0.79182917,-0.8860134,-0.99079555,-1.1519516,0.016115252,0.06834551,-0.030530795,-0.21178472,-0.1589476,-0.18626083,0.28943697,0.39739737,0.5168402,-0.38094512,-0.44720283,-0.40670264,0.12323506,0.15731218,0.27537474,0.30629352,0.28099495,0.2837789,0.78278476,0.5944403,0.6279103,-0.34951457,-0.37354207,-0.44907415,0.14461967,0.119315356,0.15535524,-0.99510425,-0.9994072,-1.0386398,0.23248053,0.26866856,0.33617762,-0.015922802,-0.03169302,-0.050489385,0.5304146,0.54187953,0.46822852,0.42134023,0.36538678,0.44827163,0.006547987,-0.067483865,-0.071603194,0.50649905,0.52623355,0.3865809,0.5060058,0.5429874,0.45362535,0.2661626,0.34236646,0.33597878,0.5127602,0.4979348,0.50112677,0.12179249,0.13495475,0.1693231,0.06639299,0.057643026,0.13159287,-0.4679104,-0.40493712,-0.45933113,-0.6857135,-0.686502,-0.71948457,-0.42526346,-0.38337192,-0.44583592,0.112850025,0.22717169,0.11741924,0.4308802,0.40510798,0.5050351,-0.12001678,-0.068742916,-0.037687417,-0.40508997,-0.5809109,-0.5740899,-1.1174175,-1.1175492,-1.0307912,0.37347698,0.32907572,0.36732453,0.25027168,0.14899886,0.13943645,0.83953327,0.7523744,0.9656169,0.6432682,0.6683738,0.6736924,1.0662829,0.92667776,1.0063782,-0.9836853,-0.9268725,-0.7934336,0.14299355,0.0075463685,0.05027437,-0.036965832,0.000102276405,0.018948529,-0.34935606,-0.36383098,-0.41766882,-0.18334553,-0.3094825,-0.25935555,0.28400064,0.24296303,0.26105145,0.21699083,0.19957122,0.20283614,0.21726303,0.26523343,0.3091543,-0.27983227,-0.19146286,-0.21935824,-0.012610767,0.03523723,-0.035585634,-1.1718541,-1.0360538,-1.0056354,-0.009824632,-0.038008943,0.032243475,0.3129806,0.24495578,0.24592006,-0.050455593,-0.051721074,-0.021910787,0.12762436,0.15520707,0.16750479,-0.13679102,-0.19792825,-0.22792968,-0.15569267,-0.12804665,-0.18088251,0.12604254,0.20131494,0.17696676,-0.92645574,-0.9097727,-1.006065,-0.44222537,-0.47454524,-0.49222252,-0.01061526,0.05731442,-0.043995082,0.25049785,0.18425283,0.16397277,1.3716352,1.439813,1.4550226,0.2259783,0.32126808,0.2804836,0.12086472,0.10375883,0.14367127,0.40192565,0.40135726,0.48381132,0.56510615,0.54428196,0.46521133,-0.006416075,0.09976048,0.13143748,-0.12857097,-0.1035393,-0.04233697,-0.13673708,-0.11478688,-0.14681858,0.007926537,0.058419563,0.010170502,-0.16716424,-0.13157873,-0.115036294,0.4163167,0.5316203,0.47690293,-0.23090255,-0.2936488,-0.23623557,0.11767756,0.04964552,0.0575871,0.20079592,0.20524736,0.17401029,-0.01458181,-0.03270957,-0.068807915,0.15323181,0.14160307,0.09483792,0.004356072,0.031410955,0.031662054,0.79917055,0.94275826,0.9428972,-0.31416205,-0.28460616,-0.26151308,-0.024728335,-0.008410778,0.026720446,0.18266119,0.12547973,0.31181115,0.13429657,0.12511683,0.15689287,0.98988,1.0020275,0.98386234,0.10985704,0.13320915,0.07957588,0.13652483,0.11764471,0.091076866,-0.110317454,-0.11187267,-0.13899884,0.023527687,0.10531572,0.17726146,0.13692169,0.09290307,0.19553578,-0.3364865,-0.3132308,-0.28745955,-0.14382361,-0.12057969,-0.13667741,-0.0716372,-0.071066454,-0.016215378,-0.22706427,-0.21362448,-0.2105245,-0.5473498,-0.5043499,-0.49018753,0.5020575,0.4900253,0.47683585,0.060622558,0.1576163,0.12453402,-0.011078395,-0.1320817,-0.03154913,0.6349016,0.61378086,0.6794215,0.20021912,0.32751524,0.27353874,-0.026585046,0.022449961,0.028031316,-0.48008254,-0.34257606,-0.3755769,0.80758816,0.8343506,0.89233387,-0.043459766,-0.07716306,-0.009960106,0.7482554,0.71380925,0.6938871,-0.12800801,-0.13397375,-0.12204635,-0.41169447,-0.3673038,-0.54904395,0.0882958,0.19919302,0.22121082,-0.075854436,0.08700908,0.17875873,-0.0398124,0.09469239,0.09485706,-1.8325301,-1.7703061,-1.8122293,-0.18250604,-0.09654,-0.050182603,-0.2755605,-0.28056064,-0.32152703,0.12483386,0.11496874,0.11381126,-0.29333925,-0.12394754,-0.03549169,0.15859178,0.22867052,0.2433329,0.3881612,0.32463786,0.23241182,0.50451845,0.5362845,0.7262199,0.24904492,0.1923864,0.14128955,0.11986113,0.16319665,0.012187194,0.23693836,0.2375257,0.40410522,-0.378886,-0.32265204,-0.26776242,0.5214173,0.539574,0.45950654,-0.36819834,-0.16912198,-0.18696861,-0.31101805,-0.29756027,-0.3348635,-0.10423332,-0.12303254,-0.2499732,0.23611197,0.18569294,0.23023658,0.040676013,0.06130183,-0.028570086,-0.20296356,-0.17122819,-0.13532515,0.23209786,0.29194626,0.37536752,0.03753062,-0.083586715,-0.06874963,0.13702731,0.11517905,0.1263956,0.099475764,0.15818278,0.18231148,0.24443601,0.25789675,0.14945875,0.19465119,0.094287544,0.09742028,0.022199564,-0.086754516,-0.09445717,-0.59617704,-0.5447425,-0.56640214,-0.27492923,-0.34679198,-0.2369182,0.54806066,0.32766792,0.26570797,0.19441625,0.047682703,0.14657936,-0.19529279,-0.15495025,-0.26992795,0.39157546,0.22439447,0.19849688,0.18300977,0.032692093,0.0741032,0.5842632,0.66440463,0.74729633,-0.0070910384,-0.016551208,0.02163224,-0.2624377,-0.27939883,-0.30127922,-1.0924437,-0.8743468,-0.7960229,0.27306193,0.19367929,0.2589826,0.3699476,0.3698728,0.40908816,-0.29299417,-0.2916155,-0.25142893,0.068521634,0.08703604,0.07590176,0.124350585,0.07679071,0.0813446,0.19677284,0.11147487,0.08234635,-0.5158235,-0.34848237,-0.3755463,-0.35413724,-0.22153097,-0.29235482,-1.2403166,-1.1696748,-1.2183963,0.22295716,0.23666659,0.25634828,0.16347921,0.21497597,0.28776795,0.48558393,0.45073324,0.38592792,-0.06727069,-0.17134298,-0.15421979,0.28384116,0.26195398,0.32250684,0.2473093,0.20546328,0.23750386,-0.8849645,-0.7704528,-0.87882286,-0.35831982,-0.37269482,-0.3869931,0.21078335,0.2382773,0.23261048,-0.6747439,-0.6171366,-0.604299,0.46894664,0.5360276,0.53866786,-1.7648816,-1.7103671,-1.5463177,0.2691554,0.33395892,0.34495538,-0.15234435,-0.068512715,-0.16465212,0.55146873,0.7039567,0.66865265,0.113423824,0.15619619,0.20674057,-1.2268777,